{
    "Layers": [
        10,
        100,
        100,
        4
    ],
    "activationFunction": "sigmoid",
    "Weights": [
        0.006359649407384538,
        -0.08928428293421171,
        -0.043018613148388556,
        -0.019169065548743314,
        -0.041923222344461934,
        0.06523647771043203,
        0.0006189448846830314,
        0.025270591156107747,
        -0.0038721030137992274,
        0.02143425194011686,
        -0.003175107706815214,
        0.08444732467471469,
        -0.0623487777226758,
        -0.0838098428265095,
        0.053327394922211585,
        0.05156576003929533,
        0.09492142682741722,
        0.03989616272802743,
        -2.0280502639006173,
        0.05986922547875087,
        0.02748845348683035,
        0.02433856239751933,
        0.054621001789480206,
        -0.049709966570680164,
        0.008092294110780468,
        0.06549521705177774,
        -0.09486537372188951,
        -0.06174894406305512,
        0.050738962487190564,
        -0.00036768560185596044,
        -0.01560715027567787,
        -0.04386329264748188,
        0.054008297889207635,
        0.006949696317485682,
        -0.021014148614963493,
        -0.06287084319522815,
        -0.006460502780966854,
        0.017225857368729974,
        0.02945737864851994,
        0.06855909604532809,
        0.07189286254654528,
        -0.08907336606162782,
        -0.04598768602219505,
        -0.039908288897733304,
        -0.005484800346785515,
        -0.09474715529274569,
        -0.06782246016463583,
        -0.04810149094877754,
        -0.09685745519400575,
        0.015910187676048876,
        -0.0484953129814842,
        -0.07530820632554379,
        0.01333724899777615,
        0.05797985434421135,
        -0.06516039554000388,
        0.08301419043088229,
        0.027564403931544745,
        0.06624458747754286,
        0.08011386900673842,
        -0.01654553468254938,
        0.06374596632291812,
        0.023729136720760602,
        -0.0693221579601811,
        -0.07958078006743126,
        -0.06130384204758275,
        -0.018062211779458617,
        0.004248611956268092,
        -0.03070545111462812,
        0.0997713690695016,
        0.03743468719781223,
        0.062112377009036795,
        0.0767706596102343,
        -0.07115009817183765,
        -0.07969726954028539,
        -16.23466647601721,
        0.07494087311568629,
        -0.08850267605601757,
        0.030110219929280035,
        -0.0681158578504523,
        0.06981967465678518,
        0.008542655751842959,
        0.09212580489305697,
        -0.06677677832239692,
        0.04703041702025823,
        -0.0671421265466893,
        -0.0759157043744513,
        -0.010800828610457766,
        0.038887602167736096,
        0.09520231276171942,
        -0.0864363463474141,
        0.05743985139579216,
        0.052309514371137095,
        -0.09772427566742788,
        -0.042086601364410475,
        0.0462064238710555,
        0.07702952051051062,
        -0.03615315821514105,
        0.008428680351836082,
        0.048707289900000866,
        -0.08478233209088826,
        0.06000299724915764,
        -0.09906215322942509,
        0.09383289911639553,
        -0.0743368257843816,
        -0.002701117578060769,
        0.04839922185744264,
        0.09451932242350641,
        -0.07420097862496644,
        0.023043880158100022,
        0.018039617829091442,
        0.009377261492062194,
        -0.021308242238847266,
        -0.09377668224864921,
        -0.0944102822380084,
        -0.06474589692032154,
        0.09090937106669292,
        0.03200326265380879,
        -0.011158459401531443,
        0.02463602661797437,
        0.015451569848818542,
        -0.05152217248345328,
        0.06267780642308313,
        -0.00042502064890337365,
        0.007338215199748976,
        -0.09591434088600392,
        0.08754340052340168,
        -0.08933123241788254,
        0.033866027797463755,
        0.03932316364770028,
        0.07218881665040386,
        0.05739809078180724,
        16.730889912656167,
        0.03179884418524653,
        0.042597548051028555,
        -0.0010077741220476943,
        -0.0017673284800291122,
        0.022367934296673872,
        -0.012836025965751924,
        0.026665055135978694,
        0.06485844144016922,
        -0.004698782234570584,
        -0.05011898909686079,
        0.0833430149121715,
        0.042998319223944315,
        0.08908999730883466,
        0.025548345384138166,
        0.03503862456635823,
        -4.611412769515145,
        0.09803000143187343,
        0.09270635189653281,
        -0.01474862507750467,
        0.05207195301796186,
        0.06813655727798662,
        0.08352976176756371,
        -0.048785091153100035,
        0.06389907963541056,
        -0.007957345502019514,
        -0.09176524387805714,
        -0.037132982581166415,
        0.006135160445948126,
        -0.022636301767417516,
        -0.09709598499306514,
        0.04405444213637327,
        -0.0994887830444998,
        -0.07481736367861017,
        0.008697166197181125,
        0.08578175256413464,
        0.04827008646042219,
        0.08939813659388413,
        0.008183392452556462,
        -0.02077137243555645,
        -0.05434235786970679,
        -0.04490403803473351,
        -0.06871588797354505,
        -9.602489597319575,
        -0.08462865578939122,
        0.006614570138021622,
        0.05523794129519591,
        -0.028414065462134055,
        -0.03387366223396855,
        -0.030477000860155506,
        0.041377849291412166,
        -0.053357276733314765,
        0.06572036690141797,
        0.08119070054126507,
        0.01490524727164741,
        0.02002566190154527,
        0.02218355307818927,
        -0.029117879904409436,
        -0.08850929370236874,
        -0.007515034319686725,
        -0.023609851169246146,
        -0.09668012057462874,
        -0.04018469617054339,
        0.0700224196697743,
        0.035925919994507005,
        -0.0548261594938603,
        15.893392224375347,
        0.02080320668418993,
        -0.058569249104738756,
        0.05599442152380715,
        0.00605120883461141,
        0.04095375608307772,
        0.08332499331108828,
        0.08602966798833195,
        -0.05798656506007554,
        -0.01147002283283896,
        -0.04880455697016553,
        0.08625254976617686,
        -0.08587311281541066,
        0.016611554460923855,
        0.09851947682367543,
        0.06262665503123199,
        0.09343400666799587,
        0.03307505307224218,
        0.05006424454281483,
        -0.04359533684787316,
        -0.07694780982325625,
        -0.056150108384618584,
        -0.020727649954379368,
        -0.004676340465659429,
        0.00922830283594353,
        0.006874040954595623,
        0.028703976001862946,
        0.06921655391687379,
        0.007672215515950945,
        0.01180773818539467,
        -0.04462408571120205,
        -0.02167766295289239,
        0.09541683463818643,
        0.05777959603344246,
        0.09503571261187505,
        0.08032219761016832,
        11.16062741311066,
        -0.0328405587750106,
        0.016144878507329527,
        0.03168738101909599,
        -0.07179223725985318,
        -0.08859538086706774,
        0.016647739450925764,
        0.08295509197148987,
        0.06048963292254542,
        0.08312202845478561,
        -0.06875958506357366,
        -0.0018378812315713172,
        0.020446835764209803,
        0.06787547868557159,
        -0.00894157532373048,
        -0.07928475318116046,
        -0.022883639905978997,
        0.045919087726113694,
        -0.0016052390688773566,
        0.0549829824687805,
        -0.028651743789971193,
        0.020141078983148653,
        -0.0028482739391424428,
        0.09122204132895781,
        -0.04922136759538494,
        0.09978816596375781,
        -0.06440599149419209,
        -0.06413874323699073,
        -0.00620278559261922,
        -0.01871354497630469,
        0.07751639506271243,
        -0.012458431034889597,
        12.406529760898543,
        0.0007538348132264672,
        0.03510962157330444,
        -0.08759613885829594,
        0.022013564875856415,
        -0.028292397046660964,
        -0.04712663773681456,
        -0.09808606789164279,
        0.04319899561998844,
        0.09583860475656061,
        -0.03166179035118333,
        -0.03690717496471714,
        0.06580565820586146,
        0.09749818557198697,
        -0.03285685135858728,
        -0.08892942232116906,
        0.09225253296456626,
        0.0672848863414802,
        -0.08317769073995462,
        -0.07098298710049633,
        0.060718010033522785,
        -0.063145779668519,
        0.021185424091490337,
        -0.021066837553143314,
        0.019546151489117758,
        0.028030967876181367,
        0.07300992987608931,
        -0.00023160182131905238,
        0.0335154477390954,
        -0.00652068533161905,
        0.06885915432577014,
        -0.036976035397995544,
        -0.02063215450053746,
        0.03904934830094789,
        -0.0686514450716873,
        -0.045070582941347095,
        0.05647726593775221,
        -0.06055660271513572,
        0.09846522428290402,
        -0.07377691225736012,
        -0.07678213584994849,
        0.01900917177116654,
        -0.031039511441739318,
        -0.0724181091558645,
        -0.06578052447482494,
        -0.014703862795654249,
        0.05867362426099998,
        -0.0067927411343558786,
        -0.09021268394585938,
        10.0120122345418,
        0.0025218488087995483,
        -0.053673851222815296,
        0.00617317797602461,
        -0.03989565160195366,
        -0.07310190637755727,
        -0.06091337329609754,
        0.015011976552690598,
        -0.03727263347475614,
        -0.09013104928871525,
        -0.05323057070487507,
        -0.071213617617533,
        0.06670322422558367,
        -0.016085570258111706,
        -0.06833665978795,
        -0.08647586125793216,
        0.04357265606900795,
        -0.026330734879310036,
        -0.0727643012332465,
        -0.023431743116245893,
        0.08940390173907528,
        -0.025782001411005284,
        -0.08691890524733902,
        -0.07143256414700337,
        0.009630126130713595,
        -0.01633794836801719,
        0.020144040134754612,
        -0.03212275921435359,
        -0.005479182442947608,
        -0.004036076770685473,
        -0.04127373429720365,
        3.001337152928496,
        -0.07165638954723952,
        -0.026421337251755883,
        -0.03298427119151773,
        0.038894231078575536,
        0.07733475281637309,
        -0.0240568686051382,
        -0.04517989170830253,
        -0.0018587537017858702,
        -0.0351737830838713,
        0.016770622059364457,
        -0.08810385470738794,
        0.05447764752589701,
        -0.0010278897889825223,
        16.113217750050104,
        0.09739628851736165,
        -0.054401075560246474,
        -0.00001757936619144196,
        0.08438655940200263,
        0.04988859642283461,
        -0.0755952134913554,
        -0.09944411330694028,
        0.09439681094200178,
        -0.08872543377092651,
        -0.013801204817744231,
        -0.09490447950278275,
        -0.016532422764465565,
        0.06470912577268645,
        0.09076430189781481,
        0.01645795494901811,
        -0.08700151615882322,
        2.9796156063137573,
        0.05560911841180727,
        -0.09804411897396088,
        0.06264247825304531,
        -0.008926639482879667,
        -0.008044291141625373,
        -16.241553505234627,
        -0.0902662586031303,
        0.03863744312148415,
        0.03338993642824714,
        -0.00016108530408094623,
        0.09146469395295273,
        0.04161806904299911,
        0.09606511055130468,
        0.0756391319195868,
        0.04221055559042203,
        -0.05962265597960879,
        -0.030982491440432858,
        -0.04066274778871333,
        -0.06115101661103117,
        -0.06038472628523195,
        0.01497755697903247,
        0.028750090218685243,
        0.013221891074982658,
        -0.004896094204496576,
        0.0475553434037736,
        0.09217598032988458,
        0.04576484173385578,
        0.02633406821087028,
        -0.7454263560509169,
        0.007115371870693291,
        0.032717732381526504,
        -0.048134147506794234,
        0.020560986412433688,
        -0.06386173685949723,
        15.42404647712835,
        -0.09750361761022819,
        0.02735625935539837,
        -0.08214086513904682,
        0.01595376723727182,
        -0.08065546363041697,
        -0.028467612984428528,
        -0.05176630788867312,
        -22.623301592710266,
        0.05940497732868319,
        0.08727165867417574,
        -0.0327179897873644,
        -0.08950064726638583,
        0.07951257933593556,
        -0.09925867237640539,
        0.09907961449918398,
        -0.053913569605975556,
        0.09158380435915806,
        0.0356994667930744,
        -0.04528521542714206,
        0.0035485431267022055,
        -0.016283296918721962,
        0.09290797729522429,
        -0.04556816529752714,
        0.08708831350240187,
        0.010995205408151201,
        0.0222330616130563,
        0.08629320505108007,
        -0.04328285103598173,
        -0.04386551725666581,
        -0.016826957379841634,
        0.03908892912500392,
        -0.06773751026110238,
        0.0532534141618394,
        0.08132859497322067,
        0.07696490287781838,
        -0.08136132426607788,
        0.0803617989297826,
        -0.0014829913495312541,
        0.04565868418566832,
        0.0036707002263594857,
        0.03238170298963952,
        0.09920971613914822,
        -0.04474876634476721,
        -0.05652522939157781,
        -0.06738827883124957,
        0.001201415255603508,
        -0.0739576697758566,
        0.08160537295917553,
        -0.04248333979023449,
        -0.006904797658651457,
        0.09825039470063321,
        0.011943518205215081,
        0.017010170571400668,
        -0.05800613033113136,
        0.07060371759669223,
        -0.033363222104012366,
        -0.030761485540850148,
        -0.038577593527688726,
        0.09555180768808544,
        0.09234727158800213,
        0.019916830110105727,
        0.038195651133400815,
        -0.04567778198348216,
        -0.09936316181177487,
        0.0763622527954233,
        0.05909756460509055,
        -0.07558191866866096,
        -0.015963073207443612,
        -0.06139057841620739,
        0.09035482204845469,
        -0.06989196258118127,
        -0.03008213655300232,
        0.04132321460954719,
        -0.06619265085070453,
        -0.009256220697438214,
        0.0009999387172519858,
        0.0714926622498338,
        -0.07805999160364041,
        -0.05713327722344506,
        0.03059544393601238,
        -0.051603840966521514,
        0.03438815646003518,
        -0.03172524820623783,
        0.04477371431971808,
        0.09854591333818283,
        -0.05598034255295192,
        0.05627434668769388,
        -0.01375933528815887,
        -0.06379583632749558,
        3.491486758070682,
        -0.004479466828121698,
        -0.0853212122490549,
        -0.00338342616677019,
        -0.03895029349938306,
        0.01576225835572083,
        -0.06174402959079095,
        -0.040204064898919305,
        -0.09284664169144335,
        -0.006558552796426115,
        -0.0722177573277977,
        -0.0006610442987435433,
        0.09943184447991418,
        -0.07305153899408082,
        0.03657327503440819,
        -0.02016378531636312,
        -0.05446625416413031,
        0.0208674221418534,
        0.06926765950413141,
        -0.02885276121391707,
        0.021406263857886243,
        0.03908586526548516,
        -0.06748530767600275,
        -0.07368851526852543,
        0.0026268098269571077,
        0.06179208196221406,
        0.07966947988779224,
        -0.07285862475811765,
        -0.0070116572701350854,
        0.03288798179620084,
        -13.976941774535112,
        -0.07844931597308712,
        0.0797282592489478,
        -0.030321268188458997,
        -0.08854349313035184,
        -0.04469236442643165,
        -0.06337236103775257,
        0.04344863776510155,
        -0.02415337905154616,
        -0.09857069296235554,
        -0.0984032689409835,
        0.03513975790043472,
        -0.0537297096582841,
        0.05777420919032178,
        0.012224621165927554,
        0.07964425013590978,
        -0.09542082430665406,
        -0.0018375041210760418,
        9.579068114610521,
        -0.09650529057509992,
        0.011240935192231655,
        -0.005185483201167032,
        0.05317803618341421,
        0.040632208753333454,
        -0.08731039664303193,
        -0.0005767933346713383,
        14.205429684366258,
        0.009787035599492816,
        -5.901991315441148,
        0.05758540762606362,
        0.018693589450983608,
        0.08473272395239873,
        -0.06446409534614142,
        -0.07143879891808083,
        0.030434492417292847,
        0.029678397344153618,
        0.06272177895501319,
        0.08104826147436489,
        0.01898721120571567,
        -0.09562047066387343,
        0.022965732143980316,
        -0.08459438579995499,
        0.0870709114072494,
        0.001997684396598573,
        -0.03473275887902667,
        0.08913742478944661,
        0.04800793427566594,
        -0.07219308293519547,
        -0.05616420080248324,
        -0.026706062745458864,
        -0.016313346398938403,
        -0.0333494019841004,
        0.07858152572034391,
        -0.029594545339887063,
        -0.03542106817697488,
        0.005513624874293119,
        0.09243824047989299,
        0.09569536096228198,
        -0.0835711310875999,
        -0.021511127098183147,
        -0.006819470531839539,
        -0.06628602195918326,
        0.05803030193143055,
        -0.0450454860463831,
        0.07056232357748118,
        0.07962911209944395,
        0.010986433150504252,
        -0.023871973632596702,
        0.0376739850284839,
        0.017147942008026676,
        0.034108233558747036,
        -0.07795470471315596,
        -0.06835454397261831,
        -0.004695982821803613,
        0.013028901790876984,
        -0.0698726515425297,
        -0.08353595061105455,
        -0.02067730771091872,
        -0.06094813543139841,
        -0.07115700003881363,
        -0.06959078316473902,
        0.07504957837013007,
        5.44354059240343,
        -0.06214267494438635,
        -0.03707425567420333,
        -0.03108561226432914,
        -0.07704609070496181,
        -0.08268266908076223,
        0.024661036311814044,
        -0.01710635803761447,
        -0.013772533532443454,
        -10.171681662130794,
        0.079300957826094,
        0.05959564836440251,
        -0.0886542720900419,
        -0.05547090827858506,
        0.09894279258498823,
        -0.006187750945598536,
        0.09922381284300363,
        0.009089596882329506,
        15.191173941096814,
        0.04104071718299629,
        -0.0725923107117482,
        0.07082074133705549,
        0.04399812852615925,
        0.05793075709133483,
        -0.09655752534005693,
        -0.043902249048784064,
        -0.08472381674778756,
        0.050400048749580456,
        0.001206193833992189,
        0.07926753507642292,
        -0.06562392046938034,
        -0.010754171602133586,
        0.055109468177908044,
        0.053205849042512104,
        -0.09014136813563658,
        -0.057735097030771114,
        -0.0430329450958272,
        0.08537816233181125,
        0.020244224309318118,
        -0.023506056247885793,
        5.415476672998054,
        -0.04440900937377519,
        -0.06296003529423744,
        -0.051954293097364795,
        -0.02301613540611655,
        -0.02527833087696517,
        0.05755857666530115,
        0.00024191065983654447,
        -0.030464035058238983,
        -0.039322690757454204,
        0.01025417649311762,
        -0.025411448150182245,
        0.008931115198893155,
        -0.01685738725374275,
        -0.07457673930978324,
        -0.09481218205553166,
        -0.042044706944654966,
        0.08287584455673272,
        0.05211340090048586,
        0.08314275147483713,
        -0.046107215820759384,
        0.00701360789123813,
        -0.06622279782650073,
        -24.567344092863863,
        -0.09911881733994213,
        -0.07078378858013222,
        0.03799647150377389,
        0.053382399638334216,
        0.03557621868667238,
        0.03972214674731195,
        -0.0778279407221581,
        -0.0677504961739396,
        -0.07956125345586695,
        0.055389057316729357,
        0.07936026728730025,
        -0.09250894876440441,
        -0.044418513392630435,
        0.0894182148566125,
        0.02974394605935743,
        -0.07093737162116925,
        20.35531403938151,
        0.028166109310338028,
        0.09006847010094043,
        -0.0031412415105653846,
        16.819393889006783,
        0.0650199573070557,
        -0.09709256556979509,
        0.09080848915413148,
        0.037887556492765706,
        -0.04624946429786814,
        -0.030734476604937333,
        -11.448927355358851,
        -0.028231862888535228,
        0.013410683048356326,
        -0.057557301573218436,
        0.08174712719034205,
        -0.047461969763983314,
        -0.07658520747108298,
        -0.019785175340030797,
        0.021454024547078315,
        0.08855038169230811,
        -0.004091518903370783,
        0.03930591129741884,
        -0.07325065389436297,
        -0.08216260925901833,
        0.053392921259046544,
        0.041775085041469456,
        -0.010805958894764697,
        -0.09082604298353592,
        0.05661394735596856,
        0.039109428117287404,
        -0.06092000899603929,
        -0.08441470099864859,
        -0.00024633517611989675,
        -0.0586666175780135,
        0.06629019068413583,
        0.0765886249065241,
        0.02164068648256956,
        -0.0873942804961863,
        -0.0756563939918697,
        -0.005110348709803161,
        23.31176145356494,
        -0.02865228777872933,
        -0.033626374376220944,
        -0.032091571072746336,
        -0.083876944756262,
        -0.03387138099814582,
        -0.056585491630222154,
        -0.0002811292035413554,
        -0.018576536377745742,
        -0.04760801253344882,
        0.048022946136069194,
        0.06219680451475679,
        0.07283101346321671,
        0.05764081286446074,
        0.051855325004804664,
        -0.011432816563583442,
        0.044306129359558216,
        0.07999597488347174,
        -0.02706432628858009,
        0.0015713579529384736,
        0.03281743739034834,
        -0.05137840067112305,
        0.06976108292743707,
        -0.050430669652552586,
        0.07807459509796325,
        0.09138989677810003,
        0.06503921405002663,
        -0.07714075047391727,
        -0.06383662366384564,
        0.004308899076250136,
        -0.019361864010436755,
        0.09446582291076791,
        0.015905269090164875,
        0.08348227059999919,
        -0.08157258315059696,
        0.09522834730496552,
        -0.015020181083518394,
        -0.09515187808346287,
        0.056032931133184555,
        0.006925112020160995,
        -0.09982409679791737,
        -0.02490922980310413,
        0.09435251516439874,
        -0.016345261930998722,
        -7.5004092788252805,
        0.06144474048914725,
        0.032544023633818,
        -0.046845654274464237,
        -0.0032150424530688476,
        -7.202711561391773,
        0.0998090487628264,
        -0.07714189599339437,
        0.0549668493268389,
        -0.08836963429761942,
        -0.05994728766880462,
        -0.07344960774494479,
        0.09434190824308408,
        -0.020515397402773375,
        -0.038633823402523464,
        -0.04888866097230907,
        0.028184062087691197,
        -0.09791999473865803,
        0.020575931451208312,
        -0.051742339624531966,
        -0.08028461922949265,
        0.06851927025896046,
        0.013872053397719464,
        0.07754488306675969,
        0.05626686139224013,
        0.08084056938275452,
        -0.047806120893192944,
        -0.07939069347420813,
        -0.09357443989753955,
        -0.02153323052593019,
        -0.035512302123657455,
        -0.08274923397555374,
        -0.0012340411823445613,
        0.0157142947983568,
        -0.0749155715774868,
        0.0955117109483572,
        -0.06387694125965093,
        0.07598316877602726,
        0.04608068331724624,
        -0.015520363469790688,
        -0.07486338811896927,
        0.02238836573585279,
        0.012833792211079983,
        -0.08152905432656787,
        0.08234883097352902,
        -0.053492861597842147,
        -0.07772955911441577,
        -0.07471330468750659,
        -0.06677855301044984,
        0.07269282237253596,
        -0.07092233600149687,
        -0.060313628722668926,
        15.020016713282523,
        0.05717153418272117,
        0.07541200804187942,
        -0.08492020618471702,
        -0.08222166348636835,
        -18.401236066160322,
        0.04042586880091381,
        0.04628910411152126,
        -0.09360129936181623,
        0.0020781363197590608,
        -0.05703332261866123,
        0.011994443299078533,
        -0.06898678939637036,
        -0.03867973314568447,
        0.062953909499229,
        -0.05941809730655217,
        0.053899571364318444,
        -0.0001758288391224827,
        -0.006480960086027082,
        -0.0013571666802644489,
        0.059943226582045955,
        -0.02198132999003022,
        0.044873078874834826,
        0.07304954232649516,
        -0.0015943082717148338,
        -0.03604605633392431,
        -0.07869560238892492,
        0.057010431994794,
        -0.010786234648945348,
        -0.02761921334122297,
        -0.07470281218958759,
        -0.03644057065936508,
        -0.09895076387024596,
        -0.04920525310091031,
        -0.03543323096656241,
        -0.009551339717373347,
        0.027881871117440532,
        0.026669876302844564,
        -0.0580521917409905,
        -0.010001990741287423,
        0.07336403384456225,
        0.03938410936367115,
        0.02232141660162275,
        -0.006420617903346804,
        0.08439534676151417,
        0.0011157681446188616,
        2.1068952171368274,
        0.054796126775188914,
        -0.07666767522567791,
        1.1911135182966284,
        -0.02739770616032229,
        -0.067794998937896,
        0.023419093805203198,
        -0.049121895299335396,
        0.0583121681284621,
        -0.062095317806862706,
        -0.07438621350379893,
        0.06553948807621066,
        -0.07681232506591568,
        0.04995445429741183,
        0.036131608381632985,
        0.04888000770856721,
        0.0733043464360586,
        -0.004823931962048444,
        -0.06158673847658145,
        -0.02008913016843579,
        0.049720854426887895,
        0.009694051807808218,
        0.07234169707459973,
        0.04526676825611156,
        0.04045925322669333,
        -0.08161090282897257,
        -0.06017564750158218,
        0.06586157322908814,
        0.09761477295471033,
        -0.03557255025141806,
        -0.045044956124963426,
        -0.07361569725057221,
        -0.07922244123166355,
        -0.09312715824256723,
        -0.07294799055849577,
        0.09966058146514842,
        -0.01355275233557078,
        -0.045450902996029365,
        0.08462146109864568,
        0.07478557133727234,
        0.03180615935841957,
        -0.007426862894164138,
        0.0637096881354616,
        0.08773435019233156,
        -0.08752746604431955,
        -0.04440255862380678,
        0.050871076477476684,
        0.08417990506187767,
        -0.02625652013143283,
        -0.05870089919853756,
        -0.06428771709642311,
        0.0798723838589441,
        0.06305755121335962,
        0.06436295570038789,
        0.07597758459596499,
        0.017350114757529594,
        7.112196789093872,
        -0.042288194886984876,
        0.05919950236014149,
        0.06669720174969138,
        -0.07163408573574839,
        0.039113628829899494,
        -0.048103017351052914,
        -0.02926671345922456,
        0.09711344617263482,
        0.040815783440471876,
        0.09844421830844358,
        0.016556791487028155,
        0.009175997094735641,
        0.043394901605356584,
        0.07893804090495499,
        0.06921745447182537,
        0.06459033680178347,
        0.07367967824861915,
        19.445744682416787,
        -0.06029350642126561,
        -0.06393861135526185,
        0.07496968181241628,
        -0.039228574372403374,
        0.07197701641798432,
        -0.09080050700385188,
        -0.07236817408934151,
        -0.08405518210702834,
        0.09257011164154721,
        0.0647025584819588,
        -0.07874940829746616,
        -0.05632579609175595,
        0.45722221589491596,
        0.03380766140534064,
        0.04778325157243696,
        -0.09808395075031756,
        0.075455522820991,
        0.02936451236425791,
        -0.06241473540065452,
        -0.08694059788162455,
        -0.061601414524823955,
        0.01476598286507462,
        0.06032047888070005,
        -0.01937941235512257,
        -0.020420687249749034,
        -0.08427795652799808,
        -0.018759255509680453,
        -0.02040065125235206,
        0.048760172992579065,
        0.028594012334311497,
        0.05883175720882741,
        0.08613482673368966,
        -0.035348770269276616,
        -0.0711629172866572,
        0.08349656715667617,
        0.08244091570824189,
        -0.07140212300690703,
        -0.09273928810605647,
        -0.016980854748536653,
        -0.0309216434667917,
        0.04897040137262326,
        -0.07127284534027406,
        -0.006521508539994295,
        -0.096833414704561,
        0.08416096794902078,
        -0.009902577513529603,
        0.039212410652009894,
        -0.08530374416625702,
        0.09327220926973326,
        0.004550644630971545,
        -0.084504863876202,
        0.009879472944790274,
        0.054564698025429514,
        -0.04763696667497852,
        -0.03765998556326893,
        -0.038736351607769275,
        0.02207180209571677,
        -0.038432151193660995,
        0.031192205168278114,
        0.05765152080488442,
        -0.324365903747303,
        0.0729889872740114,
        0.01493399675290892,
        -0.011602285116875513,
        0.07304177948177978,
        -0.06880260675767245,
        0.017455559601450996,
        0.06597555152470735,
        0.0973386760600127,
        0.055669606685945366,
        -0.047278053734073525,
        -0.014676109588624045,
        0.018385716519275258,
        -0.04758828936170576,
        0.046099015564118995,
        -0.0377899216352386,
        -0.005386360135257243,
        -0.05815595986020337,
        0.04383012613878004,
        -0.02897877202813995,
        -0.03606206723406995,
        0.06562408189593377,
        -0.011746716809217489,
        -0.05045980922740472,
        -0.06097480524177308,
        -0.014134433086465628,
        -0.08889027731748844,
        -0.08559901226740428,
        -0.09395989240793755,
        -14.256055625902697,
        -0.02747223369556928,
        -0.07283768923213306,
        0.031091548160412902,
        -20.490004794885596,
        -0.06601919832133968,
        -0.030091694016216544,
        0.0331832240233024,
        0.01814019953556474,
        0.057601199641951845,
        -0.08841553743524995,
        0.0783190343238512,
        -0.020233422806925458,
        -0.09855322196158994,
        0.0027206414522524397,
        -0.08855495485002868,
        -0.0212547418946257,
        -0.01791051377583841,
        0.0021894534071759814,
        -0.06332736574648626,
        -0.0906115611559628,
        0.09171802099489562,
        0.09675670318074303,
        0.09324673773019146,
        -0.0767470891031608,
        -0.005322242960463977,
        0.09633805238968826,
        0.09370501125311184,
        0.009644894573561394,
        -0.08411100959486723,
        -0.09559790697776163,
        0.024314348582159445,
        0.018577267764783745,
        -0.07356427084555738,
        0.005380408937461084,
        -0.08132639578759182,
        -0.014789889529898431,
        -0.0400342928267901,
        -0.08698243060177938,
        -0.0939184408507984,
        0.0756728629304019,
        -0.09687341023117924,
        -0.030939599888311173,
        -0.0021300756141068022,
        -8.320908464899858,
        -0.03467351445683496,
        -0.09587572617252148,
        4.556990817982619,
        -0.09581558337981791,
        -0.027831703558427776,
        0.043349146101301,
        0.0878294101610805,
        -0.07833353862552267,
        0.045567055106054216,
        -0.023712460370370364,
        -0.054196265768679065,
        0.03058015435869299,
        0.04414898334895784,
        0.024876517913910323,
        0.0014356155750249455,
        0.002439435782181712,
        0.02637567628856577,
        -0.030731130725115643,
        0.018059224464914703,
        -0.013940148846862191,
        -0.08302469308906063,
        16.234831511815095,
        0.0597626641384022,
        -0.06055250531684218,
        0.030489801160875324,
        0.005222923013275468,
        -0.0012067173507505358,
        -0.017426802552994183,
        0.010024649487446885,
        0.03240240019446111,
        -0.08017104266777247,
        0.00654781652246425,
        0.036379320243973945,
        -0.016316779595903608,
        0.025966547648464816,
        -0.010891596470126566,
        0.013018355349055266,
        -0.09442350523807175,
        0.0453677456563954,
        0.03223472363191254,
        0.09391410409808185,
        -0.008415560751722936,
        0.08859645510484607,
        -0.06611307657388013,
        -0.025988906591048938,
        0.02005460848149765,
        -0.0030380061920238788,
        -0.0761758961139937,
        -0.053285792231988975,
        0.039472139383181004,
        -0.09002448833317755,
        -0.010676331038012063,
        0.01912243920680652,
        0.05135482386515405,
        0.042567717000030175,
        0.039398292468800916,
        0.052113778688892526,
        -0.05904771015214499,
        -0.020115955567676952,
        0.05455356824526261,
        -0.02276862662226664,
        0.06480973884773353,
        0.04036015669700688,
        0.02994421190159563,
        -0.08617253591639203,
        -0.015803114037875196,
        0.05813371432382963,
        0.007363108993066664,
        -0.07000268476007294,
        0.06594691543894224,
        -0.06343140505902442,
        -0.09098693362476068,
        15.752177340366224,
        -0.06458969140040915,
        -0.09327209274916748,
        -0.09642047548091975,
        0.024348785263022782,
        -0.0070269370535457065,
        0.02331348021359858,
        0.014738876396099249,
        0.044545304621554926,
        0.081840116071451,
        0.06831224038468006,
        -0.05602272257534309,
        -0.05082678534329506,
        0.030293757138051047,
        0.09786875734223052,
        -0.018335416177691147,
        0.09187749090971761,
        -0.020300983723637644,
        -0.04658810547046817,
        -0.05214728027353748,
        -0.03343441847016489,
        -0.08876135504306176,
        -0.021625694072977764,
        0.026875288587028645,
        0.059163504308548415,
        -0.06781805757103734,
        -0.01712609800114903,
        0.09223404686192024,
        -0.0052054383870218796,
        0.03808263021092245,
        -0.08295423587958611,
        -0.0924648131571987,
        -0.013073983867413735,
        -0.08615684545358487,
        0.08391769185282022,
        -0.05456746337125811,
        -0.02636193939830704,
        -0.023157153964062746,
        0.017210416975877815,
        -0.07486367843293995,
        0.02223837199432381,
        -20.498270032413537,
        -0.07119114402612131,
        0.03317676909913417,
        0.07583442807623855,
        0.07894622505507601,
        -0.08423369893405219,
        0.07274930968151402,
        -0.026527893649325576,
        0.011006478189711275,
        0.07279625772053985,
        0.038694498799763194,
        -0.04462727349036349,
        -0.07922019424330938,
        -0.0967609239635316,
        0.05988983324569053,
        -0.097584006023085,
        -0.0120922474440361,
        -0.01388449618338812,
        0.09313155901600964,
        0.050467839275690624,
        -0.08971030105141807,
        0.03785554968698257,
        0.039063937631858225,
        -0.07613012812827358,
        0.03716894911840113,
        0.02098461758584884,
        0.07538976982362697,
        -0.09995512645686051,
        0.08778510146240964,
        0.0723812385640786,
        0.06422579640044021,
        -0.0881450200181138,
        -0.06523577401961118,
        -0.028519898485691322,
        -0.06492968682796021,
        0.098138042796477,
        0.0003077951255394257,
        -0.038979892340661376,
        -0.08290858850797247,
        -0.08197212464525548,
        -0.04050199472059797,
        -0.01411805205616204,
        0.026368106742317515,
        -0.05580673150683291,
        0.06665507367784645,
        -0.03501786281984841,
        0.09909651977354961,
        0.014104562187760905,
        0.01723277791521513,
        -0.07742870656953107,
        0.051970048532630264,
        -0.034978370898394354,
        0.031204111203933904,
        -0.04054709313363487,
        -0.07817116825047861,
        -0.05850096682271131,
        -0.062233840188068615,
        -0.04883388196483636,
        -0.03884719134239814,
        0.016916627964525463,
        -21.919012568385487,
        0.008217279782626721,
        0.03782849133500177,
        0.020527836436938784,
        -0.023829265347290726,
        -0.06875314437782842,
        0.007353358321976519,
        13.878206625936016,
        -0.0023887191702893357,
        -0.09763602554830442,
        0.04536982455185731,
        0.021208968878718745,
        0.022996140365641488,
        -0.024793169868856865,
        0.08445758235287834,
        0.023407204157092965,
        0.07163631116553365,
        -0.0005610712039075122,
        0.09594254035486258,
        0.080134242736312,
        -0.0232450704246749,
        -0.01515379193067963,
        -0.005345454962152912,
        0.06329271941699055,
        0.042283853815764466,
        0.05718381735271483,
        0.07019360997423144,
        -0.018355840108539037,
        0.05097736395880412,
        -0.022362156399655178,
        0.08776501219717733,
        0.002696183059640811,
        -0.05227990592892456,
        0.033746249676331386,
        -0.024434334574100575,
        -0.09965089182207852,
        0.004393067048683946,
        -9.386885812955438,
        0.020351201896798093,
        0.034696208555207525,
        0.09057260164630915,
        -0.09681087379493368,
        0.08454780861836539,
        -0.027645232746759923,
        -0.05936339843350909,
        -0.07547293552619748,
        -0.032951737233186854,
        0.0582577522474399,
        -0.07407993089355919,
        0.03292041147076205,
        0.07950559060310503,
        0.01661757869633229,
        -0.0031959731189530743,
        0.07836047371791485,
        0.0021750798676631877,
        -0.0414769001977128,
        -0.05281089632343372,
        -0.0235201355696895,
        0.018673092149413012,
        -0.06340533914620666,
        -0.011982528400130435,
        0.05574596668802623,
        -0.0592150306093898,
        0.0833360942230848,
        0.04071942352216981,
        -0.08547427716822238,
        0.0816978804474934,
        -0.04331492053492019,
        2.314945103182609,
        0.044293884128344146,
        0.0496405142545811,
        -0.0254167359750566,
        0.02647465728229359,
        -0.07092515778840212,
        0.08205470217331143,
        0.046207518082686694,
        0.03084305457214706,
        -0.035916216512391144,
        -0.0268459267134126,
        -0.00612664012749993,
        -0.07246085706285116,
        -0.02513384754723616,
        -0.09372047759298825,
        0.07458463129624554,
        0.09395535971674396,
        0.02521832713780331,
        -0.010352597727071797,
        0.06402180007801572,
        0.08950808923755918,
        -0.09357458912875716,
        -0.08849598530305976,
        0.027184665081219667,
        0.02948864518025887,
        0.07983597777063967,
        -0.005331046677889972,
        0.04193504398675993,
        -0.0006853331015126418,
        0.03542297211035078,
        0.00538307116987316,
        0.09918762807740983,
        0.011367954689456325,
        -0.003977625478118571,
        -0.005910279748472164,
        0.0705665900653405,
        23.299987107171184,
        0.034056676847105866,
        -0.08985477762697132,
        0.039560960798341094,
        0.09079094261492626,
        -0.007893253059313515,
        -0.054632078291748966,
        0.026291370689680182,
        -0.04835656992995894,
        -0.03129516549234941,
        0.08573224467395588,
        1.3805024502560954,
        0.02625421208952311,
        0.08960285591257641,
        0.09678942342057875,
        0.02871294828976434,
        0.05688832566244151,
        -0.09684252359040398,
        0.0730762057904158,
        -0.06356451639528168,
        0.0782058187204911,
        -0.06652462740223605,
        -0.02616018225601087,
        0.003723696363680945,
        0.09385311033916627,
        0.01447932635973026,
        -0.03851722531069646,
        -0.06668509302691233,
        -0.02585251719675577,
        0.07378360014907168,
        -0.0016857004825925753,
        0.009180604437856177,
        -0.1718745040545464,
        13.015867895929581,
        -0.047592867901366236,
        -0.0355118603114931,
        0.06146735164640993,
        0.05699716695340157,
        -0.049371558070879784,
        0.02163839470329916,
        -0.08296894491136678,
        -0.08762491427015764,
        0.0005761872572208893,
        0.09188229701875597,
        0.07639408580051002,
        -0.027965027966366532,
        -0.01090178478868839,
        -0.08505457416925047,
        -0.09681189248953635,
        -0.06892165426661374,
        22.632071117847772,
        -0.042610598571230535,
        -0.06330965469303615,
        0.0841316719192898,
        -0.040678607530622024,
        0.07642249429544354,
        0.05494687722806951,
        0.07854987638559058,
        0.00490108075085334,
        -0.08001972363824837,
        -0.06042204123939992,
        -0.0031374144408563287,
        -0.021075111819867237,
        0.06642857673653499,
        -0.06862714858744323,
        0.017324981819857047,
        0.0008249226443939744,
        -0.07170821600334563,
        -0.03356092094443067,
        -0.0004722747307357028,
        -0.00569488511677832,
        -0.00821286966903556,
        0.04206176863637601,
        -0.09926303723178115,
        12.221871536438542,
        0.0425587188117848,
        -0.02442858700633707,
        3.291554977071165,
        -0.0017957252367845344,
        -0.04064185412225543,
        -0.04382434349768514,
        -0.08265638203651902,
        -0.06424295954673576,
        -0.056160735375229545,
        0.03755916039169449,
        0.0581824867770937,
        0.06297281956658704,
        -0.05517052531920879,
        -0.04253877116811658,
        0.06622745994130669,
        -0.08202055830161875,
        -0.009274475623991835,
        0.07860583414581535,
        0.05682766821785781,
        0.04897925372211426,
        -5.250740879004134,
        0.049548855444858486,
        -13.257821908218236,
        -0.04640496966939192,
        -0.08749525827221133,
        -0.021734729852822057,
        0.07123258267258592,
        0.03343174444363689,
        -0.04395953907249837,
        0.05015421255499697,
        -0.015756807280245422,
        0.08639492997134082,
        0.05838060752906765,
        0.0516057811180827,
        0.09457044277624518,
        -0.01104508348432072,
        0.033784156802958154,
        -0.05220840180502369,
        -0.06311245371036076,
        -0.04751174523131061,
        0.09015263081740507,
        -0.09534562941512217,
        -4.0387187269209655,
        0.07014080389406843,
        -0.09175576156543688,
        0.07766969282182906,
        -0.09244087673941995,
        -0.07131641197706058,
        0.0905887371383258,
        0.01223824023040368,
        0.08039518832351528,
        11.160522822044406,
        -0.0305117516840102,
        -10.589871582427723,
        0.08701632097657086,
        -0.02218649856397001,
        -0.020391807640798995,
        0.06788421470374195,
        -0.04711895061581517,
        0.015304700051554793,
        0.011937539863440122,
        -0.0889021543432905,
        0.08628305282788445,
        -0.05133966059025004,
        0.063852013748634,
        -0.09949017752682697,
        0.04663353362173042,
        0.08852971209076577,
        0.03600276197049887,
        -0.0726578562798185,
        -0.05334664451058178,
        -22.610357252499234,
        -0.05922014744165965,
        0.03450842821191605,
        -0.04362072003135658,
        -0.035888762251556905,
        -9.85409654575462,
        0.07997873659064872,
        0.07744234611199582,
        0.06415375265431131,
        0.03747555499906413,
        0.01305830171147919,
        0.006356461799487428,
        -0.04477403237133975,
        -0.09211750197985516,
        -4.093854487654969,
        -0.04516344357001199,
        -0.06747102116676307,
        -0.0768832943299243,
        -0.0906708937608321,
        -0.04392894014234061,
        -0.07819923762819309,
        -0.079583967263346,
        -0.016253635548223816,
        -0.05458717842931274,
        0.0923237767059659,
        0.06269149850842021,
        -0.030880893319412336,
        -0.02797617432113189,
        11.957645378059254,
        -0.04575433333770911,
        -0.05541561246169278,
        3.799727682610886,
        -0.06716118594218243,
        0.0009922572329499335,
        -0.025553966546261006,
        0.06691741216805919,
        -0.012842143880290549,
        -0.010646449524088289,
        0.04758550671325468,
        0.05329490603633266,
        0.09488463828205954,
        -0.017930603811133178,
        0.07144355425660032,
        0.03663048684685716,
        -0.06894725727499318,
        -0.0550418437687592,
        -0.0843332821506706,
        0.04172855996548899,
        0.0862529546779959,
        -22.080994505576623,
        0.08526893467038751,
        0.07118509770200518,
        13.404693263236823,
        0.048041296927178484,
        0.08236932755983531,
        0.05353692608000912,
        -0.0937883545635593,
        0.039283920251616505,
        -0.014963368659477366,
        -0.0775308512683294,
        -0.07945182495506264,
        0.013015689895117477,
        0.09394748395020189,
        0.044904950300254404,
        0.030820782108399836,
        0.024220278971176026,
        0.07544001075510787,
        0.038742577907065506,
        -0.08591004280955655,
        -0.0925591867599783,
        0.0027694341826906693,
        0.05849007411723503,
        -0.05734022669286634,
        -0.07003947508032136,
        -0.01247883746890599,
        -0.00665752140252876,
        -0.09947775049038286,
        -0.08346438853091334,
        0.0004924273888030906,
        -0.08292795669002398,
        -0.06342845886051873,
        0.00430273714195524,
        0.046078495227467375,
        -0.032958411254388364,
        0.06752415029667969,
        0.052435756309925946,
        16.423099206758316,
        0.08453276796278031,
        -19.81172131277118,
        -0.04882253121453961,
        -0.0022820119240229975,
        -0.01046584404905948,
        0.08654184861832351,
        -0.03128142172044046,
        0.0013266163155670058,
        0.02252624364052655,
        0.06377980846899992,
        -0.04959864370523666,
        0.0389643753615973,
        -0.026605401351441058,
        -0.0971846979644468,
        -0.014494222529162798,
        -0.03492563819696852,
        0.08624077806883731,
        0.04189933385946412,
        -0.0870567408619567,
        0.088145544118968,
        -0.02561750009675974,
        -0.007146721007477735,
        0.031726687343452464,
        -0.060261449890024556,
        -0.06341665845529665,
        0.09269823408100622,
        -0.05579867169503894,
        0.08410737228008497,
        0.07853959343550049,
        -0.0724575855716672,
        0.027254865175027954,
        0.003975721420485995,
        -0.051704318039533306,
        17.644795260521875,
        0.0615257047626086,
        -0.06860280548903958,
        0.03752907330066094,
        0.027117596540694094,
        -0.011729824627569177,
        -0.07199903321397466,
        -0.055653011731763825,
        0.030051743818573617,
        0.0637454415252697,
        12.654020379447793,
        0.02138202847204637,
        0.06520829051131072,
        -0.02448494356855288,
        -0.017872912027194016,
        0.07532337468847036,
        -0.08021147838199227,
        0.0935829475105372,
        0.012820043032053446,
        0.07107846849395752,
        13.311371222538867,
        -0.044089520401996256,
        0.036960183294036636,
        14.353432545324928,
        0.05039557649671331,
        -0.09035526061052393,
        0.05481817591747734,
        0.004197152529475945,
        0.06180559111827422,
        -23.192800550639326,
        -0.09993750580103358,
        -0.039495137154998666,
        -0.08037599259755615,
        -0.09349594430773847,
        -0.07446301184084635,
        0.031000538983241732,
        0.05193558669705009,
        0.07006179839096785,
        0.08501078006831175,
        -0.07711172257694794,
        0.08895976008421078,
        0.003803159493729738,
        -0.09426633763579893,
        -0.02046750729725648,
        -0.03386929534956584,
        -0.09588816794870213,
        0.04474135244181082,
        0.021134942932538966,
        0.013428512607602222,
        0.002889275584280024,
        -0.01574564209955627,
        0.09744437864210398,
        -0.012395445262976201,
        -0.05568533249667862,
        -0.001772621218901621,
        0.07921349136276576,
        0.08596038354508675,
        0.038878012868366785,
        0.08405648072820723,
        -0.08936931756153386,
        -0.025388231310797024,
        11.306888689060422,
        -0.07734111258129156,
        -0.08923585710668336,
        -0.09588837084473552,
        0.08515762568058785,
        -0.08134411575937653,
        0.0675798793109301,
        0.07508136452311312,
        -0.056661107588688524,
        -0.02225594624381362,
        0.06268798106191173,
        0.015954977079409266,
        -0.09698880420359335,
        -0.0527989175143917,
        0.09629673634395397,
        0.04928889963552713,
        -0.06568450084950958,
        -0.09031184396180003,
        0.05084995212394214,
        -23.49320497713435,
        -0.06845295911498753,
        0.00705485261359895,
        0.037740292015910726,
        0.006636170409381886,
        0.09783958898713582,
        0.07451217933340604,
        -0.05243808716383813,
        0.08642422810078387,
        -0.02213722398631468,
        -0.04315285164654892,
        0.02148079427397187,
        0.054478993708386464,
        0.07727839070328596,
        16.064220735575475,
        0.08572298792572783,
        0.0966731565812402,
        -0.007346058855056195,
        0.060593941885207864,
        -0.02169446730471125,
        -0.05175050056928013,
        0.08507818570633807,
        0.05277505578674946,
        -0.057280765825084325,
        -0.04260843902038656,
        0.025633516424360542,
        0.01005670367802751,
        0.0170054215349114,
        -0.018436764495596905,
        -0.06219587977508372,
        -0.02061931172682674,
        0.07988521287716913,
        0.023223953305661293,
        0.0001898257341228088,
        0.03380005783979062,
        0.09261053460083493,
        0.01967515624557463,
        -0.038425718670719804,
        -0.09073220938498557,
        -0.05087004680141769,
        0.005717399220668357,
        -0.045935773336921004,
        -0.0640342595393383,
        0.06240596123813846,
        5.078285891154945,
        0.05186322730305132,
        -0.008467254560169973,
        -0.08196275562564243,
        0.045552220516586,
        0.057620278966227456,
        -0.09623377672998856,
        6.013236383079068,
        -0.010534866941256424,
        -0.037557719655839074,
        0.02857467104070671,
        -0.020582278397351536,
        -0.06946957618499257,
        0.002670236399175338,
        -0.07203132177072305,
        0.006460968988072843,
        -0.008999280105162016,
        0.010324088974747209,
        -0.015270987543644615,
        -0.03559685259825503,
        0.09870258422471875,
        -0.055381658088433205,
        5.903199604158537,
        -0.04650581208865803,
        -0.08110694587723222,
        0.09110571587232524,
        -0.01965719058868412,
        0.04854070730630927,
        -0.05314509744980725,
        -0.07874127591144614,
        0.017876414691521875,
        0.07815138260639973,
        -0.05719605770210286,
        0.08182207192605226,
        0.004542368167401903,
        -0.0777641598233943,
        0.016763697102434347,
        -0.08050774549225377,
        0.07722947925334789,
        0.06257517524888048,
        0.08598373415909061,
        -0.03231211516208732,
        -0.01987295890410143,
        0.0441263652032422,
        -0.010386798162141678,
        6.3419605293724715,
        0.04330289667376927,
        -0.020388911926897985,
        -0.07544620175989625,
        0.022219691918695883,
        0.09183330590340089,
        0.09831020946869715,
        -0.04175963703097692,
        -0.09014354348962345,
        0.06416337852693799,
        -12.89769284300556,
        0.03632677112948518,
        0.03603320107856006,
        0.05103085156775694,
        0.02034977122657189,
        0.023193466252249273,
        0.01777711592342443,
        0.0952155749854435,
        0.08548848931762323,
        0.09806282571710254,
        -0.03108368304961591,
        -0.07763915717124714,
        0.02647748315312079,
        -0.009789732490675634,
        0.07415479095031344,
        0.0767825893753542,
        0.03573013229853167,
        0.04648517171689734,
        -0.08082560850038112,
        0.048024493681742136,
        -0.025695943996194223,
        0.03393508996185596,
        0.05458108242853674,
        -0.03037340658071122,
        0.0823280921657566,
        -0.03677527560571843,
        -0.08041254003732941,
        -0.018986204348749605,
        0.02354719406205552,
        12.167070113742199,
        0.09690849252169506,
        -0.009669123746569627,
        -0.09333286827837761,
        -0.07972730171778403,
        0.08506123121495693,
        0.0012650998546502173,
        -0.046118651746002964,
        -0.024392224213869176,
        -0.09088321307522236,
        -0.03243539625004953,
        -0.0917044725568387,
        0.0899412194873904,
        -0.04640724589280798,
        0.06035469947913047,
        0.02066828807926155,
        0.009972876135292547,
        0.04270277639624204,
        -0.07004542596518891,
        -0.07169034388733615,
        0.09860691575369623,
        -0.011616503203519507,
        0.054515626106262344,
        0.06621517296068155,
        0.09783295206259696,
        0.0671546998275217,
        0.05614654086985699,
        0.09065357484980022,
        0.054527670293542635,
        0.09390245010789139,
        0.09629529010830526,
        0.057870060337827184,
        -0.06526612798660172,
        -0.09762568420420639,
        0.07391235556544329,
        0.024075871359200196,
        -0.08410282022626428,
        0.035249556614530275,
        0.05836684844610046,
        0.019280109164098794,
        -0.7377870402465625,
        -23.495797667882577,
        0.05604022444006579,
        -0.07193920746111311,
        -0.04475782321544957,
        -0.0019540348967844456,
        -0.09387520943121808,
        0.09772521611940724,
        -19.643509306107433,
        0.09188434387618871,
        -0.01366235525282393,
        -0.041094141070759975,
        0.04192197828124464,
        0.04656143366091631,
        -0.08602550880496818,
        -0.007263977503670471,
        0.041046324381879135,
        -0.06273491972687745,
        0.008383951891185681,
        0.08279248651905316,
        -0.06464540202298866,
        0.09483432868754624,
        -0.0291589112902213,
        0.04731538204001637,
        0.07564147567529264,
        0.0962792028835803,
        0.05195394424507277,
        -0.04667148996103468,
        -0.03991921373813412,
        -0.04179654432344613,
        -0.07079339423895657,
        -0.08583269727076122,
        -23.53052338762692,
        0.06117415773133908,
        -0.06811945721858828,
        0.0598198233076675,
        -0.062343551995929496,
        0.02731374200043879,
        0.02130672268933606,
        -0.0906622419557658,
        0.03491131062188488,
        0.014915138322460386,
        0.08705559617747305,
        0.042900511329760194,
        0.0642310968203729,
        0.0967729417669208,
        -0.05791812146523734,
        -0.06343049161324163,
        0.06746421149771517,
        0.09528488687916345,
        -0.06471524451175444,
        -12.13763585903732,
        -0.07902714177995036,
        -0.00709113458674393,
        -0.013337879786557982,
        -0.06699544237918964,
        -0.06063496804251605,
        -0.021686011720611284,
        -0.003763930254880782,
        0.026055705458824546,
        0.033580667501548866,
        0.09532077888622112,
        0.05030715020914847,
        -0.08653326683050318,
        0.09080887233541887,
        -0.02176303399428528,
        -0.024058393000502803,
        -0.05613193053274142,
        0.044908276711371375,
        -0.011088225842477512,
        -0.03200358347771606,
        0.02399025026169546,
        0.0028662799700741315,
        0.05837700842512947,
        -0.09829691501442822,
        -20.59521887496878,
        -0.048061771083126106,
        -0.03272365233932177,
        0.039729413508751005,
        -0.018790652375850495,
        7.379146388597405,
        0.07061241913914668,
        0.02753813113708095,
        0.02602339268374293,
        -0.07115178710128256,
        -0.005461666651270791,
        0.0884015633383046,
        0.055134444278454126,
        -0.030105787446351548,
        -0.08066388347887724,
        -0.017570451686695326,
        -0.0021153893946305458,
        0.028553446705177288,
        -0.06653102275747624,
        -0.07615075387086989,
        0.08520599337092372,
        -0.024852535881805957,
        0.023243876050892884,
        0.09119389672062633,
        0.001064880676743124,
        0.09187377593017398,
        0.02739524795768794,
        -2.0798211708322185,
        -0.01835830503206859,
        -0.04893693850073344,
        0.08637990567637491,
        0.0547085128256902,
        0.027488360375155896,
        -0.041603113125202866,
        -0.09783334947573748,
        -0.07829133899075753,
        0.038706040109320605,
        0.0329503491293858,
        -0.055362893742368295,
        0.06517010413906407,
        -0.09558012862385455,
        0.024547776235775087,
        0.07100103366125596,
        -0.05417267268607509,
        -0.08355081923221444,
        -0.05828475769917079,
        -0.08495552718707336,
        -0.09701290368765636,
        0.094105495627649,
        0.06764462056923426,
        0.0847693794550442,
        -0.017599340479677886,
        0.07031337544481886,
        -0.06566908640120257,
        0.04245597201715756,
        0.06602006241332145,
        -0.0019898139110758883,
        0.06814602027680314,
        -0.09165445588409304,
        -0.05160844754862542,
        0.035279816873656555,
        0.03541937531965017,
        23.461843426712356,
        -0.08496152249407803,
        0.03268215060712959,
        0.014336392609559961,
        0.0020043376957254583,
        0.017955519306586745,
        -0.0032199954070784437,
        0.08382332449856666,
        0.05226662547189284,
        -0.06812040865744984,
        -0.045689419736940365,
        0.06046236894611559,
        -0.03280878802937651,
        0.048962079911318485,
        0.011877593965241975,
        -0.04224808471767747,
        0.07540026412218834,
        0.0639234051635556,
        -0.02062943798034675,
        21.454727413215466,
        -0.06647339109197134,
        0.04842883107179699,
        0.02635097029345529,
        -0.06617919115097287,
        -0.029560336465290868,
        0.04152521192918174,
        0.004553510189522797,
        -0.045219514436518574,
        0.07141959948832102,
        -0.007571412060647112,
        0.07956012816984562,
        -0.008736812381665793,
        0.03491325644347487,
        -0.024651248245499163,
        -0.09590189995968826,
        1.6567994512230904,
        -0.017438612488863733,
        0.022513390939252892,
        0.0709934523778856,
        0.09955245719358544,
        -0.02534696699682981,
        -0.0679767908327141,
        -0.07540452001586107,
        0.006995277376456999,
        -0.07271815621933153,
        0.06388804678756918,
        0.0900727227418166,
        -0.062376730386308844,
        -0.020252830908516775,
        -0.08757052637967706,
        0.055792130562897224,
        0.08597824909134641,
        -0.06595977511781609,
        -0.08006196343355874,
        -0.0004967599642607679,
        -0.00425237310495255,
        0.0982909617384427,
        0.03309855848442744,
        0.04837565701605917,
        2.409731385893398,
        -0.06236353010350126,
        -0.08889947676730464,
        -0.03229129968745141,
        -0.07034288154741182,
        0.05319742293050653,
        -0.0906010876337302,
        -0.018235518285494218,
        -0.05182910482280963,
        -0.039425108400062484,
        0.013087652160013175,
        0.08236902518051026,
        -0.0440194862875635,
        -0.006714019676228575,
        -0.06363262418420508,
        -0.06523095654007234,
        0.002971489329467808,
        -0.023928645706202234,
        -0.03873650935214763,
        -0.023980553627422463,
        0.06526344667676748,
        0.04613910852256087,
        0.07936903347545185,
        -0.052870648043513185,
        -0.09858553761038791,
        0.02827108106372514,
        -0.05739003738513082,
        -23.431686608717982,
        0.061950503216083835,
        -0.05694869181008966,
        -11.285594941586986,
        -0.01377862424380924,
        0.060875154187264,
        -0.07365554573481373,
        0.07390810006821683,
        -0.0867141556078701,
        0.06764595397234086,
        0.020015937171749654,
        -0.08688727241063608,
        -14.654223349444129,
        -0.09960911845884333,
        -0.08125443587833084,
        -0.02437083471862271,
        0.003565155986344326,
        -0.0029593918488401566,
        -0.046284734852251486,
        -0.021480185580021294,
        0.0852089440121182,
        -0.07005767883610337,
        0.039081134084398894,
        -0.04989879306886711,
        -0.026352099339491716,
        0.00991879555718475,
        -0.06084510503126142,
        -0.04850934067766946,
        0.01297312313651186,
        0.025155072259606254,
        -0.052266898691441945,
        -0.03944287795608088,
        0.041187503425626215,
        0.04020914077000301,
        0.07017496519744171,
        0.07039483817792935,
        0.008754913826764549,
        0.04039287793939805,
        -0.09219257111872575,
        -0.09494579408303522,
        -0.032962596506338135,
        -0.024409464190250224,
        19.79540822510564,
        0.07813193482795411,
        0.07379222541869054,
        20.758511149040658,
        0.09402012243290003,
        0.023996663780271543,
        -0.04485775468214684,
        0.06525631845120344,
        -0.044434393562115204,
        0.00943149067756903,
        -11.476507178839835,
        -0.0344491429040779,
        0.0834741362048741,
        0.07050107447353726,
        0.09035764687708295,
        -0.05068178974056408,
        0.0596979299468377,
        -0.03705391554327857,
        -0.054381599649110206,
        -0.03458135110662007,
        -0.05478084327007413,
        -0.0678989416760389,
        -0.03820827912110634,
        0.05467430022988698,
        -0.08615783719511327,
        5.873079514495792,
        0.06386253222452928,
        0.08124331395515699,
        0.0583934849362758,
        0.00021704388371950045,
        -0.06137882893730922,
        0.079769605956277,
        0.07030679527697292,
        -0.0753415381107486,
        0.023794797982693655,
        -0.01914103233387765,
        3.0312256659625447,
        -0.014289934354115769,
        0.08505247483147813,
        -0.024193265381430518,
        0.06335386161733034,
        -0.07908603091810239,
        -0.0681161036021857,
        0.03613267884651292,
        -0.02104802347261936,
        0.009471536342318163,
        -0.0903724032676577,
        0.09966392527998039,
        14.822695882017946,
        0.09708346716583091,
        -0.09098077494746987,
        7.345389807220549,
        0.007980918064858497,
        -0.0408470740819376,
        -0.01258159119443017,
        0.07184371041877688,
        0.08091663861470508,
        -0.08825166466818413,
        -0.06250775116818788,
        -0.09041196997830842,
        0.002953650523189383,
        -0.03459702115571393,
        -0.022273978034117237,
        -0.07322517770958369,
        -0.013407092089348496,
        -0.06613273505120723,
        0.014870078615133092,
        -0.08220852912357116,
        -0.025769596825411786,
        0.0814812051794839,
        0.06057242759347728,
        0.035297586544574544,
        -0.08938195776832458,
        0.009817807922502558,
        -0.05911959021995927,
        -0.011595734381549955,
        -12.540168722936462,
        0.06512851925882077,
        -0.02073717225071818,
        0.09677382923782246,
        0.03574491968466842,
        -19.91660525858787,
        0.04583009657286691,
        0.038993624524222975,
        0.09585337855968756,
        0.09361484711839091,
        0.07519612925730282,
        0.08609626750074342,
        -0.029686601911273328,
        0.06727139314047767,
        -0.06831010056546334,
        -0.012003311897211155,
        0.01988516067188946,
        0.04082304964770883,
        0.09767075591311625,
        -0.056445706390971795,
        -0.059125604418346446,
        0.0016337987904504886,
        0.004004432694939372,
        -0.008304359946129963,
        0.07782888360239223,
        -0.04132996083183565,
        0.010018567708639292,
        -0.03444942030166698,
        -0.08690607839957654,
        -0.021967040612624972,
        -0.08540958712431378,
        -10.963561881768912,
        -0.04486809339335749,
        -0.035599285004393175,
        0.029786561810397683,
        0.030290015390652514,
        -0.08566608708544649,
        0.005873469218774116,
        -0.03297302674794893,
        -0.07524535360011174,
        0.06406386172401937,
        -0.08418094539663966,
        -0.017651718031014868,
        0.09427350377368557,
        -0.06564863117027034,
        -0.0652629164715322,
        0.0852167899493543,
        0.02275142942946684,
        0.04672984170133848,
        0.082156580917612,
        0.0017056890271247571,
        -0.040914316040371906,
        -0.07785321120526395,
        0.03412081643933679,
        0.09899645777607977,
        -0.05002712934961737,
        -0.0007742016289740139,
        -0.05315677300688209,
        0.017872587401936577,
        0.04296747968845804,
        0.06117068538239151,
        -0.03361782832561451,
        -0.072789195745322,
        0.05245231168637848,
        -0.03098072290926339,
        0.06791646443452218,
        0.0786673239755436,
        -0.018115767637200533,
        -0.09418910447144208,
        0.058600546978428814,
        0.043034519408817445,
        0.03420551488793358,
        0.05100864483167264,
        0.008645956631006022,
        5.489974472480121,
        -0.019863001553302034,
        16.13108421124744,
        0.0711143363376642,
        0.05378385056565885,
        -0.003490313064607037,
        0.08014273136824929,
        0.04536390898075826,
        -0.09338257629206846,
        0.08169400860979775,
        0.04858007746598192,
        -0.023968582050162862,
        0.06153733077860832,
        0.07921955867180061,
        -0.002669377935251488,
        0.026294207644820267,
        -0.09554968519991314,
        0.09367652095904583,
        0.08192870113420067,
        0.08026356825208422,
        -0.03342753874143144,
        0.020218010284171403,
        0.06814248829981259,
        0.04409754462974763,
        -0.004053112482793525,
        -0.07015524687744651,
        -0.06500691923519061,
        0.044487488041814904,
        0.032831492404748946,
        0.007933089048867581,
        -0.07750021829617673,
        0.06444262755825131,
        -0.09871531450361126,
        0.037491318957033754,
        0.07355139894651241,
        0.09528855811506129,
        0.022533683515025826,
        0.06304229304100326,
        0.06440505153642465,
        0.04892173777987491,
        -0.018326429757111032,
        0.07282278301027942,
        -0.010774049516995496,
        0.017946919635041775,
        19.212242168469693,
        -0.05568418513048728,
        -0.05727123416735785,
        0.053995343962156384,
        0.09443262664339411,
        -0.050527617863378095,
        -0.0515591911975168,
        -0.03471134517898107,
        -0.08770422229162467,
        0.07345830481110058,
        0.08301585836303854,
        0.0638644043790087,
        0.008438817416628774,
        0.016702768423839845,
        -0.05076000555129161,
        -0.0024433945973448556,
        0.07613309182985281,
        0.005320124979547994,
        0.036732692315459003,
        0.09081445026675869,
        -0.04855886066332844,
        -0.06803972731921144,
        0.07263216201109782,
        -0.07633362118868617,
        17.225486600885198,
        0.04470370271546967,
        0.07999336491499265,
        0.06583360373528224,
        -0.07183412235971925,
        0.04905732836699009,
        0.03688386329527277,
        -0.09717081809093786,
        -0.019415980840386246,
        -0.061427668920197534,
        -0.08703253313082514,
        0.08920676394335411,
        0.014026993234964452,
        -0.04471107299387294,
        -0.009139687687192533,
        -0.0948017851404742,
        -0.08226526803209798,
        -0.020335595327188788,
        -0.006984129609525519,
        0.01520032615444164,
        0.06273689873909535,
        0.0811155405472723,
        -0.016940860975481836,
        0.06872677617060052,
        -0.05634806680079377,
        -0.08219036203246906,
        0.07124894996471154,
        0.0008141303697212499,
        -0.08821545450516717,
        -0.006051187366660354,
        0.013308934996630259,
        -0.03890600689294495,
        0.021435853205910946,
        -0.09778565624629842,
        -0.013857309499545195,
        -0.002045806887381027,
        0.08742101783857992,
        0.016426362883751405,
        -0.02217029968692344,
        0.09966929023915783,
        -0.032672268751886294,
        0.09586910651053207,
        -0.022632986906716918,
        0.006393766122477024,
        0.09289861923863207,
        -0.07133532957697777,
        0.04496960243012188,
        -0.09280982442749389,
        0.09925071605283078,
        -0.08815566873192382,
        0.00970271508324072,
        -0.027950800987285487,
        0.06669126665498101,
        0.022838039215672443,
        -0.04592719428175607,
        0.0780556805695529,
        0.08411280430915419,
        0.0026661725681591947,
        -0.04061411977103067,
        -0.08438652127299028,
        -0.0754989473693104,
        -0.08706595107277498,
        0.08281213468215767,
        0.00027711441713633433,
        -0.03983748027460439,
        -0.06584024420424206,
        0.09240371675787779,
        0.08283591895879283,
        -0.05649684447642476,
        0.012180134625466854,
        -0.08807727185835437,
        -0.0013542806991021228,
        0.06675575594816063,
        0.007232100707910943,
        0.059573565246797605,
        0.092138656772326,
        -0.06311581986690307,
        -0.07258771915191185,
        -0.016837250697902872,
        -0.08800548084295046,
        -0.01705438455646835,
        0.04076816599364225,
        -0.05817332716780413,
        0.023035105735004446,
        -0.037435400149689935,
        -0.008259243562085364,
        0.09617486267163727,
        -0.05343009075277334,
        -0.0027918310040012384,
        0.06513716222873286,
        0.06948072124059315,
        -0.036431476088161316,
        -0.06853198626620488,
        -0.0447582611217535,
        -0.025982212865579696,
        2.2617436959308073,
        0.09877625898396172,
        -0.08435232653576158,
        -0.05758885371979625,
        0.09779574504287988,
        0.07311808465956812,
        -0.08736952926114716,
        0.01868075948678323,
        0.03852531617938343,
        -0.09957032978589059,
        -0.019926970416061354,
        -0.03606411233384832,
        0.06500041484798155,
        0.05135498195458252,
        0.05934152605322596,
        -0.06439881515252441,
        0.006191630293547495,
        0.03377025668804051,
        -0.06040515444315484,
        -0.0563903590976218,
        0.00392491596158831,
        -0.0186288425855774,
        -0.061801502814867605,
        -0.03288975806144326,
        0.07305060583531262,
        -0.04818079964658262,
        -0.006352306229661764,
        -0.013391605933539538,
        -0.06703888094997637,
        -0.058211623051383436,
        10.502811052503766,
        -0.04006764986714093,
        -0.04949743138031142,
        -0.08349629234504247,
        0.03825912936522696,
        -0.029958469338127056,
        0.09458149972554022,
        0.0887262876434671,
        0.09094029282141655,
        0.028218420646250575,
        0.0694173706689988,
        0.016735447270530696,
        8.020933884489914,
        0.0814042834308884,
        0.026208576772584508,
        0.08279833206302528,
        0.051980506775575336,
        0.08857455405017373,
        -0.03544916791892115,
        0.017661670950401123,
        -0.005149843177321228,
        0.05274479638418242,
        -0.03447008710820554,
        0.0905784349905206,
        -0.004052264297452715,
        0.0235567994264477,
        0.09555707123958138,
        -0.042219804648888415,
        0.037765112605566115,
        0.07981496395921944,
        -0.07308413058649764,
        -0.06690542426800167,
        -0.05050745297392321,
        0.004983327221606479,
        0.03527388428090697,
        -0.011228462141574663,
        -0.08360287691065588,
        -0.046862173180910016,
        0.0581499482130485,
        -0.04033919376074895,
        0.06991454212313028,
        0.04907557464712875,
        -0.06644046029491543,
        0.004736619685042201,
        0.08513582081648208,
        -0.053370764870894274,
        17.17216582438673,
        -0.09215795257570668,
        -0.05883915382406224,
        -0.0972397162620604,
        -0.01816717328167053,
        -0.013003133637197004,
        -0.002366707713681443,
        0.01127713190738415,
        0.013324693045297792,
        -0.05768466945501212,
        0.002249502810607318,
        -0.006008424232522014,
        -2.7687982930975856,
        -0.04298313296091534,
        -0.0028278093638383905,
        -0.008075258484135844,
        0.08798952968909646,
        -0.02867167007884537,
        0.04162774328316354,
        0.042797189691669374,
        -0.07660115290705916,
        0.07691135807621283,
        -0.05629035596478267,
        0.06283190273401057,
        -0.09445844344602082,
        0.07655151913192126,
        0.041836953383741576,
        -0.0073580463400601676,
        9.67830063599149,
        0.00866043261595277,
        0.08670893533142815,
        -0.0031447914475701,
        -0.04123151177445519,
        0.019337249660686326,
        -0.08408007076410465,
        -0.08802464344265687,
        -8.818595232178804,
        0.0880974776085843,
        0.06528729034272734,
        -0.048156749425834235,
        0.006280511736849098,
        -0.08956410204452925,
        -0.07728027675961982,
        0.052698493310469774,
        -0.07435315557437755,
        0.041463631283067987,
        -0.038002547721092086,
        0.0986772368440382,
        -0.009399270933621653,
        0.005054062814724286,
        0.07945510122312932,
        0.09709365918178345,
        -0.019166850586198075,
        -0.03139755315036373,
        -0.0014026275889481299,
        -0.07790853967125111,
        -0.042966718651453295,
        0.005338929753723187,
        -0.07428480590301319,
        0.002640295685307631,
        0.05718902899991493,
        -0.09511156006341684,
        -0.08187426133372089,
        -23.066503472006726,
        -0.05364049546508483,
        -0.06139275936716002,
        -0.05114899485302447,
        0.04396647310583007,
        0.019327548905934536,
        -0.09208107468457355,
        -0.02064988215819205,
        0.08494074254927356,
        0.09667359757815208,
        -0.02383775334673799,
        -0.09569793932474542,
        0.00018586753884056173,
        -0.08634761462569421,
        -0.06972997125329826,
        -0.014120697169473395,
        -0.07170392209075548,
        -0.05221873117232994,
        -0.04643859988867743,
        0.04002660608536343,
        0.036266117079999605,
        0.07298161105932985,
        -0.035072256627172796,
        0.08859237924463367,
        0.0720058616141453,
        0.04420400858936063,
        -0.08830026245821619,
        -0.010806448460830384,
        0.04577728335961423,
        0.07454183650840182,
        0.05553843066407027,
        0.054388485359514016,
        0.01394049718762154,
        0.07121794576163973,
        0.03627839170973829,
        0.0036164084805712926,
        -0.02783375342566874,
        -0.003519677611560329,
        -20.794020609096933,
        0.07054293712816523,
        0.087282828631089,
        -0.03666145905399146,
        0.05010606993714414,
        0.04484626268602088,
        0.0913821484593818,
        0.05867790239571022,
        -0.09676874101219482,
        -0.05404729754594864,
        -0.0696928632392694,
        0.020249062057149783,
        -0.04930165836768934,
        0.07908056884708864,
        0.03804329214150376,
        0.01925916870523206,
        0.058507306348259513,
        0.0003993533876972821,
        -0.0086438435941123,
        -0.013721021270309025,
        0.09517085010501108,
        -0.022993205177325032,
        0.07055198259296952,
        -0.09131835250731042,
        0.06424394473576966,
        0.059911497294833554,
        0.04215788114606894,
        0.051224649796247274,
        0.06817012425812741,
        0.07452106470970304,
        -0.056396530434586326,
        0.0840667153655883,
        0.010309272078042886,
        -0.07418504591825599,
        -0.07222135843954765,
        0.02228083567724108,
        -0.04478516917094125,
        0.045375088549555714,
        0.03439514414535633,
        0.04003638897621972,
        0.07273525305918957,
        0.09252477541806942,
        0.028101133375818405,
        0.09923229918285581,
        0.05539157436092959,
        -0.03773112780635435,
        -0.04432500687008898,
        -0.057407527109887724,
        0.007013631189003666,
        -0.024430251239242876,
        0.07533984616759307,
        0.04439675835940299,
        0.08296162970597962,
        0.029595706106796626,
        0.07714437734452875,
        -0.08383564088934721,
        0.09890411509002592,
        0.0532253056350227,
        0.07982466637321739,
        0.02530303776946244,
        -0.014693638194272163,
        -0.07175882388856887,
        -0.06929331681109595,
        0.07504743423772586,
        -0.06834613185851685,
        -18.89396434592001,
        0.09126212271243528,
        -0.04111736527095147,
        0.08715517173685927,
        0.021613091326191908,
        -0.03217790383202722,
        0.0866332666400913,
        0.015663536369301095,
        0.07829159011368311,
        0.047075653085767444,
        -0.0633052226560083,
        0.08341067193639651,
        -0.09696714804434943,
        0.08729096160291197,
        -24.851109943916725,
        0.0825649935154282,
        -0.07905803535185103,
        -0.004989860714794819,
        -0.06728588906054292,
        -0.046127680557373374,
        -0.09787244588745554,
        0.05107799741232563,
        -0.05234924004981339,
        0.005243714323470303,
        -0.05085687966366481,
        -0.0356685764488045,
        0.06665190618601985,
        0.010713832115828437,
        -0.07034827345964195,
        0.07784704195417272,
        -0.012973802444093477,
        -0.050576926351958075,
        0.05683474460569693,
        0.05691868046455337,
        -0.04641244802186595,
        0.06697356639369398,
        0.035240840026536546,
        0.0032812712250821774,
        -0.024155595265841698,
        0.09806053840852644,
        -0.013026957427092659,
        11.106623698849603,
        -0.09813571234734773,
        0.04410770266312908,
        0.077123925859375,
        -0.09686407746572373,
        0.002241484289515497,
        0.05726136097520304,
        0.059492774982681684,
        -0.044189100060789556,
        0.08057770003537615,
        0.032708150439792805,
        -0.03277860656426039,
        -0.08588018831848157,
        -0.04119559061306491,
        0.08062893378953176,
        -0.038803888810271484,
        0.0599287626330427,
        -0.08347002362470138,
        -0.047722020608614774,
        -0.026238300607457313,
        -0.09293737153678872,
        3.3246127808013597,
        0.0010271842854507884,
        -0.06378372784176319,
        0.04459244301874135,
        -0.0389571286637056,
        -0.06906586779606157,
        -0.01933540005757202,
        -0.010361533239870283,
        -0.07189478271448367,
        -0.07838221723550509,
        -0.014070062504116937,
        0.07442594118356502,
        0.09842817338831986,
        -0.09450923279681273,
        -0.05294191633849872,
        19.883540969299176,
        0.0779267123859757,
        -0.008580941093123282,
        0.012219335413915872,
        -0.07151710422840343,
        8.914722193095713,
        0.09989669981978011,
        0.06693647853729612,
        -20.76551451651004,
        0.09168445991760513,
        22.05806506131556,
        0.013168676258676418,
        -0.010531718433925003,
        -0.019150428212808282,
        -0.042442640810882004,
        0.05754494619402886,
        -0.0002556699265110485,
        -0.032396749387895524,
        -0.04153371424004964,
        0.032351870393509286,
        0.09762084228870724,
        0.03398490867316836,
        -0.07656761164922465,
        0.007593642632283487,
        -0.004844301138341625,
        0.08667778007426655,
        0.011007054878632377,
        0.05334319931179668,
        0.03384666941782871,
        -0.07884759542279962,
        -0.09457833374422041,
        0.0876304999128523,
        -0.02559097690558479,
        -0.07689634560937325,
        0.047025966405785546,
        -0.04714582204041347,
        0.02527742851920195,
        5.6658929731971845,
        0.049130750227981024,
        0.03683998740994884,
        0.061643997437441034,
        0.027354607643480883,
        -0.06056384974047089,
        0.02322100851808853,
        0.05504748753909272,
        0.05175575493370607,
        0.06671360351106922,
        -0.043977870967438375,
        0.008035844804864162,
        0.08839648066958783,
        0.04587357385519025,
        -0.08181943925406072,
        -0.08425685948013967,
        -0.01673427681131523,
        -0.003304122934668155,
        0.07881227408308708,
        -0.04644629557255029,
        -0.06300701755580626,
        -0.039291473383404135,
        0.06058713240558858,
        0.03847821290785003,
        -21.49034485238863,
        -0.06822012798088783,
        0.08449010421195766,
        -0.06927631576220256,
        0.0961614755316654,
        -0.08331937961915573,
        0.09111572431815201,
        -0.06370497272448823,
        0.09842173609468527,
        -0.07407903190676653,
        0.07809599352906113,
        0.0551469302658715,
        -0.04420480969422896,
        0.01386435043158954,
        0.09777173262715141,
        0.009007643217271433,
        -0.014597603026230074,
        -0.09843886070142296,
        0.07692692069746015,
        -0.07573422306460992,
        0.03242979500051585,
        -0.06885212306972832,
        -0.08710026100328601,
        -0.008436917618584741,
        0.014672945752506023,
        -0.06340692576578935,
        -0.051403553793995554,
        0.08017429237008283,
        0.045388223774812,
        -0.08228533610869371,
        0.008394082384762802,
        0.09270547093966663,
        -24.156699405903804,
        0.06342713856046775,
        -0.03495689420177413,
        -0.012608758839295395,
        -0.06168142425760852,
        -0.03399973036820776,
        0.09489278123214503,
        -11.86852133611569,
        0.05779555387348326,
        -0.03009171257526773,
        -0.09749657615725248,
        -0.04309580270350138,
        -0.06883603092321078,
        0.026697519181560214,
        -0.030670574953937865,
        0.03245553018593564,
        -0.07778621366533907,
        -0.011769484981453623,
        -0.02508943856069261,
        -0.045975172124625055,
        0.021085697828354982,
        0.03608751880365091,
        0.019240254866052048,
        0.06458195391610638,
        -0.08404075387666712,
        0.05354607415033105,
        -0.010916132654204797,
        0.08047318926946598,
        0.05203134516093777,
        0.03583410903464995,
        0.015152930948718973,
        -0.06830789602561693,
        0.02286850579918065,
        16.243293564981123,
        -0.07977208629580597,
        -0.0708716978735947,
        -0.06256606911334628,
        -0.008463454779996521,
        -0.022587537868290486,
        0.0771136433076586,
        -0.05227283550847042,
        0.09493058769581145,
        -0.050654008415158686,
        0.040987674333331586,
        0.0993255906404232,
        8.773741563634871,
        23.69865223763363,
        -0.06276235758222178,
        -0.07889433099391976,
        -0.06670274115946531,
        -0.09112585634466633,
        -0.07592072601551472,
        0.06937368778764938,
        -0.09779643124194318,
        0.08265630771449956,
        0.03530642610148321,
        -0.09960340331810068,
        0.040873228668032224,
        -0.06258449538686,
        -0.03585517091066896,
        -0.055734230769332795,
        0.06542539867442537,
        0.05278657618248356,
        -0.002388845516062152,
        0.07818544881518466,
        0.022946931874023108,
        0.005912719814930384,
        0.069115285853941,
        0.03405845863888107,
        -0.0803246462698696,
        0.012838348907887737,
        0.07637387564518347,
        0.07755416918307395,
        -0.06337778702970401,
        -0.07012533274222266,
        -0.09951401019428024,
        -0.09633805813162409,
        0.02826729727781535,
        0.03660302905468621,
        0.044160565733792595,
        -0.016094588666511894,
        0.002168904546362649,
        -0.045114201486750674,
        -0.038971709510675814,
        0.0352016529508524,
        0.08164499049873472,
        0.005362907935459391,
        -0.07456091131756071,
        0.08099871243724252,
        -0.028125016214006898,
        -13.926703182780697,
        0.09660306922448725,
        0.05115777098703367,
        0.098628486185457,
        0.027745581153673038,
        -0.006878248054762087,
        -0.08811725975508447,
        0.043777900573113954,
        -0.012041585969493479,
        -0.010969644784071558,
        -0.015490287146940812,
        0.011507259501030861,
        -0.04884479937032889,
        -0.01906164413025517,
        0.020634302812050365,
        -0.06848937090567292,
        0.08069474696412779,
        0.06183493636460588,
        0.08827222053226289,
        -0.08872140354121694,
        0.03886018622560586,
        0.060318720937412834,
        -0.04171116314850103,
        0.08188177506371758,
        0.05294912044706965,
        -0.028653778996702114,
        18.223622783534644,
        -0.017542707724653675,
        0.03623276649965551,
        -0.0854351076309917,
        -0.049936443147860346,
        -0.09122133259629171,
        -0.09873780843842331,
        0.0777492541181104,
        -0.04361520980783023,
        0.001488243911642595,
        0.09595504900736715,
        0.09167978624990392,
        -0.036610679528917264,
        -0.06625018710299635,
        0.024479810612655,
        -0.019735237900484037,
        0.03999777510809363,
        0.040303303817376956,
        -0.014386872545011989,
        -0.045968227074178004,
        0.0338833529846215,
        0.05734580880340365,
        0.08193423718219336,
        -0.06678934690728773,
        0.019081417003995724,
        -0.0030091737148270903,
        0.030764718146431752,
        0.06800609558490597,
        0.028065419770178707,
        -0.06348047787443019,
        0.03933330454050421,
        -0.058106217102688706,
        0.06131346016804545,
        14.83025052179456,
        0.07714894186680252,
        -0.009040657094754989,
        -0.018354279433391435,
        0.032215372055273445,
        0.0019640249392864906,
        -0.01943917598271727,
        0.09318450392506669,
        0.09731210431559187,
        0.08714471913803565,
        -0.03302070657029468,
        -0.01892923520281435,
        -0.0959927700721802,
        0.046641312098627624,
        -0.08984617096472536,
        0.05366202085558572,
        0.01136286968017211,
        0.03142223276257322,
        -0.09625284673448715,
        0.057151889669231626,
        0.07597645111017762,
        -0.03388195824038301,
        -0.009926768482302256,
        0.04584130028635505,
        -0.06330181773165561,
        0.04770377794375427,
        0.09095436823207353,
        0.024726805787836037,
        0.053829749224989204,
        0.07740712247421683,
        -0.05030125258988143,
        -0.014400662090126332,
        -0.07401186543832586,
        -0.012933634178180942,
        0.05986697555634565,
        -0.03295952354234931,
        0.07969355030108952,
        0.01825654206589844,
        0.02724758433523894,
        0.07080515916714183,
        0.06403331665889334,
        0.09540316289674894,
        0.07586241626558815,
        -0.038977605287741884,
        0.018800028271263924,
        -0.009264312473377195,
        -0.09373771100171756,
        -0.09525375392264142,
        0.023506973242165552,
        0.0023637463722286645,
        0.04692290472621283,
        0.02159370032710095,
        0.08363268429166482,
        -0.011490230439939214,
        0.09283626717989427,
        -13.207780925353918,
        -0.02546267416692509,
        -7.127844560207798,
        -0.00158276265936097,
        -0.00986030832940088,
        -0.03902718548809543,
        0.04141756256725171,
        -0.04172108640987622,
        -0.0820336145381455,
        0.033374242968383816,
        -0.035498475911211275,
        0.0738551029422024,
        0.004359917968847021,
        -0.08007853380272395,
        -0.07641750358565594,
        0.08958703053073638,
        0.06858121835212128,
        -0.08568452029233918,
        0.03506952785198428,
        0.03719200888076127,
        -0.04372585616721869,
        0.09185937228938226,
        -0.09769928666624837,
        -0.005267792735092855,
        0.07710259862584082,
        -0.007019688281752062,
        -0.05238343248180009,
        -0.04369467113984054,
        -0.03251829002712729,
        -0.011821196733807063,
        -0.09446598059143795,
        -0.056704968222704856,
        -0.08209840221799043,
        0.09035374800481644,
        -0.08279811113945074,
        0.008599142870652401,
        0.04246958312630489,
        -0.09867928167878715,
        -0.02184072490356463,
        -0.006557828709006536,
        -0.012168416742808219,
        0.021890495547701644,
        -0.09749048218283125,
        0.00047032056822024493,
        -0.0584937066942671,
        -0.008524251023566395,
        0.04743825973836363,
        -0.09500455489239862,
        0.039714817875705244,
        0.026414140104351003,
        -0.04274216654013974,
        -0.03108999326223505,
        -0.021838854284916123,
        -0.05469174193954971,
        -0.04490524110913801,
        -0.05632457986223423,
        0.06183769687648938,
        -0.05635568325961629,
        0.07941471853047882,
        -0.05306995637760834,
        0.048399151747846064,
        -0.033716842182630116,
        0.03405325452629779,
        -0.049227971840856456,
        -0.05947817720044557,
        -0.03211382562371368,
        -0.0324438136888614,
        -0.006857881934689919,
        -0.005976943161604215,
        -24.795979755710405,
        0.0776376834263322,
        0.06438755999518447,
        0.0869135789250653,
        -0.09105074509371996,
        0.04666471544212078,
        -0.02914810653266335,
        -0.009361855869902236,
        -0.06197468431001259,
        0.022072986659702337,
        19.52058476952768,
        -0.08736561327289616,
        -0.006101565185471586,
        0.07495031281575856,
        -0.03649057767039761,
        0.00789154522181161,
        9.487564283282701,
        0.09141238578415428,
        -0.0757551721914017,
        -0.04951806117015459,
        -0.04126212234303015,
        0.004534863787034826,
        0.07335819405630356,
        7.294906141553746,
        0.06973559674332916,
        0.06131745748380407,
        0.013490817726290724,
        0.09553687409215783,
        0.01571166418715149,
        -0.06185428950817924,
        -0.07595346903395611,
        0.011866697115403071,
        -0.05618176929929373,
        0.015635253277430344,
        0.004786322975762938,
        0.024608830804327436,
        0.059695410461503506,
        0.07189289524615719,
        -0.01634164019324022,
        -0.03374339263252746,
        0.02271472808554309,
        -0.074058310539181,
        -0.08887177198454484,
        -0.03381068932543041,
        -0.03566465895498508,
        0.0016053146806002394,
        -0.09703610301353285,
        0.09404695145592243,
        0.07413926991105232,
        -0.008115953254508673,
        -0.05831202727830229,
        -0.032340158993044196,
        0.017175388743846692,
        0.034647352725422464,
        -0.06519433698192328,
        -0.08649194295561613,
        -0.0403006510453094,
        -0.03386326222539725,
        -0.010984605706189227,
        -0.07288258379844029,
        -0.04654250735899428,
        0.07209113913688295,
        0.05659454095453695,
        -0.02683949576974802,
        0.06366094600278599,
        -0.03609893340213435,
        0.09376558516249439,
        0.06805244014237713,
        -0.0934499029698078,
        0.0026559913920061184,
        0.08113139653268489,
        0.009237795651037037,
        -0.054171173407867014,
        -0.048099955131271036,
        0.006508596481554371,
        0.08308863953601331,
        -0.07117674503921259,
        -0.06454405981344938,
        2.0691225189377818,
        -0.07236380538295983,
        0.005408209384072021,
        -0.09086856025975765,
        -0.09663650343402429,
        -0.08696725704388163,
        -0.08336312288092783,
        0.054455978984844,
        -0.01836342154864838,
        0.049336440866299014,
        -0.05260600915948617,
        0.04623455981840294,
        0.055919651656901825,
        0.025129512626875267,
        0.04303021669893728,
        -0.06850450788701443,
        -0.062302876917583294,
        -0.050901859248568875,
        0.06150923687811735,
        -0.016951667818574198,
        -0.07205037350610125,
        0.06157686462663811,
        0.05452797007412924,
        -0.018312786219047486,
        -0.022192131652401775,
        -0.0002786912463110802,
        -0.037702357885341535,
        0.0239242868549506,
        -0.024686872051314965,
        -0.01275467290702928,
        0.013277441142572857,
        -0.008489094847137044,
        -0.0868386404390451,
        0.024377665863668116,
        17.178467686536322,
        -0.04481668713443261,
        0.026964540086401007,
        0.09911976491389357,
        -0.04013398375283583,
        -0.014804400312021126,
        -0.0704359584389061,
        -0.007510315647118487,
        -0.09522100127011793,
        0.07164804042618883,
        -0.0006006101040803846,
        0.04986232306470714,
        -0.012619637646655676,
        0.06273348739353019,
        0.022603916855032533,
        -0.07864258726252138,
        -0.08687030911402722,
        0.07627028338438677,
        0.06656943740765117,
        0.02642800269118145,
        0.035415648456512766,
        -0.009074029524038435,
        -0.005766186178383231,
        0.008523150202215127,
        -0.026499442606488136,
        0.057747782778760304,
        -0.04780307565943165,
        -0.06060078767949717,
        0.02015573843184741,
        0.08464575906350921,
        0.09038610673848843,
        -0.029070141315777856,
        -0.0531045276785743,
        0.0679048708915532,
        -0.013249308878385602,
        0.02921033915487753,
        -5.566354757433977,
        0.03801713830864725,
        -0.8603977736865289,
        -2.6687613492705324,
        -0.018541976106091346,
        -0.04857195704674542,
        -0.010444622893092337,
        0.023172397557678442,
        -0.09000823987131615,
        14.63087562529688,
        -0.0796966750430229,
        20.560589712878183,
        0.04357358651530624,
        0.016819996266810522,
        0.03879388500180081,
        0.05806718990606222,
        -0.04020875952055106,
        0.013342014402200592,
        0.058561709411222435,
        -0.050956443335429924,
        -0.010713481935031188,
        -0.0994607303490271,
        0.025020187965622137,
        -0.019393871310204827,
        -0.048293961671347856,
        -0.043214569318941104,
        -0.025327397077443164,
        0.03505222871258021,
        0.021025441185992616,
        -0.07851038841666896,
        -0.06801784408199399,
        -0.037028967318210926,
        0.001459739653279793,
        0.016557727078773038,
        -0.09076737118785205,
        0.03957888754490976,
        -0.001210556081882877,
        0.05359481124829815,
        -0.040958522272094955,
        8.237848717935734,
        0.014100473140364223,
        -0.012720794679697889,
        -0.09468730765755216,
        0.08365493778986105,
        0.09857816195550648,
        -5.383032198034499,
        0.06974450768100096,
        0.08809331960194822,
        -0.05078169690453867,
        -0.07542894266623712,
        -0.017079592097725277,
        -0.0880178056957294,
        0.02155779385484849,
        -0.05968354041938433,
        0.08468499431254947,
        0.049033279215655756,
        0.07768932409676563,
        0.04529913481455461,
        -0.0708820258910976,
        0.06309057070784987,
        -0.08582263728832795,
        0.059224942030398214,
        0.09437166988475992,
        -0.05719390623467433,
        -0.017767102816156427,
        -0.05681220008585841,
        0.09408164228281826,
        -0.09592236555590801,
        -0.052255549798274806,
        0.03683195563758551,
        0.017632209506575694,
        -0.07593097926868984,
        -0.021176069523063126,
        0.05560641521715942,
        0.01284940747437227,
        0.01951192919606197,
        -0.043245047947322715,
        0.0006901017110886032,
