{
    "Layers": [
        12,
        100,
        100,
        4
    ],
    "activationFunction": "sigmoid",
    "Weights": [
        0.1643526233909175,
        22.90729227890462,
        0.26785367392448833,
        -10.231189440320298,
        -8.748891345197418,
        0.056571255103477026,
        0.16496574947194526,
        2.1237173620429317,
        0.1763793025668079,
        0.04397871287297131,
        -16.69894537740587,
        0.07076538292284114,
        0.0826897033815738,
        0.013672756407001385,
        0.024993297755302325,
        -4.316788549170113,
        0.06514406750179971,
        -19.583247227066067,
        4.144189804382126,
        0.15804400148438003,
        -1.0753589701468336,
        0.07660635474351923,
        0.07832001901628255,
        0.044606127661652555,
        0.1359783174391723,
        18.068404710635335,
        0.02252984824106017,
        0.08506913319415875,
        -8.431555873610563,
        0.057884545883015726,
        0.10017511837815302,
        0.1281070057382785,
        -8.92212925501391,
        17.880670354085794,
        -5.901527961589061,
        22.67781082411384,
        23.55265991364334,
        4.125730731437759,
        -0.559430926311677,
        0.15892593906888142,
        21.088334873299544,
        4.202384429204955,
        17.269889407089977,
        0.15227156042438159,
        4.085473520682392,
        13.818804388831488,
        3.316925531712865,
        0.007595198295703609,
        7.23902207617548,
        0.19783019594459958,
        -6.325804540857106,
        0.006782293002206075,
        23.096941754790542,
        0.18266394568130837,
        0.1310936415807593,
        -12.780511062799249,
        0.9860431541672483,
        -20.41837766506749,
        -3.968614483222865,
        -14.705489379549064,
        -3.369617579594376,
        -12.375595819061347,
        0.11516028285110332,
        -21.004653507796654,
        0.19762500953798054,
        21.501022214731435,
        -14.521587971891424,
        0.16192469965805809,
        9.177779671787057,
        0.03353780606177233,
        -16.36126265729323,
        0.060282268583103926,
        -20.023850367747166,
        7.880479032171593,
        0.023657003457720684,
        0.14353366722398309,
        0.1023238091008142,
        0.04240487290702264,
        0.17357666306560615,
        0.048293031833011923,
        21.79418910887253,
        0.01163036374061548,
        0.011815615695068083,
        10.679168633352717,
        -5.983196333862285,
        16.206952146904754,
        -13.152542359639984,
        0.06740558294862398,
        -15.357150189309465,
        0.05348556426989837,
        0.04998855694181614,
        0.07371138078428574,
        -11.67284892385666,
        -7.396418404157302,
        0.15901736305668948,
        -0.4095881017310177,
        12.585110920688706,
        0.06741996508464272,
        1.026881622827645,
        -17.70986972853975,
        0.1461962851450561,
        17.717491807817524,
        0.13350783395177732,
        8.561281315869394,
        -22.89053516352597,
        0.009116916987823088,
        -14.477196276934624,
        -22.17363998759009,
        0.1706412214808038,
        0.0768198548947396,
        0.0737587327428849,
        0.005038733701428689,
        21.613134954952343,
        0.06523156308395243,
        0.14677225712308517,
        0.02483546012933746,
        -0.6029735734436983,
        0.11868239327175321,
        0.012078613111714676,
        15.115903149612706,
        0.029522897767566073,
        0.9089062094413727,
        0.05703316270753196,
        0.08711526805899648,
        14.025867663412562,
        -6.929917333709636,
        15.886183318544944,
        17.574359946030945,
        -11.654995079259312,
        8.399779877167859,
        10.148139965120528,
        -9.993229337739196,
        10.308842199373316,
        -18.922454612849613,
        0.09159560128200983,
        14.699723950931975,
        -3.5187482210803793,
        0.04494773614895151,
        -22.59412271814778,
        0.12375271071968329,
        0.11359210276127847,
        0.16757792586418185,
        0.17280625955771,
        0.06989567212891105,
        0.0019025346737407745,
        6.949410120378154,
        -4.00108154474027,
        0.0668287006304694,
        0.04131926615456605,
        0.11353584965904889,
        -14.862556600075482,
        0.07733061335759604,
        0.12301930919546766,
        0.14258166729032692,
        0.159394278735661,
        21.84337068122293,
        23.329620710903875,
        0.130681106325582,
        0.09872240647954188,
        0.023438946912758853,
        -3.5279269640173574,
        22.465197935541894,
        -21.887620887235983,
        -23.222053285190768,
        0.14328050489998034,
        4.106677342409903,
        11.079284954479661,
        0.012392517093968847,
        0.136320594577094,
        0.0857830424823388,
        0.036149661194134854,
        -4.12524496833041,
        0.02534281292345364,
        -3.615674118977264,
        0.1974946801609732,
        0.04297013626710982,
        -5.819390263558478,
        3.2834180392346966,
        0.17038475816354903,
        0.016004306790194846,
        8.2221099747766,
        0.052703168358227574,
        0.11604582471946144,
        0.03764171179123195,
        0.15808824394335375,
        13.034507830385053,
        3.0376097310499297,
        -18.46790061681327,
        0.16153342614148425,
        -1.2736688106979273,
        2.0196348015606773,
        0.057308925065063576,
        0.08583619530024285,
        0.029735774020133922,
        22.163654859726215,
        -17.92461214820097,
        0.008239433908768402,
        0.19824351533326223,
        0.018341295671751114,
        0.11060250867861465,
        0.05829239943821754,
        21.81601787572329,
        -20.4349302808314,
        0.13053402498099978,
        20.88099282334418,
        -19.805543626758784,
        -6.500138743193517,
        0.0048051830797369195,
        0.12319325179604564,
        -5.469039770885974,
        0.051079888541295665,
        -22.794946763010792,
        0.01900553553555855,
        0.18231759883121318,
        0.05395006984515041,
        0.14578629497974657,
        -12.308775191897482,
        -14.990735254246268,
        -0.2493602085592812,
        0.08607428169966323,
        0.19764125094608775,
        -16.350023749338263,
        15.609571620549303,
        16.187901451830186,
        -17.237900320472576,
        0.1602829068478612,
        22.436224572091376,
        4.839768369684272,
        0.05420229607225338,
        0.19348991315858577,
        -22.27906498993696,
        0.18221777629050595,
        -8.86301156888133,
        0.07344145652593141,
        0.13413554278523207,
        0.18477666888316335,
        3.310376692313831,
        9.883933651903988,
        -15.649705805990944,
        0.12299301168537387,
        5.715798432027739,
        0.1425868769236756,
        0.19096751833846884,
        22.003122259087263,
        -23.502551762774903,
        0.12661290726805927,
        16.395424485291045,
        0.1041636201188858,
        0.17993612585814797,
        13.161693836167501,
        -18.20092983264697,
        8.687712574441775,
        -2.861687141722747,
        -21.41367087589491,
        10.707657547664454,
        17.87693796303933,
        0.1484518576902679,
        1.755556203949947,
        1.316596053278694,
        0.010971343849292348,
        -6.865794170048122,
        -9.545378938098171,
        0.12906947006994623,
        -24.470242649866968,
        21.602566419841665,
        -22.92389751499605,
        0.06261316214033048,
        -1.6494407148723838,
        0.18669182025045028,
        -12.713192221702464,
        -2.137784536259467,
        0.04473796685655525,
        0.09144488344938072,
        15.693426445077478,
        1.2303464107070603,
        -23.892066913592146,
        0.18293913520187843,
        0.12023026065234982,
        7.216711809839474,
        0.11608432640953975,
        0.013922924003051085,
        0.00380856578951998,
        -3.4487535748027973,
        -23.01145836614875,
        0.09016735399174709,
        0.1637736712840138,
        -10.583534910926783,
        0.12944705393661843,
        5.020974957522927,
        8.931942865080188,
        0.004656312439304378,
        23.729337634153204,
        -13.306810413934755,
        4.6740372969682795,
        -11.958963075691265,
        -6.646075639236358,
        0.02221496851596059,
        -6.522990415408316,
        14.8038050360473,
        0.005412331162805595,
        -16.708250834290418,
        0.1362306616072202,
        0.18576451800777638,
        0.1645876386640669,
        0.13381971608942417,
        -19.736773372007868,
        0.10162219677917089,
        0.1429060454876109,
        0.04793804204667338,
        0.03415089722602418,
        0.11922296778137978,
        -8.42504568328981,
        22.0654739768961,
        0.026996146144080326,
        0.10713407965545706,
        0.1777513351417646,
        14.294199044320344,
        0.058060812818096344,
        0.07745560704623067,
        0.17327227722059182,
        -1.861007349091171,
        0.1348138062939643,
        0.0993368486369934,
        23.38836576472675,
        0.19998171031407744,
        -12.902492212161365,
        0.1666528696093444,
        0.035094349791735584,
        -18.17966630904876,
        0.04632385716781804,
        14.441035971316296,
        -5.485626748676765,
        24.573000329269668,
        0.16858900193115423,
        13.532238323352274,
        -24.791150385278048,
        -5.760944294861471,
        0.06064668897521761,
        -8.932286146332956,
        0.050173252929189796,
        -1.967746687248038,
        0.09427726469733924,
        -2.278804305902817,
        -17.4580795890637,
        3.9478467543475837,
        -23.325897887683666,
        0.13082664662083326,
        0.1276702645633678,
        0.08996660043810399,
        0.03316578274730375,
        0.15152520690821955,
        12.142277155879235,
        13.39855986653172,
        -23.268333393262353,
        0.0949800322465631,
        -19.713479338321292,
        24.91803194378228,
        0.14215083197808456,
        8.642045222548703,
        0.13699764187988409,
        -8.66893088310805,
        -16.53620039625855,
        9.470932388410127,
        0.0997394144555972,
        0.717841747585279,
        10.329019111343328,
        0.16299301710322994,
        20.261967910025568,
        -0.8897196311009381,
        -5.2050949636587305,
        -13.366650656792324,
        0.032619089971441584,
        0.1018562581411334,
        13.388092962601576,
        -11.327280618023794,
        21.431591716054868,
        0.1307637103586113,
        0.013969724490687696,
        -17.557720573740774,
        12.453212548710681,
        0.09636734109213832,
        15.868288440231971,
        4.2950104178512625,
        0.18497542288213006,
        0.09268609134260451,
        23.242735934444447,
        5.057075793281506,
        0.7214184229686893,
        -3.768477056165697,
        0.07195228653972312,
        7.26101832537335,
        0.047189930547425665,
        0.0322183521171302,
        4.955759528293278,
        21.562714565787047,
        -16.65883065252858,
        0.05638720627308902,
        -3.488204116478812,
        0.04298823207428533,
        0.029049465857950676,
        0.04577421517566101,
        6.402888260047725,
        -21.900904310818248,
        0.09709400519412147,
        0.08775582512192846,
        20.599186023762897,
        20.762467498217298,
        -15.5666100917635,
        0.1871802886599062,
        24.049648339234622,
        0.1428070917627767,
        12.365965003884206,
        -4.389821123527938,
        19.068582157298486,
        11.063952383325784,
        6.957340114888421,
        0.12595746102662972,
        0.05511008467618819,
        -23.201029109772676,
        -10.078727060432357,
        -10.768523771554172,
        -1.758904868166045,
        -23.46308692381064,
        -7.550214778976372,
        -14.568040243380542,
        12.062602163876754,
        0.11138487527689565,
        0.15531081535794009,
        12.768131715523246,
        0.06289084100589881,
        -7.262883229174399,
        -14.022292990840423,
        6.689382969878665,
        12.257055848854684,
        0.05572609925562908,
        -17.599259652168662,
        -3.198844921370135,
        0.060752573867238584,
        18.946860740658487,
        19.678922258110575,
        0.1848440964778237,
        -6.987938956819907,
        -19.64563362924934,
        11.594116595946836,
        -7.946612817858789,
        -17.00759507054169,
        0.07842860198042617,
        -13.390934065159922,
        0.0018896930618135688,
        -2.465227746083009,
        -11.00528784158209,
        -3.5905757604068995,
        13.40447027718605,
        0.18910655819431366,
        2.7125773735202756,
        16.86641625673184,
        0.0026954068435353752,
        0.1625664300203735,
        -8.0374155529788,
        -8.29742788458464,
        0.14930224011727758,
        1.8139888445027026,
        0.10651173064745252,
        0.17634904071217058,
        12.577887705981574,
        0.13036618942643022,
        0.1039253124261804,
        -7.004869688860936,
        -14.468153386312055,
        2.547201294603184,
        -6.812573085322448,
        0.1402325487745369,
        0.125799274912502,
        7.3713243168301545,
        -21.584170205234663,
        23.369123120820724,
        -14.565635758513118,
        0.0243506608481459,
        0.07830670149964299,
        0.05223374417063514,
        0.19834142211486863,
        15.778213144043349,
        8.879942436439194,
        0.053722815222993915,
        0.0523293127151538,
        15.632360746828219,
        0.07797180626177705,
        -17.81594517592584,
        0.08387517105287023,
        0.08379440466124302,
        0.07853731140316045,
        0.17027450673372738,
        0.15584702262234443,
        0.09181641829834244,
        12.168315564250655,
        -4.42159329741828,
        0.19568056965663194,
        0.157400675216946,
        20.20109879436238,
        -23.088706734347397,
        -7.632620858259177,
        -12.067603620741952,
        4.4944557797809495,
        0.05513729158755516,
        10.721406023861633,
        0.14465851854710624,
        0.1816223388434109,
        0.07210955762312846,
        0.5376410802871305,
        12.346349102540955,
        0.16743662581646884,
        -22.029493209573847,
        17.592556449445397,
        0.033306573501882264,
        0.1708111294312513,
        -16.942958328654445,
        0.1887820049461892,
        21.052493710770705,
        0.1801340513732638,
        0.14594520049073775,
        -24.58936990861167,
        0.06587798348086094,
        0.12306980613910899,
        2.2863897495351004,
        0.07605751522140176,
        0.48538744581625437,
        5.376080056600717,
        19.2966579276071,
        10.86390191296028,
        -19.87250627215026,
        0.06709713021500648,
        -18.156574637878265,
        -0.584625301813869,
        -12.110459060311063,
        0.12364604643591277,
        0.14465358771598452,
        0.1664539667838735,
        7.860697023990781,
        -12.160649675487567,
        1.4735009063582254,
        -23.246843954041452,
        0.14751110351553062,
        -15.897071684872376,
        0.0864987535493663,
        0.07415922122448407,
        0.14457441741147914,
        -12.906675477008578,
        21.10058018442993,
        0.15504801112775818,
        0.18714950988330825,
        -20.93961793868856,
        2.6176447024061638,
        0.09389722421817943,
        0.014874287529214048,
        0.5749491091297081,
        -6.7479197268554785,
        0.5034885617776084,
        -6.981125389444397,
        -20.54624687592177,
        9.62490429624414,
        0.14730414386083077,
        0.0025853766935942436,
        9.69091078783557,
        0.15536581774312375,
        3.0266314171383364,
        0.018782996896195493,
        0.014493656906896791,
        0.05072222929110746,
        -9.252994535766469,
        0.0018414801037921259,
        0.19011162635774875,
        -9.860260542842802,
        -1.6891703872597077,
        15.012766368693022,
        14.247986382470067,
        15.429847202779413,
        -21.181931374868213,
        0.14867619636467874,
        3.1338766671838094,
        17.779806476725803,
        22.18031721603826,
        0.1437740758608618,
        22.47944382097652,
        0.15157328416650626,
        0.027793496839386478,
        0.08078475256027194,
        20.68889340852847,
        0.18829031150177267,
        -4.634326754323194,
        0.08436452864735289,
        14.00909543987683,
        0.0849826304761892,
        -2.142209352003267,
        0.040171036364779415,
        0.15567853132318446,
        0.07770965364097791,
        -9.091170480672927,
        0.07124420513964953,
        0.19139561965690566,
        0.1880402973633764,
        -24.00782236008495,
        0.1318747373330631,
        22.024208152063686,
        18.02851632381698,
        0.16902233279593798,
        1.032072924378479,
        0.05075827066924896,
        24.3644829406215,
        -17.724345294571577,
        -2.3096342145887725,
        -11.84840755933817,
        0.17708698477044338,
        -16.134580955530666,
        9.891129055958714,
        4.040265349562922,
        0.16989399461032023,
        1.452042803076413,
        10.926177931340376,
        12.39656544988933,
        0.10796650399500779,
        -2.419439024857482,
        3.9755841251768445,
        16.076881941087592,
        0.004440619072749241,
        -5.826646684617909,
        22.228885556863396,
        0.1308453558057261,
        0.17690903732289265,
        0.09780873926529897,
        -24.073610608869465,
        8.162267246690057,
        -19.657697545681117,
        -16.83195403836826,
        -6.126354211818452,
        -11.437332350676343,
        0.1858037240859456,
        11.223500731758563,
        -16.80520803685267,
        -13.732828730679692,
        16.973601436133045,
        -7.747204811098328,
        0.06008078175937164,
        0.17554701460134808,
        -15.243518025652492,
        -10.307214541675759,
        -6.778298888313273,
        -19.589036382431225,
        -3.897385789200502,
        5.056981275372962,
        0.19911129041823608,
        0.09368243026869268,
        -15.757005605644114,
        17.474633341198718,
        23.02619227686924,
        0.0627050946138366,
        -8.631302394888042,
        0.17075099150813133,
        0.03158028044469026,
        0.128995390039443,
        -24.406230973232322,
        0.14180829766902334,
        0.15130129016835814,
        17.692566706892222,
        0.09380073395154774,
        0.06633324942147593,
        0.05606612151976838,
        0.15481578310232239,
        0.08605350850559566,
        0.0007689467304623055,
        -13.963456951486242,
        0.16889272176024825,
        0.08216645307706782,
        0.14642679908366074,
        -9.996496141536394,
        -23.2328872480686,
        -20.555518122632122,
        12.734018987974714,
        -17.172068359689817,
        0.00358943427317362,
        0.11393754659895686,
        -17.716062768906216,
        -13.388794280433691,
        -17.81407457433115,
        0.018906518173662647,
        -20.795897457759626,
        -4.668339067388828,
        16.675887466242898,
        0.13367934207997978,
        15.103470792390894,
        0.0006007466152329055,
        0.0357030998784833,
        0.16817541080786605,
        0.08810377336873398,
        8.050386553451318,
        0.11199893763441011,
        0.13794011528853334,
        16.42587370970996,
        18.14625853792481,
        0.06386520732773042,
        0.17080387386891754,
        -5.54585344033822,
        0.18815443865599135,
        0.12768343320858958,
        18.193999366416158,
        -7.361078544292898,
        0.17640016409044643,
        9.53046367194814,
        -0.3252186400994006,
        0.1152446820701743,
        -8.185253130183277,
        23.61334808145733,
        0.020316294123240698,
        -16.534136562934787,
        0.1863742854490508,
        0.19691848456415936,
        0.006720262269933297,
        -14.720457516159824,
        14.601800506733284,
        0.1145566685303141,
        -11.197433242528144,
        0.1277216489067873,
        0.1852312429972093,
        19.194481984786634,
        0.012170407068104261,
        22.0891060019245,
        0.04377764425605677,
        0.17441263517702443,
        0.11352891405060346,
        10.994563217874223,
        6.377531058363505,
        -19.41182603028181,
        -9.391105458679183,
        -12.345260432098149,
        19.206346953533092,
        -14.746155801976002,
        12.194570346587682,
        9.770984763509695,
        0.08275526849568263,
        1.8772331370507729,
        -8.288421788029588,
        15.712172083895041,
        0.1920857149539852,
        0.07846167601299636,
        -14.872857896063563,
        22.93338443622305,
        0.10819278346893527,
        0.1069262050059693,
        -24.93896321303144,
        0.05996485656188644,
        0.11693548416310402,
        0.02239023967383327,
        6.853110917178519,
        -14.558256167145622,
        0.030316044653706166,
        17.955449189751135,
        -23.92050441157223,
        0.06390139263348393,
        23.060286579799275,
        6.494646913244718,
        -11.724417920639363,
        0.08431611984528825,
        21.21248774070333,
        -22.036423162605857,
        0.0348624256950318,
        -24.103231790664992,
        0.061499433826640006,
        0.048000083557055456,
        7.30120969555437,
        0.12316328117412426,
        0.14260383615899924,
        -14.585406322381,
        -6.401504710535001,
        0.1001689604939339,
        -4.445783915266265,
        0.07717282621155507,
        -19.54179437295849,
        0.19836374108197807,
        0.03582622339861934,
        0.023214681689027072,
        0.16770685635191696,
        0.19523296105310833,
        0.12024401220347576,
        -1.3509173848668787,
        7.079067618054822,
        5.890919338233946,
        0.03348365283083239,
        0.0011573810569241339,
        0.024098220680604323,
        0.0337035687471384,
        0.02940835981925898,
        4.3820428682133965,
        0.17443006143713014,
        9.30288590803331,
        0.06376552724435505,
        16.69611652217101,
        0.10295955096927525,
        0.17212338545804984,
        0.10848282609809656,
        0.16661421788258887,
        -4.166585186181592,
        17.3012992137727,
        0.021025317461508975,
        0.05803764245120671,
        0.08377837677927236,
        -16.358396467886983,
        24.799375968128764,
        -5.6826252460768,
        18.87201956715294,
        18.405766893322017,
        -9.299575523281444,
        19.878521086636567,
        11.614311086551645,
        0.15284082549999645,
        -7.369199139917583,
        0.10002195325721552,
        -10.498439852108755,
        11.001475587289654,
        0.4157102334674043,
        -7.357607033272629,
        21.904797300862647,
        15.537282219009306,
        -15.536909926469855,
        23.69492069550715,
        0.6967502343528622,
        19.465903039435837,
        -22.369733888184363,
        0.12409960657820812,
        0.11623916794182923,
        0.19687463632836666,
        0.09073682007514172,
        0.04728347762279439,
        0.023721918618987783,
        0.1589925727058153,
        0.07698770111528762,
        0.16934930260869213,
        0.14730180144482632,
        0.12937680681922462,
        0.0025192660022311576,
        0.014018749508900098,
        3.360909316753478,
        0.04529383141482608,
        -23.25449975636108,
        15.692611738028226,
        0.024510704283449813,
        0.08918198106106279,
        11.926629992532945,
        6.617720830289663,
        0.5964316424344034,
        0.13510969971033157,
        17.73434217213631,
        19.23458289847504,
        -9.512528963725842,
        0.10109640987852556,
        14.62609603572799,
        -14.925059419136355,
        14.4539904655647,
        0.04547787813077675,
        0.07588070720224281,
        4.962134165699727,
        -20.127245362507008,
        -5.653995960133873,
        7.94551268495902,
        14.832073457700403,
        0.05600080445622178,
        -7.831548067452378,
        0.18486312697659174,
        0.01925584349472942,
        0.1142680060613365,
        23.3108557890462,
        0.19083236561782002,
        0.07121268488577291,
        0.047735170680353094,
        19.848811686830416,
        0.1055690936011168,
        0.021323337780283592,
        0.0664846590043807,
        -24.77472442295697,
        22.563824121925165,
        0.058853531757788694,
        0.04091821574791097,
        -12.788605532740915,
        0.07366129028045357,
        7.789695240756657,
        0.07113696293385599,
        -20.49583187804014,
        -22.384878031656676,
        0.1442543739824563,
        0.08685374619628483,
        0.09515366785045774,
        20.97571014764901,
        -8.758322222851035,
        8.653045166365828,
        -0.9859352003125821,
        0.11346553526344261,
        9.886630854756582,
        -10.04708782715471,
        -16.97651839299651,
        -12.620631722320264,
        0.07470442559826344,
        0.07235645916226545,
        0.11770790885561443,
        -3.349468643679298,
        15.95825200028834,
        -3.0251573786223354,
        -17.757150434490843,
        0.04260427073524786,
        -17.64224093261516,
        -13.059066384470508,
        -7.764355821577961,
        1.7469044292410594,
        0.1417815428930659,
        0.06004277776221363,
        0.09285662479691581,
        -0.7440467751378286,
        18.999121431859493,
        0.0657717895651726,
        -15.994767802176513,
        -8.74437122408871,
        -12.77989587535111,
        0.020615183056377398,
        -8.674868661201373,
        24.38934627655476,
        0.016481787313527008,
        0.1329587403492772,
        0.04565340909141829,
        9.13514855212523,
        -6.382659528922442,
        -10.80285164925342,
        2.9766177962224702,
        -13.647848424181564,
        0.07042481360164761,
        0.08128535448536107,
        0.22270471863201635,
        8.127203316292928,
        -14.72673350590984,
        -23.91060235470682,
        0.05437259617876982,
        0.17689528546067793,
        -6.748637121063126,
        0.1715319435697329,
        11.8474030966184,
        0.06724530918359499,
        -23.473115105456333,
        0.039523758423861466,
        15.905853765263664,
        -1.0841008977734425,
        -13.384791824950693,
        -0.4030988343615931,
        0.13576211976161084,
        13.771795086078065,
        9.941650412468505,
        0.14489027208727698,
        0.10565017255248166,
        21.73666228366077,
        0.14209690800778518,
        24.239042342560943,
        0.06509524549961308,
        0.022460279697897746,
        0.18047726311676696,
        13.315489201775513,
        0.18111195781665482,
        16.556638294264637,
        0.09614154481391984,
        0.049974544223908214,
        0.18779118642774317,
        15.117885018956343,
        0.06574142014210382,
        -24.003251552555625,
        -17.27556415744789,
        0.013225776114094413,
        0.11974720112257345,
        0.1686306067172918,
        0.04255398236547295,
        0.13606846498562125,
        7.745897757361284,
        -6.540162424553998,
        0.10179330341040234,
        -14.087955913767637,
        16.473422899409748,
        0.02143924124410819,
        -3.076012086778725,
        0.15291711539663744,
        0.007138604697683748,
        0.0607221639336708,
        0.030590022662510253,
        8.691846578078554,
        -6.065381611866826,
        7.933696474340813,
        -9.898856160170599,
        0.011156771133981636,
        20.83759635774622,
        0.12399786005903071,
        -19.539596311285568,
        0.1433626291530469,
        0.06446387471910246,
        0.037512526063931344,
        0.03723946794875279,
        10.007539088293562,
        0.03820690793533435,
        5.555794884073805,
        6.6031077816740655,
        -19.953047381205167,
        17.459025268391237,
        3.2438892914300688,
        14.575561958957806,
        0.16314035720508646,
        0.13103802577745172,
        3.438771197096834,
        -19.771034934897678,
        -1.7957142522878726,
        0.02001592226114788,
        -9.578921310398226,
        4.754681908426196,
        9.978082164404036,
        0.18500732777726103,
        15.653026390778443,
        1.847941945118027,
        -3.0909469003686283,
        1.1631160201859956,
        0.13953316203397761,
        0.18432173333662238,
        0.0507540732454566,
        0.17675135245827234,
        10.228257153851153,
        0.107576722002133,
        0.00710915991121297,
        -11.554299094298681,
        0.19640300457807347,
        0.1775549651587388,
        0.08009179366442894,
        -3.0780191863206348,
        0.1348882390526449,
        -4.406261265667499,
        0.09067683512244457,
        4.355346529560123,
        13.188852739793532,
        -9.847705988974663,
        14.14482161573546,
        7.6378055590595935,
        0.04186643419914913,
        -13.23443259063043,
        -13.065795916647637,
        -2.977225512718718,
        0.10828264311275348,
        -2.947976938904329,
        0.15890048028121778,
        -7.853257661803937,
        24.587222626327268,
        16.305544817095367,
        0.026133175867930625,
        7.6686321257892445,
        -5.452786043793868,
        18.245971906866345,
        0.01706510848935752,
        0.10254957880134273,
        -24.15921173793425,
        9.120839472128893,
        0.002411852750132537,
        13.787864979642137,
        0.05176311411905821,
        21.04627754251719,
        0.17599572153068302,
        -17.65505541191633,
        0.14887203867691207,
        0.18477834768374068,
        0.026254695437555455,
        0.03889216293405187,
        15.216676040722554,
        0.023676241611613903,
        0.016392860703252323,
        7.765241609520082,
        -13.14277987917426,
        0.0242316084026613,
        0.12695956011110085,
        0.012522929172416708,
        20.827484659933035,
        -16.946750661715093,
        0.09398176104054318,
        0.026230043474473864,
        17.129961212846077,
        0.06615588909087951,
        0.14271065975091587,
        0.03857612830163326,
        -18.805688748168023,
        16.456100266447372,
        -23.51608396431383,
        0.07853204253619804,
        15.596901637230346,
        0.12914627885967175,
        0.17252073405750723,
        -1.018113048137426,
        -21.156150105669024,
        23.596854054346352,
        20.183872256709314,
        0.1629643364860836,
        8.814535463440635,
        2.4475264521012114,
        0.12823041017869669,
        0.10674115777369836,
        20.060940013063956,
        0.05771915814280826,
        0.13855728912370538,
        -3.827291438181369,
        0.14673968957188052,
        7.82803739172585,
        0.13620280028641893,
        12.493383531515825,
        0.09690833818473421,
        20.344701733768446,
        -18.599521674569164,
        1.0155636319225323,
        0.040738620327319855,
        24.225609805893164,
        0.19882057928929553,
        -11.454824565293587,
        20.40966906176771,
        10.244403267033277,
        -3.458623965656461,
        10.918238336995792,
        15.668493732400322,
        24.445239337289635,
        -12.776177666838006,
        0.15477744360174195,
        0.10251717540540915,
        -20.264544215862145,
        4.20980591746104,
        0.0016933702227991177,
        -4.231914770637989,
        11.71619845820382,
        -5.6581086173753015,
        17.235666531282035,
        0.023386771688814402,
        -10.400852313882236,
        0.10295896306590842,
        0.011517976639302985,
        -2.9439718471909195,
        8.792632482931765,
        0.02045026815264044,
        -16.34841330858584,
        0.029848558041334308,
        16.112129824961784,
        14.403450077395476,
        4.515585602914275,
        0.018988358294682817,
        4.166910066964913,
        0.09591837017065248,
        0.1557157770693207,
        -23.695900710203933,
        -13.049449644947853,
        -8.395699073926988,
        18.68626902578646,
        -22.44849484996655,
        0.1359739040709722,
        -11.45217409267094,
        0.18090174221838665,
        0.11685463085769299,
        8.609891594549445,
        0.004830362036419933,
        0.0357058119048169,
        0.1821662252135272,
        -17.21012849920148,
        23.086667421214912,
        0.026760941260187954,
        0.03906744914966818,
        -5.6824542453798195,
        8.320971977367584,
        0.07250384451466343,
        0.15681216523867209,
        0.10633961145607361,
        0.13265478102590797,
        0.08744983818272485,
        0.07338504308669465,
        16.02871788089395,
        -7.511451917770152,
        6.876493447527665,
        -0.18934296166974818,
        20.37363080971619,
        0.10919327564573017,
        0.1949722234438705,
        -3.774580603873545,
        0.08888872678819851,
        15.270159024327192,
        -1.12167879039351,
        0.1289766196373345,
        -10.318393124007741,
        0.009285030197790834,
        10.303364942857549,
        0.08382329208169836,
        19.969117709798546,
        -23.319753418995703,
        1.3093376550282763,
        -9.127522273558453,
        0.05217904931108661,
        0.14617937977093307,
        -10.898414718742067,
        0.17242420849898965,
        -17.33870731668884,
        -15.890354065978652,
        -9.348289069114657,
        0.04282583428601541,
        -14.877866457314592,
        22.882109042695433,
        -23.021502493576296,
        0.07767808811727357,
        0.08185330148281672,
        0.18546994216657123,
        -21.270489108948677,
        0.03924711044320986,
        12.65934618713073,
        -13.886493784828414,
        5.851032719058413,
        -21.211154981034884,
        -6.591714526865189,
        0.04377584941547692,
        0.05959111487796714,
        8.922806416943054,
        0.045998499167943185,
        -7.14849640481652,
        0.08120805629843098,
        -17.644149193480132,
        0.11193949659010555,
        -5.565481248609096,
        -9.721408154156585,
        0.10727780130233558,
        21.464752789314446,
        9.965835590730123,
        1.8205633316244132,
        0.025587461386333967,
        23.10597705022804,
        -8.350226612701974,
        0.022703693818347716,
        0.15749956784679192,
        2.898777230618787,
        0.10032188054549783,
        23.022877035922264,
        0.19676477930031777,
        -21.653799509449744,
        0.1710620261640759,
        0.17484206641391642,
        11.524367243351954,
        -1.9008166374234534,
        20.824218724319643,
        -7.277168184389527,
        0.11302745979643843,
        -9.516678764280739,
        -15.066752790999837,
        2.760034514031396,
        0.06753504498407285,
        20.495496739864585,
        20.59682992880765,
        0.1713003896389593,
        0.18512996314921482,
        -6.875866415888499,
        0.08099355933610314,
        0.06626404288940657,
        0.04897500335763532,
        0.025512591821461372,
        -23.081136267587212,
        14.060416942071782,
        -9.273382307308697,
        0.007860111774792377,
        -12.960091817691433,
        16.06975728991422,
        0.5685235616830973,
        0.012832776029889637,
        15.822692679159779,
        -14.818901449048571,
        0.12465043088370048,
        16.88174398828552,
        10.343451230362803,
        12.978646925426006,
        -6.045394587810794,
        12.235302428069495,
        0.10406708929776172,
        11.504104225867437,
        0.10467300977982888,
        4.452851207852092,
        0.00560973380236014,
        -16.330800696801806,
        16.45110864368351,
        0.10245116730199842,
        0.034935681210823334,
        0.19542583704633731,
        -20.289525093649175,
        0.07982158833819182,
        21.050260429018074,
        -18.343427330848918,
        0.13311116244486518,
        23.7135663699215,
        0.028849356120321357,
        -23.18922365780218,
        0.001189758630977611,
        -4.2398128034110805,
        4.199319668619484,
        -8.686764996991194,
        6.6948079563485905,
        -3.9910876583560615,
        7.362749716155939,
        0.13734269262047036,
        -9.274917790207216,
        -17.345286324607514,
        0.16783957953089665,
        21.800945876624375,
        0.13500944206730492,
        3.9987949350219196,
        0.08681400445303522,
        -15.698255197769173,
        0.1904921632851059,
        0.12658585775214296,
        0.09667100586539523,
        0.10279803434787152,
        0.539834870701295,
        0.13010378426291563,
        -6.585031683893806,
        -14.967473150959487,
        0.033323797722471675,
        3.5983325099897527,
        0.19275009885066915,
        0.12801738593849726,
        -1.76713754415211,
        -21.354629328350338,
        0.19843516585339374,
        19.00387960737998,
        -14.16054489539148,
        0.1688356199157587,
        0.00892557732679724,
        -12.998270906155296,
        0.9305316952837082,
        -14.977630719512746,
        -19.484217937968715,
        16.51894440860886,
        0.050003772166431086,
        3.4358824182459067,
        0.025386894886179557,
        6.660710320323204,
        0.12949861805492607,
        0.18352261213746368,
        12.106417520273894,
        11.524914603519221,
        17.917960073156856,
        8.142803820043511,
        0.17090886471368216,
        0.19162906450746858,
        -10.329795698085997,
        0.15739856826768542,
        -0.1145399264352207,
        6.534955137569131,
        0.1506389947013383,
        0.18386577889892375,
        0.01574232728481917,
        -17.649111446759804,
        0.15954760069324486,
        0.022976675549542105,
        0.034801196218805376,
        -12.428061226501075,
        0.02090805730448384,
        3.6597964979549467,
        -23.05668743766042,
        8.046675903952874,
        20.12258935197616,
        0.09666281661885373,
        18.686357658683306,
        -0.28597675708028447,
        -1.1682280541975736,
        0.19927596370453016,
        0.0749617370811146,
        -18.139536925438705,
        0.08762898279881007,
        0.15301552261949372,
        0.05981410773033975,
        0.1943145383317928,
        0.056945050032047285,
        -9.08484634902208,
        -21.613754209380197,
        -16.64224018162126,
        8.721879665532725,
        21.0985923749164,
        20.79890768182038,
        -10.921649298771962,
        0.1760097375090699,
        21.98816888140265,
        -8.29169424419257,
        9.304070722728383,
        1.8758204694850775,
        0.17498385360166557,
        0.07701454327178979,
        0.04875213128233846,
        13.483761473432068,
        -17.891584704190443,
        0.18754521808006952,
        -13.934687206075925,
        14.137712160778939,
        23.631012631159223,
        0.10291414646130095,
        0.1951463602561408,
        0.1842627003088385,
        -21.541370703741247,
        0.11643482207872724,
        0.06779140375715116,
        -20.808572357958354,
        3.5508026754908713,
        10.015055248642405,
        18.52467655410669,
        0.029701079987322077,
        18.08342810390927,
        0.1857578725680829,
        -16.740850601048308,
        1.4769497914327125,
        0.26314958504804054,
        -4.796735158752419,
        -24.99266327051034,
        0.009913572723474751,
        23.789868645414828,
        11.465929441824144,
        0.0767056352696549,
        0.14447036389878237,
        0.17588003430071597,
        0.15720353128657263,
        7.714881232665562,
        0.013079596300217534,
        0.16021696086019796,
        0.12262525433160905,
        0.1743462773414163,
        0.06506023225842364,
        18.316168727935548,
        0.09185505909450829,
        -21.543765623173417,
        -17.644172527963022,
        4.100862911243542,
        0.17263487663774735,
        0.014734724256364063,
        0.05772318403218697,
        -8.324445839938655,
        7.3015704085866915,
        -9.551955780365407,
        9.42770452813825,
        0.10470714934311309,
        5.359463454107004,
        0.12766593002599227,
        0.1867632176608908,
        0.08677000424656339,
        -22.48440021258492,
        -19.525261025677985,
        1.0595416077357598,
        0.18376867701067476,
        0.0632817283625319,
        0.07647053824847246,
        0.08447987491656256,
        0.08030696646173073,
        24.314681627170195,
        0.06575972182906722,
        -1.9142634796776576,
        -19.28548811325016,
        0.02290236898065925,
        0.1196681248270016,
        0.13431901757567052,
        0.06943430160708508,
        8.170126247252462,
        0.12025573618522421,
        -9.329714908815113,
        -0.22246081320422917,
        -17.985385352487228,
        0.13017897515580668,
        -9.06449618661178,
        0.16541461366821453,
        8.258217245815445,
        0.0686323304187431,
        0.16150358473204804,
        -21.102967701789353,
        0.1623465158180531,
        0.14243844203180353,
        -17.573945319717033,
        0.05963762601464926,
        0.597772266791587,
        4.618175211085706,
        3.816417025601769,
        13.570515842390584,
        24.832645746609728,
        8.807339192639908,
        0.10377812799287721,
        9.646364981384906,
        0.013495044382937095,
        -11.464608484009853,
        19.557032262428642,
        0.19999947102460164,
        0.7889996184855192,
        -24.640990458721078,
        0.04580538170450357,
        0.14470279382149842,
        0.03599483108531012,
        0.0003679870966998955,
        24.50538781806366,
        0.02482953806294108,
        -7.762719558628039,
        0.06376683702846156,
        15.556130601854747,
        0.18019081681278537,
        0.019591522881930556,
        -18.457736390444236,
        0.16426935415452243,
        16.55743654187227,
        0.15754230893147225,
        1.8993808449118035,
        13.655460886544255,
        0.19783742799665946,
        0.12277365524394712,
        0.02351860179066252,
        0.024922988595335795,
        0.08501335191775167,
        0.06844132509291904,
        24.655451820790752,
        12.544196487948554,
        0.18806866776257639,
        18.671962013599398,
        0.014180756783290739,
        -8.948045557926509,
        0.1523297749442321,
        -7.851820293515221,
        3.110700741162109,
        0.006670226546460789,
        0.05072536716279204,
        0.051866174767068965,
        0.15964220001005058,
        19.86854446806707,
        3.8601800859623836,
        11.937414375201236,
        0.086887691042645,
        0.10768349473806965,
        -22.116553767681935,
        15.355516130111333,
        -21.123475872011877,
        0.16173386339691273,
        -22.756284257617942,
        12.078920922856007,
        1.646204264498273,
        -17.455064806112155,
        0.17945147562542002,
        0.058027068342619836,
        0.014898542985656339,
        -13.041320552745372,
        22.40645262743135,
        -0.4044035482373758,
        -13.66603548353652,
        0.039546424348605315,
        0.07246471441429346,
        1.6083975014563379,
        0.13934374121996243,
        -3.3738610759129664,
        0.07390256261464816,
        0.08805108750774648,
        -22.085231374028112,
        11.742334460747763,
        -21.713282863383043,
        -16.937520970992804,
        22.359280566029263,
        0.08078609645011264,
        19.104360754462704,
        -11.696795167008744,
        -12.809123945208734,
        10.415219123140417,
        0.07013986545259528,
        18.047997034137865,
        14.522111723836538,
        0.11433267132804788,
        0.10953177527172225,
        0.07036075210035646,
        15.223664791418258,
        18.370812595750422,
        0.18090614699387697,
        -22.840272812431607,
        0.14715535954152884,
        -2.8855976873343963,
        0.18237908506668354,
        -20.525686303046832,
        11.654278928805539,
        0.10002238908738065,
        0.16153652724543505,
        0.0743111173951549,
        0.10377857585810962,
        0.09799351237395229,
        19.661324646768932,
        -0.9372446827994771,
        0.0787213885385159,
        0.19755925085285148,
        5.1205484110714465,
        0.09120081803230562,
        0.26486111024956926,
        -21.738595688114415,
        0.06265738430398286,
        -4.166714443013021,
        18.52786315621202,
        14.489778836115406,
        -22.355985050191517,
        -19.653064830920407,
        0.15577302570923843,
        0.18028476640144966,
        -22.23983729827429,
        0.07221304733902456,
        0.013684352772687626,
        21.931606965470685,
        -6.60161299371811,
        -5.978866253255401,
        0.10421557612834836,
        18.881690499306778,
        0.056329522983064845,
        0.14816888361559374,
        0.1331539996063682,
        0.14307136486841063,
        0.11240210671310812,
        -5.885705964206046,
        0.19055677367664714,
        -1.6449927473857002,
        13.090024181497228,
        -24.13184230908586,
        13.31692345793968,
        0.07106702775737177,
        0.12345573954791567,
        -1.2050444131299614,
        0.13875489634341692,
        22.5728302852796,
        -20.99822119041633,
        0.005540260334086212,
        0.06583312323471834,
        0.11914758253641843,
        0.12320589924175117,
        0.15791736690487324,
        0.011952072477541665,
        0.19809817093100476,
        -14.383522099215906,
        -22.72779048385878,
        10.634550721075364,
        -17.122235393161134,
        20.35095370568235,
        -2.508355972559194,
        0.13688310919909208,
        0.056604419820585686,
        3.1459819088967436,
        -20.802172883705094,
        11.687870293318383,
        13.88778336577262,
        0.000953927480322836,
        0.09674914219535823,
        11.580547350650491,
        0.09205016328709821,
        0.13285374245446208,
        -15.888237380216452,
        -11.947874187326091,
        0.09349876174609469,
        0.007093888532609772,
        -10.157688100767482,
        0.1924043163846729,
        13.100228326919037,
        -17.691934370382622,
        -9.996267159870797,
        0.03917056189880839,
        0.13917209643022851,
        0.06798877216094104,
        0.006047258766665564,
        8.82734864827168,
        14.407644965002135,
        0.12859811705944862,
        14.549949559245,
        0.1862023977624337,
        22.09677208454017,
        0.00047925739957004336,
        18.503290334180946,
        17.296259597542317,
        24.32987501275369,
        -5.062163106989615,
        0.12125100001314881,
        -0.8021457110341856,
        8.097765022328595,
        -8.186855807047543,
        0.1607595283072379,
        0.08288206199587114,
        -18.788504055725717,
        0.0017392516287790373,
        0.1824957137491799,
        0.0016366221955216532,
        0.18718042990692513,
        18.73060332482077,
        0.06898697704607874,
        -12.732239289974157,
        0.0842102060296984,
        -16.5432096889052,
        -11.183014457606255,
        -21.14668194473066,
        -5.313431056940811,
        0.11499522796679776,
        14.505059477281435,
        0.03938694786163959,
        11.790629941100384,
        0.06512978676274797,
        -12.008748361384535,
        0.025586387433873894,
        7.242074019450669,
        -21.898656063112163,
        0.07437794328917917,
        -18.01554314570224,
        -0.1730197735184582,
        0.14608158169798455,
        21.879404688642722,
        -3.3676979892596997,
        0.17072622979147642,
        9.70713523915078,
        0.1313342549153793,
        8.009793597442808,
        9.380724252732989,
        5.647340555061085,
        -15.694910211289725,
        0.09763266244226294,
        -0.17149882693525598,
        0.18471455123399907,
        -0.06366327706501806,
        0.13623213818075502,
        -0.3303677575965267,
        -6.739769176755406,
        -4.406289517606389,
        11.073401866872658,
        0.16261204595285303,
        0.1805755041986732,
        0.9084784799474406,
        -4.977172328511482,
        0.03613002054017516,
        19.461649059509575,
        0.15371051940726557,
        20.49867266795257,
        0.07955426675270144,
        -16.841612058129673,
        0.08312361559395974,
        0.1914933631169609,
        -10.687944643356595,
        0.08369904794318438,
        0.039504781467999454,
        0.16814262713716435,
        -17.549195946517003,
        0.180834239549392,
        2.412759118595332,
        7.0658105683709,
        -23.076664617122123,
        0.16076975295498297,
        0.01851750245013606,
        23.594270342435053,
        -23.45739414880552,
        0.15198519731625862,
        0.16947947135813993,
        4.196251267140184,
        0.1307516826612996,
        4.165698802582362,
        3.2484906934102007,
        -1.8108341072269987,
        9.98072226091216,
        10.894831698817,
        5.583862035484522,
        0.16955595812344548,
        0.008487108256517528,
        0.07876103911242525,
        -6.606230701834402,
        0.023352147399618065,
        -2.589128069024195,
        0.16768845811267086,
        0.11318722731715161,
        -10.353536989732914,
        14.975725234019833,
        -3.5727088364196575,
        16.77816186556744,
        0.1337790926639164,
        -9.631905074657876,
        7.718038778403688,
        0.13576307449858233,
        24.832595565007352,
        0.09997038920958566,
        0.029872483552704755,
        0.17724703384651358,
        0.08674565636440112,
        22.20985346805324,
        -3.1175247861005353,
        0.028935117059756446,
        0.07276880865892932,
        -16.710321446574184,
        0.19153513122498125,
        15.642225964136493,
        -24.487810549093837,
        -2.430256432197698,
        3.9848559877058918,
        0.023418494115022528,
        22.253337300366226,
        0.006670564702754911,
        0.06385683182995257,
        -1.7810662643119493,
        0.01061941036900458,
        0.06776235005090218,
        0.00936402391718576,
        0.03425933295694326,
        3.4089261409681697,
        -19.308096877871627,
        0.02549954162133741,
        0.03593410943859245,
        18.59305917312171,
        17.553199590522382,
        0.030311376508120304,
        -6.189913226314793,
        -24.560064995967068,
        -10.700767226071006,
        0.07430179493949272,
        0.11186355907883089,
        0.05433781436557927,
        -2.286036312262052,
        0.07360933476953413,
        19.19917968214377,
        0.17172166928052174,
        0.18819856970761598,
        0.169174323377493,
        0.19887210298229807,
        0.15291135407069098,
        3.257062647832342,
        0.009802868164979772,
        0.07796865451451192,
        0.10826802696074887,
        -0.6821684272177215,
        3.2059939206088615,
        14.488864847712549,
        -23.82266306631603,
        0.11631142717442655,
        0.014409673757083796,
        0.04136059400558878,
        20.04805290767913,
        -10.045336698928809,
        0.16623757476998058,
        0.10074516810259677,
        -16.710079669526923,
        0.1287098750122173,
        4.371755650839738,
        -0.5089300594033013,
        12.444772308039234,
        0.009713920250777885,
        -10.333406570175574,
        0.19497699299174368,
        0.14453208400379852,
        0.0908641858423255,
        0.09214968565419009,
        0.12273761129472312,
        0.048077605571597196,
        0.14984555197895424,
        0.01371609165643868,
        3.8963036318127813,
        16.404890226674176,
        0.12917724561064975,
        11.098116272174089,
        0.006517385461275627,
        -17.411586348208054,
        -7.931242066146805,
        0.1497304326551072,
        0.07495594333241842,
        -6.65144254628278,
        0.12958386163955835,
        -3.3044805477202353,
        -12.98626544601731,
        -19.778322401530225,
        14.226525647280532,
        -24.524683877303765,
        0.15885401281080702,
        -9.950305082105837,
        0.12421464125700116,
        -2.963108583507225,
        0.06066158186967155,
        17.646725826585666,
        0.13724455945596206,
        -16.762777086619316,
        0.07036612707970984,
        -2.754310736412215,
        0.1285652378620176,
        0.1744549850945162,
        -9.579807887304915,
        -22.12728566079055,
        0.13945016524971096,
        16.669778121832536,
        -0.7504113895867128,
        0.19483065828305543,
        24.686108082237965,
        -15.46881272978885,
        17.989325958727377,
        1.634886221368049,
        0.043011672063535934,
        22.28842120814798,
        0.09759347255021816,
        0.07562388350744219,
        0.17335104349254113,
        21.890040830858112,
        1.302487679636954,
        2.1172641878010374,
        -15.019826605100029,
        0.13753796595266654,
        -5.818221578255944,
        9.965091341030977,
        -18.946630884722936,
        13.434263533047094,
        0.13672290391960767,
        -24.81473023122073,
        -7.0330886913322885,
        -13.824355551480172,
        0.037150992929098646,
        0.153779744520666,
        0.08936871854602142,
        -19.409384635846816,
        11.652338999591535,
        -21.86235955090944,
        0.07189677272506616,
        -3.3678498401077057,
        -14.958031901607605,
        -23.884532784202094,
        0.10958280476145213,
        4.157637023193807,
        14.49179318536067,
        10.833244958180813,
        -2.3827549411032507,
        9.593710062239815,
        10.918649779830979,
        -19.84897189191294,
        0.024056281167743523,
        -11.14710575570802,
        19.57674755926154,
        0.036886359882223156,
        14.347102913772424,
        23.569842766224582,
        -7.518813564767079,
        -18.096861185971303,
        0.0891246403326448,
        -14.641507679683595,
        -22.526237031855125,
        14.268666149050588,
        0.09899465715298815,
        -16.41802230353737,
        -12.336919300813165,
        -17.95964056667997,
        0.1976534079755119,
        0.19126072767185223,
        -19.357760843588178,
        -9.053182670551562,
        0.16471030116334973,
        0.010664878633169873,
        0.17349742685592764,
        0.03475043930705173,
        -15.658687504884949,
        0.005779211290160503,
        0.32251924154996914,
        3.0545540039885957,
        -21.652513017167387,
        24.40003385835592,
        2.5704406412234277,
        -16.18603847708525,
        -22.657461930818414,
        0.0070632376475177954,
        -8.082851970224691,
        0.008094277523594151,
        6.318828409127207,
        23.0773440812872,
        0.03276810429710122,
        21.726464004688225,
        -5.686161683027979,
        0.19264210182252117,
        -20.263447823643254,
        0.1432201352748729,
        0.12487870091845116,
        21.535338300375315,
        21.43133991410385,
        0.15692846347418365,
        -13.025076033636152,
        -14.73614561504084,
        0.03076443471761832,
        15.191049597377727,
        13.958434943428713,
        0.03413271821762911,
        -15.428415014411911,
        0.16481221550734482,
        -5.745479598630453,
        0.08489046935263218,
        0.019248776441078343,
        0.08938489531415135,
        0.1771219894791216,
        11.66266118899749,
        16.373044661509518,
        0.1692860138135441,
        -23.810792800795454,
        10.215847565684136,
        0.07507178994923094,
        24.098488835980817,
        21.808987057253646,
        -21.303003883204894,
        13.622052804026687,
        -3.722317618443128,
        4.02929331018731,
        0.42859600816169774,
        -10.43198490459668,
        -9.636059262366459,
        13.453988751023694,
        0.16354285154281564,
        -1.9065209663981832,
        9.364668816870193,
        0.022063701535086678,
        -6.651417045924248,
        -14.563695478474525,
        0.04648699647394641,
        0.04194169351448554,
        -16.538010620467205,
        -13.27349704373184,
        0.018063506505501793,
        0.027892869102768537,
        14.426282097932905,
        0.0012348623484227607,
        -13.790283329098308,
        16.89164339020998,
        -8.029587706917262,
        19.733192901885523,
        0.1912536827371533,
        0.10831953245933362,
        0.09408078823319195,
        0.14379810736388743,
        0.007802426994982259,
        0.09401010199372895,
        0.11371099017701565,
        19.913888187530716,
        23.89933845710889,
        5.843994074078196,
        0.07816580746027646,
        16.36754827037243,
        5.8940466166042,
        0.006731377224051327,
        2.8787002464884957,
        -24.38306586926298,
        19.65693480319186,
        0.0945901935468148,
        11.432828616324962,
        0.15215280209818563,
        0.1411357368808564,
        13.152988889887354,
        0.01770406836436571,
        -1.4346049220311698,
        0.1234464196536814,
        0.17163039160093518,
        0.13120280462730238,
        -3.3480202934639394,
        -11.081561795230964,
        0.196450439984852,
        0.814819650255906,
        -18.720630321079945,
        0.16400776853319887,
        0.08121635767454918,
        0.06565636949545138,
        0.12465161614816181,
        0.043355783717040325,
        0.12142532101055395,
        0.14375507609076746,
        19.855278030363863,
        4.581160792701066,
        0.04962156901699877,
        11.022015903817753,
        -19.51465678748795,
        0.010979902715298319,
        -17.574456430248375,
        0.13769406815516758,
        -21.98031161634273,
        0.14237237800784341,
        0.0031050970424731706,
        24.847644480644362,
        0.04798346754808023,
        0.0835745058471046,
        0.1816264752887923,
        0.1323124700381702,
        2.4818295985531087,
        -14.0405001231099,
        0.14263781719507374,
        -8.067072437609944,
        7.420577316766142,
        23.4870317170627,
        0.1638846085063717,
        0.018205254005005323,
        -17.12526292223521,
        -6.2212752477341375,
        -5.581389854314512,
        0.1327230751083635,
        14.395896666926411,
        -11.139455243734941,
        0.1940636536291228,
        -6.4340190764532785,
        0.1422415570976618,
        0.03642915749816442,
        13.720594784151473,
        -13.290671778571305,
        0.12282402322812046,
        13.627427447643605,
        6.282850632966241,
        0.07334764633420225,
        22.517386227129066,
        0.15088754689249806,
        -24.992814154796015,
        4.593616386310085,
        0.13983391027818756,
        16.90201545809169,
        0.17963985822422135,
        0.04314997544879504,
        14.593677522732264,
        -22.997151989229682,
        -8.410682806559134,
        -0.5677393702021014,
        11.412838557517325,
        0.19744851912858497,
        0.18783096508267014,
        0.03543579732489639,
        19.699417112590368,
        24.15193725007061,
        0.1534431939819647,
        9.647224516866515,
        0.05829022263399058,
        15.296966904711994,
        0.08645631508306009,
        0.01983393157832394,
        0.0648332701831794,
        0.1649257248560746,
        0.05174560326457467,
        0.05814366488634684,
        16.96612706531193,
        0.10751926164655079,
        0.08941162390948008,
        12.521151454645327,
        11.970598820193224,
        19.42140828192384,
        -23.40678372252656,
        -14.225489728921481,
        0.05910090680980247,
        -14.901214543682695,
        0.07279991130741914,
        0.16919856482025897,
        0.07908267094527394,
        0.09759185633320051,
        0.199143779955527,
        -6.772596303467861,
        0.06571434753117682,
        -18.325870997484973,
        11.839144868791571,
        0.02071861695781001,
        -1.324457227450747,
        0.09513009956620935,
        22.84882526502171,
        13.050773723676038,
        -9.645566514448012,
        0.08387978883296313,
        0.14263757036268007,
        11.075972598893415,
        10.263776087045564,
        -22.705882612409212,
        0.012955486288995167,
        0.17722612988963854,
        0.04093121693170927,
        5.713365074960251,
        -10.499549838224464,
        0.09728626700943499,
        0.09889307939342436,
        0.06646706447331563,
        -16.33475636125894,
        0.13933640520580806,
        0.02626894664925126,
        21.031645987133395,
        0.01858348245212298,
        0.16864701708966076,
        0.17088309508519783,
        21.351724593926427,
        -18.226162230379515,
        0.1556900119496576,
        0.13299038636059168,
        13.480976688970955,
        17.643351253044237,
        -20.72544669044629,
        7.944496886434138,
        0.13133364925849295,
        0.0761734735161142,
        4.458472446423144,
        22.590638761695935,
        -9.565262997112967,
        -17.77406576257561,
        0.14730590651170392,
        0.9749297839289461,
        0.10587690380095008,
        21.946714418719118,
        20.78393549314447,
        0.11692751138934449,
        10.976149305558117,
        -7.06607125001004,
        -21.473354428694556,
        0.07404465201873744,
        20.231277240235066,
        -7.15752625078051,
        11.020588982796973,
        -13.465530606430075,
        -17.30517363110974,
        -13.939290382152148,
        0.18013818968921644,
        0.12170397638359179,
        0.07942769737588184,
        0.08858569813638179,
        19.4834196869756,
        -11.707841000347763,
        0.1640595502933378,
        0.12083003293171544,
        9.004652964564109,
        8.4834009765734,
        -9.450702115186571,
        12.29861588325437,
        0.1583480915161946,
        0.1426186197887833,
        8.221489552001202,
        -17.348101076674805,
        0.19834765989792813,
        0.11444013599077132,
        9.677134551387368,
        0.10444840051563219,
        0.022332523686141626,
        14.461478368444872,
        0.06657245857258776,
        0.07435459624719098,
        -3.198935322544937,
        0.0932287731240447,
        17.107696101247782,
        19.152287701382107,
        9.384456406798193,
        13.560894677134286,
        -8.151286022517155,
        0.1251798721010823,
        0.062406362053103154,
        0.12056565888655052,
        0.0911342610380387,
        15.899533610804639,
        0.10913727689225748,
        24.42860813605138,
        0.10206717574771154,
        -16.254827305139266,
        0.032928000876861985,
        0.18483535756404895,
        0.16494742217612407,
        0.057319143456058,
        0.03072035982171828,
        0.01710286661193905,
        22.660856909385885,
        13.99604500554554,
        -24.845217461908508,
        0.020070477150639657,
        0.6024224136466643,
        0.11333352817446496,
        0.15304688615329665,
        0.09781227055052472,
        0.02222913811781431,
        -14.72849478783791,
        0.09861609632753039,
        -16.24482641265612,
        0.06898204119705356,
        9.050825141453188,
        13.329074234437542,
        0.05662455734025551,
        0.17500761008513022,
        -12.24234865946362,
        0.0269672082913897,
        0.10571214281538754,
        19.659817010744696,
        6.606466228226658,
        0.03032880672170779,
        0.17085486033931097,
        -6.978116248209755,
        -17.869847935796912,
        -6.688474746856844,
        11.267058573061014,
        0.10054652152561068,
        0.17567140679758464,
        -12.19335789746192,
        0.08647772108453573,
        12.285320720158985,
        0.19929202163924598,
        -10.785750465899724,
        1.8852975129878615,
        1.2342350368393937,
        0.14791983205405548,
        -5.775849691665503,
        -1.1827362922036784,
        0.12924006224856063,
        -2.639947569303615,
        0.01750552596450734,
        0.19013596654149106,
        0.07054091088720811,
        20.223319282021414,
        -24.428227782305633,
        8.759977150466767,
        -13.769241615525951,
        -1.3531689463360586,
        0.06463384902390872,
        -2.8065941495753606,
        -18.51874601327936,
        -9.206986419816243,
        0.03048421720848933,
        7.084874114208674,
        23.61235642042284,
        -22.54959158230051,
        -22.958991581178257,
        8.241964393922643,
        0.04213107485350767,
        -16.062558612306542,
        0.12670049088835098,
        1.7455137737949826,
        16.50263900002694,
        0.07877023218149573,
        0.08041269118672552,
        -1.9741709945342976,
        0.0011770293260949139,
        -7.082265408455701,
        13.048790390814723,
        -8.487118455206232,
        -20.784351140782032,
        -9.760516530437247,
        0.07462791968049269,
        -9.423357082989003,
        23.496709422263706,
        -23.41355831429158,
        0.09855065026725077,
        0.12856624981434472,
        19.721383053448946,
        0.0018328597750712384,
        -20.709512599586144,
        0.1347091779248736,
        0.1191638041764802,
        0.15123416776314738,
        0.06844236987647512,
        6.3174064134878805,
        12.501712371874241,
        -1.7301971210694091,
        0.05666594348162812,
        15.271272522238398,
        22.31916128376745,
        0.14627558966565563,
        2.3910902750898693,
        0.18567923441098216,
        14.646089195694337,
        5.873305145857131,
        0.11714113573272647,
        -17.735489006846894,
        -9.33128303244234,
        0.11099464874544235,
        0.09624825505362958,
        7.3001322699317015,
        19.352060802055284,
        0.10042671914148192,
        8.348107271122949,
        0.1208535529999638,
        0.1253220466159707,
        7.545224029283126,
        -6.403298844420846,
        4.295071503600802,
        16.598612773573798,
        -13.878324768959294,
        0.053108982635017024,
        0.12651881920883895,
        0.15259537828060477,
        11.63989866803822,
        9.846419886922554,
        -0.7951054230426422,
        0.05916430542854432,
        0.021469658631728273,
        0.06589654976946831,
        24.94092996776861,
        23.016685157586856,
        12.975137122361247,
        3.1236393443140784,
        -17.52668964147729,
        0.0052053042734395046,
        0.08757287856622896,
        0.03787058052865318,
        17.673896060088133,
        10.31442753053173,
        0.1685396880797148,
        0.02130739101129846,
        0.09465427824125361,
        1.0121264750213008,
        -4.1591423121959075,
        -17.688132567342628,
        4.20195372653135,
        22.495044855233083,
        0.07733333338969457,
        4.219354873217075,
        3.0609800342710223,
        0.1956415233536677,
        7.093455258015382,
        -8.5252012001387,
        0.17812250401043497,
        0.017714739465844034,
        0.020721171126861115,
        -21.77175173701833,
        -4.685705536203379,
        17.985592143953014,
        -18.389930814384936,
        0.17509472401712425,
        -24.348709645650167,
        0.11391367183969284,
        -21.71676662833386,
        -14.866647339099348,
        8.46141458858746,
        -24.839522866984897,
        0.12706111395810882,
        0.0891317868936865,
        0.07822275402859753,
        18.450812239115322,
        18.44223535295825,
        20.517646733026673,
        14.094769938143138,
        0.08736677062101644,
        -20.713025315229828,
        5.829079944005532,
        1.8623590849531233,
        -5.154267284026215,
        10.393180538426435,
        0.09211379094892713,
        20.6136788321584,
        -15.386009767062259,
        0.15814519349428277,
        -15.54693141082797,
        -9.92309003275319,
        6.194644488325984,
        0.11410328824811865,
        0.11107271067352405,
        0.19505749624904062,
        0.1345606137726456,
        17.472551912045816,
        13.588325811569057,
        -3.205403977932299,
        0.060189944426617674,
        15.096486521399669,
        0.19643521767324912,
        0.040686530825098016,
        -8.571734479931404,
        0.19886178629169726,
        0.12936994960829612,
        0.08897708870691688,
        -14.635489580988882,
        -0.9746268526937278,
        -2.907483301596681,
        15.435247241918972,
        0.03468764027436917,
        14.622220788216048,
        0.009376379752786114,
        23.941848471860673,
        7.934628510085048,
        0.18454336658364345,
        0.0068508214524758415,
        -19.268547396888415,
        0.018255388203215175,
        0.01825414219635766,
        0.12863265171124127,
        0.03601343611206791,
        0.03546912919062111,
        0.3927705086104858,
        0.02114486316282087,
        16.20674744031937,
        7.920033781606193,
        0.19043804635738493,
        0.06157981182724792,
        0.006310357579152637,
        -24.100424784900532,
        0.14173896059347055,
        -9.483199854526237,
        -20.79710357958221,
        -23.994074021113263,
        23.633485511734598,
        0.031000737133355296,
        -2.6307903696226376,
        0.09864629925517826,
        -23.807868292458313,
        0.10552969709003301,
        8.918462717259942,
        0.10389550170882296,
        4.402540031422696,
        7.938293449806736,
        22.769902896330983,
        0.1775726191632151,
        0.1038128996066658,
        -6.651105060895347,
        -2.8669554804041972,
        0.135173300252823,
        14.678711266299118,
        0.15786863817974464,
        18.051875255583994,
        -9.576996430918738,
        6.228000239267672,
        0.13400898845180267,
        0.11446114431503891,
        11.049727910736266,
        0.06504159534019154,
        22.61314864576535,
        -18.55381163973202,
        -22.89455626147093,
        -21.795199912043817,
        23.4488599615202,
        6.775386883844149,
        10.024117909473752,
        0.18541273426953642,
        -3.012173159620179,
        3.5890079527375,
        10.253061879243099,
        0.049603448942814723,
        0.13303564707719318,
        14.046124806381755,
        -0.9367492880868227,
        0.14432816033242038,
        0.12605167550900484,
        -22.488546297190048,
        20.81150007605075,
        -16.30834464831561,
        0.05730421588033563,
        17.227928053655774,
        0.19927122228858996,
        0.19146466899586595,
        0.15634936456843307,
        0.14352572661310936,
        -24.58212718706383,
        16.159263720633362,
        -23.741413119002132,
        0.1740666899419524,
        14.555457047161383,
        0.06437209986424057,
        -3.7034142234870338,
        0.19824634552196413,
        0.13380719645834294,
        0.11732080112256141,
        0.14805193839632688,
        16.903186959481886,
        -16.656105120542044,
        0.07180288596752625,
        -9.132375713004226,
        16.752448089587944,
        -22.057977041214862,
        0.17449601348075353,
        -17.97826256814966,
        22.33043282866044,
        10.875912896184957,
        0.1285341965228584,
        -20.907291537225515,
        0.06602435440282876,
        0.008508600611464167,
        -18.73000783851748,
        4.262447055975429,
        -17.031546751527905,
        -2.5651287342733475,
        0.008362267232334597,
        0.003369002448810843,
        0.16455358363016825,
        19.22233441941225,
        -24.326955128843874,
        0.14742192339915552,
        0.06489208642517785,
        -10.716888572393014,
        0.1671204326279784,
        6.368261241488149,
        -14.940437417927821,
        -4.129880812167919,
        10.885160762784643,
        -14.367735873565346,
        11.658395696228254,
        0.1992148681685697,
        0.017020162073406064,
        0.11458399049348418,
        0.0016055491805579969,
        0.1074057872702483,
        8.81845318389901,
        0.17985798138179931,
        0.08754242868312567,
        0.6323474737603405,
        0.1701797398945098,
        2.379991678163897,
        -17.96768906022389,
        -8.143615760192567,
        0.1038997432416668,
        16.985173466483708,
        -23.164073316165123,
        -0.9019396048599688,
        5.775981759247372,
        0.0034699901447611484,
        -17.326497449403746,
        -5.033761945950054,
        24.105684321702412,
        -13.282223635258317,
        0.05157628011224458,
        -7.92214270545508,
        -8.058116284508998,
        0.09164316053807081,
        0.040860251301409,
        0.005176701914626047,
        0.16593216695510266,
        0.1596736932947406,
        23.386659902645427,
        0.015565728524453882,
        0.13630420054654166,
        -23.177932640328557,
        0.5499541317037355,
        1.252436962130453,
        -22.111946101346714,
        -23.9849731562341,
        -7.156911971252889,
        0.0019839139578645693,
        -12.68413726703298,
        0.0435967050594083,
        21.332830847621985,
        0.16280744986329787,
        0.011021370329062875,
        -11.653219886028321,
        0.144756580411167,
        6.530795852628778,
        24.023306477803075,
        0.0899592668086343,
        -2.481424061161107,
        0.07990055191732562,
        0.01916135305596063,
        0.025491280391599248,
        -9.384775864378625,
        0.045368481686584965,
        0.06089413384909932,
        0.17076332318199677,
        -13.389960979419847,
        -17.753866938536724,
        0.10238858023549074,
        0.03058061218527044,
        -3.2502538008614685,
        22.795408505917123,
        7.714708069594288,
        3.5149083056758137,
        3.0660433973480075,
        0.1474522857134867,
        -1.241160179379218,
        19.282821129015225,
        -17.199923169327725,
        -11.683455075038385,
        -18.331967250363935,
        -5.748093020861056,
        -10.90474108706273,
        0.07070190702361621,
        0.035130230292729436,
        0.01981349726783277,
        0.12973200303372195,
        -21.793467707169945,
        0.13568932666552622,
        12.320118412326607,
        -11.241521157328982,
        0.04577005573297175,
        0.051650601061972924,
        0.175639297243873,
        -1.1647557029093711,
        6.618448029648704,
        9.96970778511804,
        -12.629817851461155,
        0.1820858253834841,
        0.0005374431529391099,
        -4.908918289551224,
        16.035645584136184,
        0.026212622113734298,
        19.938594504259058,
        0.1165663566588707,
        -13.996009428485156,
        -11.992109549364882,
        22.265550754792386,
        0.09338428477313743,
        0.1674450249725184,
        -18.857015513409703,
        6.4196580060452355,
        -2.621270408279429,
        15.141845489842375,
        -2.1040034908858978,
        0.1375016559267103,
        0.08628671809606053,
        0.09591844245313652,
        -15.318168691429845,
        0.04134973601286132,
        0.06139702295712884,
        0.06475332616480971,
        0.10942887435182197,
        0.11263673792447425,
        20.12416498992323,
        0.08098091331642615,
        23.69775435645137,
        0.05845949376781023,
        -14.272759219003262,
        0.08325443048079371,
        0.09222520729433828,
        10.077054522678793,
        0.023044882076430098,
        1.66801700630106,
        0.07028370546678216,
        21.769893576142138,
        -17.00095718198481,
        0.030448475807287156,
        4.974060453620332,
        -22.81917338018372,
        -6.658847264248301,
        -23.432544647563823,
        -24.36831391335109,
        -22.872102217606905,
        0.18009818045242404,
        -4.401301070505248,
        0.03730429098180701,
        2.4438282255022656,
        10.078737463067512,
        -14.07554128748103,
        4.54602882258509,
        0.18022964821557075,
        0.16558049389060306,
        0.07759650402797194,
        12.808683510561679,
        0.06767734522659659,
        4.194363048420545,
        -2.877724685441983,
        -14.782161628186419,
        24.720738723905633,
        13.615948321930759,
        0.025578356054453,
        -10.804101164073977,
        -4.876516785688555,
        21.116881159184345,
        5.115473669741423,
        -9.065168171171633,
        0.09686328195315763,
        0.09751073397704864,
        -4.8406300465358,
        11.165369021518224,
        0.08363053613010432,
        0.07195632359170205,
        16.739745618965685,
        0.15612568566655322,
        0.033134283253883415,
        -9.7088746785857,
        -13.193709098646778,
        0.09342670725324571,
        2.4725770352999277,
        0.12033041666360629,
        -16.254221480337748,
        0.011801059861511077,
        21.625170419699657,
        -6.038840093870036,
        8.892358144969513,
        23.630304365310117,
        19.152526358482817,
        -10.120723609206939,
        0.17417388531729597,
        0.11070001440004665,
        0.1615657145475352,
        0.028804826431345368,
        3.2289980131147686,
        0.04681414500215833,
        0.030822567065358176,
        -16.62643756683665,
        0.12570474324158906,
        10.556608403589415,
        0.05498057417649687,
        0.03261674813009146,
        9.066784743631096,
        -22.933109008136377,
        12.125611932061929,
        -20.49851632799553,
        0.1654259604403659,
        8.089731850502133,
        -2.2601803253726622,
        24.835891327381212,
        -14.718551936566392,
        0.0945795608338838,
        -22.461277520085055,
        23.611296538039227,
        0.14355687159002067,
        0.12985213034044563,
        0.1526611610681027,
        5.486221077519083,
        -12.491448408701944,
        -13.268531112672488,
        22.052100602332438,
        -22.567673014695412,
        0.11200186568169652,
        8.610095451900037,
        -13.221958281633405,
        -21.02085640589405,
        0.16513494463866618,
        -5.948292804120626,
        14.31291579384024,
        0.19774316952453108,
        0.056724831359999776,
        0.045504435926528114,
        0.10144718381884586,
        -16.34412522166361,
        0.0963481150821302,
        0.1257456318084921,
        -5.47865974981757,
        0.168801523377946,
        -4.663775146257066,
        21.396713349854615,
        0.04404185765137392,
        5.743879288709973,
        -21.191281290725573,
        13.625999055073414,
        -16.604936199286314,
        0.050489056987326864,
        11.431055278590875,
        21.823497930428246,
        0.13557207727743453,
        -0.10657567257860023,
        0.1297088441324394,
        24.55039537463226,
        0.16128904702849753,
        -9.954634140125629,
        0.1068143179197961,
        10.11256084068284,
        0.14623805945929697,
        11.164947942268576,
        0.08002736144057909,
        23.076355910739196,
        0.12417588980666619,
        0.14926509971534618,
        0.11247996939662208,
        -20.103811556397922,
        16.274076731922435,
        0.003224551480657079,
        0.04355351356566004,
        12.182315277244967,
        -16.930073807430247,
        7.764429990336453,
        0.01779649842175668,
        0.08014343923638992,
        9.845589660713884,
        0.006190045248251508,
        19.170570155155445,
        0.1524793175985269,
        0.11376397673131505,
        19.879195934819762,
        17.686412184906345,
        0.18360837270841698,
        6.888521469695597,
        21.385682182000885,
        0.03694182514784825,
        0.08985466956599573,
        -7.470146286019073,
        0.16340402024506706,
        -1.2921010111490503,
        0.07093419775829242,
        -15.28153027294481,
        16.3722754168626,
        -16.55179389490372,
        0.13790157949949658,
        19.086088157390137,
        -5.7466360361505195,
        0.11859056348275683,
        -22.14842441930889,
        22.340449281673003,
        -0.8065847878944474,
        -12.235928864673973,
        19.816594569673086,
        0.13318121322472784,
        -22.205203609137936,
        0.04044315156471217,
        0.13391611250886495,
        12.118300910081118,
        -0.135331995233134,
        -19.505686373595644,
        0.17069021993501773,
        16.454240753849604,
        2.0839398177737607,
        0.05649109801988664,
        0.12846767652506105,
        -10.13890725115607,
        0.10987651216553931,
        0.04536800434081689,
        0.08436308069433913,
        0.04771052065224342,
        -15.00144823046301,
        10.771594052906387,
        0.1483414916505212,
        0.09484611717447296,
        -2.7310715554477945,
        0.06745651055808688,
        0.04360309102071605,
        -7.31202525707285,
        -15.867765929750554,
        18.572996075995462,
        0.07177846150241352,
        0.11203872632416792,
        13.883113785658232,
        -19.29371141342159,
        -13.014335010829969,
        0.18932121528318688,
        -21.201858160083543,
        24.240253600936214,
        0.1992133033152852,
        -0.7979088525389635,
        0.04312009626445539,
        21.516647780062684,
        0.06389972099350172,
        20.42414539286881,
        1.358989387832743,
        0.14225766428785844,
        0.09312917375666846,
        0.10721509734698804,
        0.015493628876256917,
        0.026329080343608303,
        -15.903174612910442,
        -2.3733329337728435,
        0.18424100315794767,
        12.810857996399271,
        0.019941191828491744,
        0.040210584634258376,
        0.18935276611978297,
        15.600874246283368,
        -5.125874167613464,
        -13.868590749965437,
        15.69089026681376,
        0.13664257588847875,
        16.982113587195556,
        -22.744576740005616,
        7.2511641394733175,
        4.554153838891583,
        0.3697079509532024,
        0.15954898101326254,
        -19.999637616135068,
        0.052631323165515866,
        0.1414244173366706,
        0.03568223027285451,
        0.059152381739236454,
        -12.62839053663548,
        0.011927871844618167,
        23.728822168331654,
        -14.286495970130076,
        -0.05313344031042533,
        0.14466569835251067,
        0.006284113184511497,
        -12.176849480046236,
        -8.318784018146317,
        0.0439825945215397,
        -5.118180210626022,
        -20.151838719065474,
        19.548705803682132,
        19.123036348626123,
        2.22735736982742,
        0.0017837915332228782,
        0.0006250898865171273,
        0.13296460468418428,
        0.19230367036501056,
        0.1652420202703711,
        0.18213399963476193,
        19.5750116999618,
        -3.5148915949658743,
        0.14583472100379988,
        0.06765965903948006,
        0.19540259079340988,
        -2.919538086363371,
        13.650291386324668,
        -15.933867671488377,
        0.0378533587801861,
        0.17380562513853845,
        -21.869723045717016,
        -7.265641834916337,
        0.02321841851448161,
        0.10895545999329839,
        -12.054317758336385,
        -9.666734137768096,
        -17.65208744120761,
        0.06480191065166988,
        9.406888117492585,
        0.16658894680103387,
        0.06491868716291758,
        -8.434845774512645,
        0.06465684032320129,
        23.278655351790924,
        0.19406819929210306,
        0.1474032741101022,
        0.04256263456201501,
        -6.332604836254461,
        10.74095918612965,
        17.215557053843355,
        0.1191700941892424,
        -12.356110447162916,
        13.850323668335598,
        -13.563998116992215,
        15.525211093498925,
        17.455030527936636,
        19.004481831334964,
        -9.064528869404388,
        0.07790435831662462,
        0.19661383139634492,
        -14.322411721382544,
        -14.275160801369946,
        0.10110085445667863,
        -1.1964138771300554,
        -10.99828784121305,
        7.26859335195973,
        19.974053016932437,
        3.207342771269982,
        0.1679970965512197,
        0.18272040247915822,
        0.07273951751188892,
        2.8084698561274273,
        0.04815986935308794,
        0.17880229206487142,
        0.19329925268469209,
        -8.839726895007725,
        -2.3007108905419678,
        0.17229474249045965,
        -9.75149173830453,
        0.11172946382389846,
        -7.543113842030692,
        4.293117778060008,
        9.560707127915833,
        0.0564619955342629,
        0.1194012007596561,
        0.17795767642895743,
        -10.418584003640197,
        0.07715032113039771,
        0.0502825789697186,
        -24.69292855342503,
        0.00001769667268134434,
        0.09805407992210435,
        0.10646271371691492,
        0.08297827226510873,
        12.14912340121186,
        -11.044317601340726,
        9.465749775828606,
        0.006301853871604646,
        2.323200059919195,
        -24.379688651181276,
        17.159350939915797,
        0.15084798295879445,
        0.031303559751233626,
        0.08399117364852855,
        0.19756355540938478,
        15.575956532461923,
        0.04541053899890471,
        -9.331193689058958,
        0.08017111349123646,
        -21.397312466933837,
        0.11271594470098055,
        22.56318444239752,
        0.0433703778578888,
        0.04271270618709875,
        0.03909925119265432,
        10.542192167716166,
        21.264810176949176,
        0.08518572317248894,
        -21.905169034823025,
        -20.376065312412486,
        0.15441424144792204,
        3.930776207624998,
        -9.088304120487,
        -24.032314083536587,
        -8.58277078824997,
        -24.87264088440523,
        0.13023705332183275,
        16.121801698498203,
        0.034776399747566036,
        0.09589420238679525,
        4.917030982389349,
        21.507294537457398,
        0.12817683501625027,
        11.769783717861145,
        11.796899769043058,
        0.08731177499504983,
        0.06184052588323037,
        3.811498083217103,
        -11.13025558220232,
        9.206047552510853,
        7.891036576558619,
        0.19803990010243477,
        -13.562317589924945,
        3.9700125078494075,
        0.12139223111037488,
        -11.188734560448532,
        0.04315202584651639,
        0.027489140255377943,
        0.18269473532927794,
        -6.300855233644896,
        0.13718178896334693,
        0.12628456126495488,
        14.285237944282848,
        -20.10323059422384,
        13.981199815009901,
        8.737101830473847,
        0.0800511008882562,
        0.161591640536181,
        0.032433238777312835,
        0.04451134518078517,
        0.008589718034553107,
        15.081805976971772,
        0.11784477419187836,
        18.650655062908193,
        -15.79466877951663,
        0.12709428291924504,
        0.016424873500871007,
        0.048516025151447956,
        -10.17482301346676,
        0.19303751608903486,
        0.07869159253806046,
        0.1460698242738537,
        -12.143503501301556,
        0.04240400487975156,
        0.030952118801555975,
        0.10306680484929492,
        11.085886525637413,
        0.12305005294065713,
        -11.396215745298754,
        -22.161335066567368,
        12.170642369719452,
        0.06474372929489257,
        10.544710039748217,
        0.18338592492884986,
        5.34473859743726,
        0.02575014758419676,
        21.860007640464744,
        18.139159412904185,
        6.569806173521187,
        0.17400203523583865,
        0.16407904772804316,
        -12.375734222745937,
        -15.086580805678885,
        0.06436677329918745,
        9.779660348473016,
        0.013937649241864759,
        0.002491840449795779,
        0.181784496673943,
        0.042140920940392596,
        0.1752895305391344,
        15.103172510016009,
        -18.280174761112345,
        0.0591624206855665,
        0.05615338703297468,
        23.082901114272794,
        0.09146269920799517,
        0.13244498828404844,
        9.69875334883671,
        8.751709381545488,
        -7.098446629179801,
        0.1545987953614386,
        -10.70935229934966,
        -14.669264983745512,
        0.1850480942239887,
        -18.811287124480046,
        -6.164426016717073,
        -23.453805032011964,
        22.165701326570463,
        6.752558518693519,
        0.01952444559396831,
        -0.8235722822982474,
        -18.183922775659656,
        15.629318569786413,
        23.90984316691477,
        -17.618137233768728,
        20.525301776621674,
        -21.340609379565624,
        -18.838662558008046,
        0.1508016201432259,
        0.18349595451501477,
        0.18359287834011312,
        -11.63106295735007,
        -21.68697224070131,
        0.15952723155495094,
        14.873751335027407,
        0.1759882607891322,
        1.1652406657420826,
        9.961852772283066,
        0.16871782227955953,
        0.10383458336044381,
        20.656808508631066,
        -11.002699358960822,
        1.5348384551689627,
        0.15018365239394427,
        0.1556680213507345,
        -9.887899753393759,
        0.12124750527444941,
        0.19156554754731975,
        4.797644267355405,
        -9.37015885689152,
        -20.996505839039603,
        0.16918330805221365,
        0.19115382715778081,
        0.1390855909646956,
        0.17831705136718506,
        0.1690575888855657,
        19.233603283186994,
        0.05877152674697057,
        4.526283249578146,
        0.016442392334352053,
        0.032809684827460606,
        15.282554486833092,
        23.805609539858096,
        0.07804298253657622,
        3.8246979324934713,
        0.09152854559146313,
        19.27253997239645,
        0.16435469127886138,
        0.18723097221473983,
        -22.132344743558264,
        1.4048227977816232,
        3.5000866384521494,
        -4.197481359666789,
        0.15204000927642927,
        0.07419325740422304,
        23.10123444886097,
        0.16656286291333544,
        -21.572642130819098,
        -21.99062251689711,
        0.18754738660452663,
        6.05801748937861,
        -11.07729734316517,
        -5.766500667478947,
        0.09808148622223843,
        0.18464216466383016,
        0.10691121308425755,
        -8.91722203049309,
        0.08143997419019895,
        -6.371013294383708,
        -3.192595126667129,
        0.13908371064358627,
        -20.03671502570733,
        0.14130627901331297,
        0.03122862202357082,
        0.09665338868633722,
        0.13120569514501232,
        -14.130080495767617,
        20.709709112855357,
        -9.936168404253753,
        -12.662079371235247,
        4.694699729105444,
        0.05964810997423253,
        0.0007597954034057165,
        0.014617452613399041,
        -20.63028444154016,
        0.10695837035359551,
        -3.467630887234318,
        -12.789945404965842,
        0.11226386174430886,
        0.15037814710113515,
        -2.613668480583197,
        5.218125546499909,
        0.06528642427011713,
        0.028905862319387056,
        0.013703149206318432,
        -24.109948603645094,
        -11.733488309026963,
        0.010799598418554669,
        -23.253732841156893,
        -24.807642393065255,
        0.08336754487219103,
        -10.068453152183965,
        8.620020403114005,
        21.120065740565238,
        -16.740337519680516,
        -5.118652348492002,
        0.057836269804392694,
        0.0479643899565799,
        0.5416497898203545,
        -11.180384261851195,
        0.06247278295555403,
        9.863424460173277,
        0.1075990031410012,
        0.14491760956585775,
        -17.881380773220922,
        -16.262481985278257,
        0.028525718331281258,
        -20.393189401859058,
        0.010642689082249258,
        -12.7060007033308,
        21.406305840908914,
        12.015601595083545,
        -1.1071135689743379,
        3.8795788783878784,
        -9.409072102171724,
        0.015447415545337906,
        -22.071019688350123,
        -13.335089802442578,
        3.6687949569245255,
        20.69273741250123,
        0.10597776391586988,
        0.07879043224425258,
        -23.258520030750972,
        0.07936795062459785,
        -7.487064913012066,
        11.353392905395118,
        0.011157481212302135,
        0.11645618301835912,
        0.08407153732549616,
        0.08480413102171909,
        21.304834328707912,
        15.747313163700959,
        0.021986923965474373,
        0.13905752640379476,
        -10.79839020218496,
        -23.547015812531015,
        -17.714617155878145,
        -10.075083786148465,
        22.71166214340485,
        0.13179326297565574,
        0.0803777938554863,
        -17.473539544104,
        -14.021738399950468,
        22.088545180629218,
        0.08867381915005797,
        16.51901797446623,
        4.693037838576821,
        0.18319621804875652,
        0.018005791300820695,
        0.037961017993288465,
        11.191025594853777,
        22.63139071263739,
        15.109452787078915,
        4.282079158263375,
        -8.165925403571983,
        -1.73790630013292,
        18.151003070319405,
        -20.10907114035937,
        5.648072647378953,
        0.029805570636585312,
        -3.610954973857794,
        0.1699554398813129,
        -10.833802548111604,
        23.35647981853142,
        0.015651792984454006,
        0.19933343791315009,
        0.006621004571494238,
        0.08729038310235437,
        0.03826011478943281,
        14.952734082904307,
        0.1069173329418173,
        0.026837396607621147,
        -14.218309460583068,
        0.12979794600057604,
        0.10133550347731264,
        -15.604493883796767,
        5.119723902434348,
        0.08630835522721791,
        24.416219518666395,
        -6.57252577793933,
        -22.27109860077,
        0.1228492161612242,
        0.01054327404003943,
        0.09691924290656453,
        10.555805353794497,
        -23.903261157551505,
        0.31110164724641365,
        0.010533566909714277,
        0.007677825728806376,
        0.0951487743859889,
        0.018896505499288764,
        14.21339113842184,
        1.9157909948409397,
        0.014932270029599605,
        0.03710992855428654,
        19.880102386379406,
        0.029438529184359033,
        0.012212247037620118,
        22.06564715634346,
        20.382549920192062,
        21.9272965775154,
        24.675750133761532,
        0.07150695028292824,
        10.840361277415212,
        0.19720890041787584,
        23.03307138174592,
        7.843239528753834,
        0.15377923807277286,
        0.09816599103887712,
        24.42624085238402,
        0.1537078442107455,
        -17.579275700662034,
        22.814923339322625,
        -17.169481675369536,
        0.14820566333952004,
        0.09805993458505752,
        0.035052750433766856,
        0.16843440510678453,
        4.634526030977192,
        -1.4180467992069197,
        10.740914055522566,
        0.06881564563119534,
        9.867472844211143,
        3.6277298579432973,
        1.798772515148606,
        -23.683916844826303,
        0.1445790955855611,
        21.00982723292661,
        0.15416829358082001,
        -9.057287964521688,
        -14.909268071943648,
        6.201314874709585,
        -4.649032551237418,
        0.017374361089843405,
        0.05728841451619613,
        0.16056026112050936,
        10.15643255502573,
        -12.089925308775163,
        0.18624168902712426,
        0.00912642844347058,
        0.08652392492260606,
        0.12222706211619272,
        -13.474161859233591,
        -0.7070022623085315,
        0.017410166934560413,
        -7.387901159843214,
        0.05615505333403168,
        -21.429307377333384,
        7.186318527030281,
        9.098888004262527,
        0.06758567595423948,
        0.18073857633400495,
        0.04644561027078425,
        -14.596664650148961,
        -13.265966884434398,
        0.17660832690392025,
        0.050083557310461435,
        -23.957844889768253,
        0.07729947372750151,
        0.1328427681985549,
        6.40963388132112,
        2.840833134440956,
        -16.633516444132002,
        13.25153949481274,
        0.1425904478219478,
        9.580144501035136,
        15.313705907131016,
        0.09270167252957213,
        11.138972825143988,
        21.752486536200777,
        0.15135053965224132,
        0.15983134770804674,
        -23.490162637396416,
        -4.740862881872687,
        0.028630421161578348,
        0.012776827759095966,
        24.972312596925697,
        -15.780113316197875,
        0.10654548811885621,
        -12.558398815281835,
        -0.44974611398458464,
        3.6753285865885097,
        22.164005741925116,
        -15.70051731044625,
        4.91767692820677,
        15.230747947846481,
        18.310376664054374,
        0.1915525443591086,
        0.08641389760409722,
        0.1423310245106479,
        0.1736434380120583,
        0.12220966147540585,
        5.590894492411248,
        0.047885730862387635,
        0.09311184420687946,
        -19.881226894959482,
        0.0403459404428117,
        4.745420946605105,
        -20.589217331997965,
        0.0023812311786366004,
        0.0892667867506844,
        -12.768840828555383,
        11.649246767496777,
        0.19230037922082266,
        12.767091738818891,
        0.10835179422821334,
        0.06018967055573139,
        -8.444212727023405,
        0.07784061406185346,
        0.13321888317857358,
        0.010938295624891837,
        -15.773887370311046,
        -22.46792584018489,
        5.472664530611194,
        0.14079204396274334,
        8.76801492250037,
        0.08932860529789687,
        -1.9568190721521148,
        16.42330447770972,
        0.544721706396146,
        20.43816294710686,
        0.1354543995827552,
        -2.173088596632976,
        0.05994463734513862,
        -3.588672356304233,
        0.10368375522739491,
        0.056432636275557085,
        20.292257089327016,
        -0.20540550435960014,
        -7.7222242629724,
        -4.987166799788756,
        0.11071625617759923,
        0.17574523787677074,
        -21.14109774368821,
        0.02934266524929883,
        -15.106814663106395,
        -2.5192293781807535,
        4.80732231261587,
        -16.15855827111502,
        0.12329159254701283,
        -21.919210033378633,
        0.07301838491899248,
        -15.989739770534994,
        0.05370762147093751,
        -17.571857913193966,
        0.03309262921367689,
        0.07669850014286804,
        -4.58298429337427,
        20.48811582563087,
        1.381569538524019,
        -16.725498732791735,
        0.10612243589840423,
        -9.271684293509741,
        -23.44408439487189,
