{
    "Layers": [
        10,
        15,
        15,
        4
    ],
    "activationFunction": "sigmoid",
    "Weights": [
        -0.05429674533251987,
        0.06393268342096517,
        0.039573342532165545,
        0.08390425387560449,
        0.014065806360685815,
        22.803847167055856,
        -0.0027660448220515332,
        -0.031567793804843536,
        -0.06524743179511913,
        -0.07830320433253345,
        -0.0985584643421673,
        -0.06472644194896811,
        0.012914896932853498,
        0.054865518035210004,
        0.062244184774178785,
        0.0295323725425157,
        -0.06764262287393782,
        -0.02356902819637327,
        0.09980973667112103,
        -0.02051389686716973,
        0.07295756129965231,
        12.405074696527485,
        0.008747174267977359,
        -0.0675907817489673,
        0.022718824437459206,
        5.281897742512509,
        0.07556278089800927,
        0.03574615214090254,
        -0.08832703501217849,
        -0.0314627353915745,
        5.051673802164448,
        0.09488761758968475,
        0.07379104309547321,
        -0.0027045169087061005,
        0.09019127079832143,
        13.401488004116693,
        0.061535390738727686,
        -0.053783074729623695,
        0.09673004880471847,
        0.02945827116601002,
        0.00629762365690642,
        -0.022312718089724237,
        0.035496342839126255,
        -12.186537801027718,
        0.07467633761664058,
        0.06156684470799029,
        0.06193978950834361,
        0.04282501248000389,
        -4.069966851447184,
        -0.056951383094837695,
        0.05358365756957256,
        23.583597431900735,
        -0.060092408438832706,
        0.04060505231989153,
        0.013395258073132549,
        -0.0397657368269849,
        0.09399523224173018,
        0.06585089963017468,
        -13.550737954207104,
        0.006346600644531936,
        0.07913378177384356,
        0.07455690759171049,
        0.07739823624246064,
        0.09498360525802788,
        17.206047397365317,
        -0.0379868538229748,
        0.010901056162668163,
        -0.08622684092563185,
        0.013308191835446292,
        -0.07436540413489388,
        0.0816239062701048,
        8.417455781167916,
        0.0029197064064911543,
        -15.055810113148937,
        0.03675241648431707,
        -0.02124514712354149,
        0.08865216435215842,
        0.0634419836260399,
        0.06482629655712097,
        -0.05227232099544237,
        0.06253858239977392,
        -0.09941442151382254,
        0.01473082778117836,
        0.03690533907259114,
        0.02266863091633002,
        0.04857277608047217,
        0.046733047226757224,
        -0.010771970712466938,
        19.3145203287849,
        0.08288495893234246,
        -0.0998241210169813,
        0.012875758528555978,
        -0.08691465511832162,
        0.017059573768826566,
        0.02843129215554513,
        -0.025486285466565353,
        -0.09075610853168717,
        0.04905481561294231,
        -0.07896164307187892,
        0.09744740816308056,
        -0.04332327434600036,
        0.07390762823774888,
        19.822829055261572,
        0.09510362185526994,
        -0.021552488429628272,
        -0.005505647026443544,
        0.0023803898494521025,
        0.046266717939928925,
        -18.87990702261618,
        -0.054801099859602465,
        -0.060479956711916576,
        0.05632920226558702,
        -0.007186359660772815,
        -8.807037443466868,
        0.004425313006931525,
        0.043066598365440634,
        -0.09431128942356036,
        -0.05869333683422524,
        -0.0006425927120358443,
        -0.006296084355877168,
        0.05792132839700806,
        -0.09558774711493508,
        0.042132824148639336,
        -0.0674821444104737,
        -0.09429013919286225,
        0.009075251998263895,
        0.2767193148868756,
        -0.060983733339045325,
        0.04055085959526966,
        -0.015076782771192662,
        -22.648330763013814,
        -0.09825013688612572,
        -15.993091737836828,
        -15.883247028030556,
        0.06447791358745186,
        0.006147487886587741,
        -0.049465890413803226,
        0.018089420657688343,
        -0.0006847459254207544,
        0.061223941937986526,
        0.008751400182908625,
        0.041439065709489104,
        -14.27365468602282,
        -0.009240909090549601,
        0.08594897231120752,
        1.270980303062064,
        -0.06731435206912559,
        -0.04206010243190535,
        0.07969110185054232,
        -0.042092348563460114,
        0.08391011985163241,
        0.01826358244931643,
        24.10537937744177,
        -18.981563742226015,
        -0.08829857935573981,
        0.09805005733917746,
        0.09673315148464307,
        -0.07542054674769486,
        0.09264203332576271,
        0.08770159374101957,
        -0.0886434502164729,
        0.05535001949536475,
        0.05304651472766447,
        -0.04943131663303366,
        0.0030098258820601964,
        -0.0862212430556053,
        -0.03573180015427112,
        0.014196344200532798,
        0.06740663568442887,
        -0.07626896396139089,
        -17.654555945383045,
        -0.03214705992365406,
        0.0247693852833359,
        0.022363194579930162,
        0.04418578274812143,
        5.189632969555724,
        0.0805746217730306,
        -0.007103097400543712,
        -0.07307584629513496,
        -0.0997680576576152,
        -0.058062257737015434,
        -20.88188542629209,
        0.0030914703363385393,
        -0.06081194828967802,
        -0.02352214254325817,
        -0.07429201474580181,
        0.046180190897451956,
        0.055529175278277,
        0.028539716031341422,
        0.08014607043159319,
        0.05305639051174654,
        -0.0957042018007408,
        -0.07569604594276723,
        -0.05121153951043503,
        -0.019387318561706085,
        13.494842634598925,
        0.08437519110232383,
        -0.06993720833320732,
        0.0362127740899342,
        -0.08067040512905282,
        -0.06758388729433298,
        0.05509365334079855,
        0.02834035911803165,
        0.05161170872349549,
        -0.018047585738021343,
        0.0010858019683730041,
        -19.32379166926109,
        -0.08264759443781969,
        0.0024430954347130773,
        -2.4744286092840753,
        -0.0021452226136656483,
        -0.05528370417974973,
        0.008175431435707425,
        0.09726012967226502,
        0.06584987937168202,
        -0.044592459301892706,
        -0.05720445908687184,
        6.310060731174527,
        0.0014058682017176471,
        13.940140069252628,
        -0.045028243476399644,
        0.05757090778871882,
        0.06946088378019843,
        -0.03744513785012815,
        0.03820698670860767,
        0.06945203614605697,
        7.742764081688492,
        -0.06711464346410662,
        -20.751451518118923,
        0.00757091576710453,
        0.09769853623150801,
        0.08954775768720197,
        0.02999315319896284,
        3.965802376498896,
        -0.0330214229959573,
        0.028993377176253693,
        -0.09301294506556884,
        0.014475562829266944,
        -0.025151213859897145,
        -0.04361068921059972,
        -0.033558431071192274,
        0.03625391779529502,
        -0.04067235143568074,
        -0.050792623084389324,
        -0.0035502146624890596,
        0.0719326545987263,
        0.09604802734087645,
        0.047863297847968556,
        -0.052638393085774296,
        -0.007541681907158759,
        -0.08819661975028731,
        -0.011536656157696876,
        0.028682113730693015,
        -23.512988566940162,
        -0.01574121496964387,
        -0.07154370752793114,
        0.05140722536263764,
        0.09685101899241441,
        -0.028640980960720208,
        0.07462856950775826,
        -0.02756212813471995,
        0.07673997165111332,
        0.0998351237727004,
        0.09421286069272258,
        -0.029257854379778486,
        0.008141083876344851,
        -0.07439604225060897,
        -0.010132196306722949,
        -0.09295229066420041,
        -0.03149308885167734,
        -0.03425181984944339,
        0.057191659179774396,
        -0.05704367408765898,
        23.008047098292415,
        -0.044463999255123454,
        -0.03499634379697092,
        -0.05949974955684145,
        0.04363696645053561,
        0.05888825458889821,
        -0.050783252734572716,
        7.790762914684144,
        -0.051302443275543966,
        -0.04191183545624027,
        0.0495964094759469,
        0.02945669727866934,
        0.040421838310949365,
        -0.08558689371275374,
        -0.08673034481382272,
        0.011407316540966855,
        0.07819770507079818,
        8.487822460755211,
        -0.020019228955760582,
        -0.0426410695430167,
        -0.06332731688043788,
        -0.027432434136422934,
        0.07701049278516434,
        -0.04935684143765236,
        -0.02389988417440639,
        -0.09836043690078351,
        0.02845960037696177,
        -0.00041522017430821456,
        -0.02016136012408168,
        -0.096978240497891,
        -0.04693804760599196,
        0.0739013218313884,
        5.860667984508126,
        0.07059488015399826,
        -0.06280446479936716,
        0.05616451442283946,
        0.03983599712768887,
        -0.0498280748409603,
        19.785360941825545,
        0.005857855125706288,
        -23.1575465838327,
        0.020325737128834162,
        -0.043210163948521486,
        0.08598619425773474,
        0.0238058380087518,
        20.285833884445267,
        0.03140442170282759,
        0.008915996784685909,
        -0.08825694014686687,
        0.052659341849892904,
        0.041743808853626024,
        -0.022825912236104973,
        -0.04667883257140311,
        0.006497078288526928,
        -0.09478427166635002,
        -9.737023323057581,
        0.04056420101378935,
        2.4583472188148257,
        -0.003689734396372074,
        -0.023643146119068398,
        -0.06276530055686519,
        24.366462143857525,
        -0.020657072489335487,
        -0.05169699832523276,
        -0.05517249034952774,
        -0.09031424467783836,
        -0.057920968013037435,
        0.04669963953039763,
        -0.021568329020077298,
        0.04325197362183647,
        -0.09316292055421216,
        -0.06789283512150318,
        0.004005006750201018,
        -0.07729554824065837,
        -0.09669494750168402,
        -17.99053243186247,
        0.057801749259671104,
        0.09432030035591357,
        -0.0423572321448495,
        0.0759295394419679,
        0.0603475012204617,
        0.04395029748805404,
        0.037525802370674766,
        0.0036001628433533356,
        -0.019894413725788734,
        0.02148020482666628,
        0.020716586972485546,
        -0.058132163373837066,
        -20.700989096514135,
        0.09023340570246585,
        0.08166663225994825,
        -0.09144507138765645,
        0.060900589140380046,
        0.03750407994721755,
        -0.002140393069849006,
        0.09668350672596135,
        1.8071784923454395,
        3.543663910052885,
        0.08294267264348987,
        -0.07711255089176108,
        -0.08143543186658181,
        0.026683182570071295,
        0.08832538791312847,
        0.09077724906880782,
        -0.0942542865462658,
        0.02321827385731394,
        -0.02916055488081848,
        -0.04102697935558744,
        0.0041287534549370175,
        -0.041464694408915294,
        -0.033910874834882684,
        0.0616266025702423,
        -0.026253060817772594,
        -0.0533203238495636,
        0.05004931326703499,
        -0.02826154783524118,
        -0.09754636410344131,
        -0.012451645541076889,
        0.08387571590091444,
        -0.011938545743945733,
        0.027576846045674314,
        -23.888260155708718,
        -0.006825648449922589,
        -0.07003647173795016,
        -0.02509905188591191,
        0.0017672116949459526,
        -0.011163567841884076,
        -0.058683352708821836,
        0.045822240136091624,
        10.946974571020682,
        0.06712010810708016,
        -0.06908490921617694,
        0.0993973266098018,
        5.708249860171467,
        0.08234513720156383,
        24.727614615954188,
        -0.07953072026123031,
        -0.07791485469639099,
        -15.0185996069231,
        0.012387972968968167,
        -12.408816064164585,
        0.056262678434339325,
        -5.997038158075263,
        0.0041024256150315325,
        0.007281895434802843,
        -0.038108666108180915,
        0.06609048652565086,
        18.082896163291785,
        0.006128744453288842,
        6.767250436520378,
        0.05652272415565923,
        0.04442170840488685,
        0.01674476000336393,
        19.902430562907334,
        0.05717939584629603,
        0.08323554409482434,
        -0.08185990336305259,
        -0.6328574613953748,
        0.06352614759069383,
        -0.09353098377632994,
        -0.03703984518848538,
        -19.23437265310135
    ],
    "Biases": [
        0.07893488262601145,
        0.03953510198959992,
        -0.04502030818589136,
        -3.4104742442199623,
        -6.184920215540892,
        0.09796279887461265,
        -0.08224408871686464,
        0.023575157981239728,
        16.76047730540739,
        -0.08084279655616977,
        0.07595103493606797,
        -0.07882995274205654,
        0.08715206370419173,
        0.01567039368476024,
        0.05951944506127202,
        -0.01754298666913967,
        -0.024932463397740218,
        0.023055404752749364,
        0.0707226808696845,
        -0.054562024262541975,
        -0.01652068445062249,
        -0.06277760553544698,
        -0.03962171580148271,
        23.210462650345733,
        0.03524820293678635,
        0.07815628511772862,
        0.014107348504485404,
        -0.08392569372522121,
        0.004312779262804073,
        -0.06839072848215735,
        0.05677205484795059,
        -0.04940848007674279,
        0.08809685111830276,
        0.09144955614465103,
        0.0064076278331471614,
        -0.0819202445875022,
        -0.08724093914199536,
        0.0969876318038417,
        0.0774079128321403,
        -0.05805368802350537,
        0.07344419566015056,
        -0.07479647569402395,
        0.03577800258790248,
        -22.68952461059981
    ]
}