{
    "Layers": [
        10,
        12,
        8,
        4
    ],
    "activationFunction": "sigmoid",
    "Weights": [
        -0.03634027076443598,
        0.06878516650174146,
        0.052995705256546455,
        0.08865478487895836,
        -0.042601189363023685,
        0.06030458510787945,
        0.0773423099667849,
        -0.09283092553788591,
        -0.07335151900726707,
        -0.0010970553711343867,
        -0.03376778165869214,
        -0.009483288563725531,
        0.02752577921039831,
        0.08022986338752594,
        0.058102266639305594,
        0.08567186986111172,
        -0.03309305537505751,
        0.0723995974067854,
        0.009567738564318612,
        -0.04407024609476578,
        -17.24629347118698,
        0.02322254981531069,
        -0.07803354997417991,
        0.07707718578533834,
        0.5034104207043768,
        -0.006675615932742976,
        0.023227513396656768,
        0.015683147805142766,
        0.06154303500028524,
        -0.04055816851020358,
        13.732924845494587,
        0.08316826821209952,
        0.04931462947417922,
        0.09783970407017403,
        0.06889629298145958,
        -21.03346320008348,
        -0.045258414131826366,
        -0.02291954924534942,
        -0.05579080758537805,
        0.05112144155631304,
        0.08054648143262896,
        0.04673961036786306,
        -0.019177750480276062,
        -0.09986869244231192,
        -0.018245644307174264,
        0.0166053231785821,
        -0.01359514955171251,
        0.06341746142532192,
        -0.06251411359456482,
        0.011956576784370704,
        -0.06696147085876203,
        -0.07895714622105082,
        0.06653041621668479,
        -0.04234921456081833,
        0.05577508699857009,
        0.040726122995813185,
        0.08644417210516778,
        -0.0043572598107047555,
        0.018258855596385487,
        11.204722078503316,
        -0.056209283557103445,
        -13.262144504270823,
        -0.08650668326565177,
        -0.016620993927829675,
        -0.042822005676941104,
        0.016187243559653022,
        0.03994598607659877,
        -0.06869948398828041,
        0.011069922482038391,
        0.06568869106673067,
        0.08008719344300036,
        0.044916327390858324,
        0.039697432946710964,
        -0.09478558700618495,
        0.07613152542305565,
        0.012218338962959804,
        -0.014027462721811143,
        0.0916394607963818,
        21.92433817533118,
        0.07983923197329551,
        0.015005232297845561,
        -0.03201046544463747,
        0.05076257208679022,
        -0.02424171841051756,
        0.07923544979955885,
        0.018067887490293352,
        0.046122107640350546,
        0.025354969191607346,
        0.09320988124574564,
        -0.023126117084167716,
        0.09971778052115762,
        0.08872881428686191,
        -0.09491994441897772,
        0.06630829014586262,
        0.05421923556990041,
        -0.04726963870983356,
        -0.09133339092308078,
        0.08035749559309621,
        -8.892043714808441,
        0.010539130602104402,
        -0.05018448043311712,
        0.02522307433344423,
        -14.423080010576372,
        0.014542978758632724,
        -0.06357535257256539,
        -8.7480583317313,
        0.07741848872998172,
        15.582526957354148,
        -0.02253944197855251,
        -0.025389160736127278,
        -0.02056945842539379,
        -0.010667100120217168,
        0.0035271582329866324,
        -0.04033941313313197,
        -0.03444158782738986,
        -0.07380707335930584,
        -0.06856357941327969,
        0.044011619286907416,
        -0.012552816231664904,
        -0.007188903113764772,
        0.010922256565475102,
        -0.004734389895639485,
        -0.07240268174446035,
        -24.961419998652534,
        -0.05469838295791934,
        -0.08948382620243889,
        -0.005949878961221344,
        -0.08035528053149035,
        0.06712738637075732,
        0.0458083945576066,
        -24.25224266408734,
        0.056615257662954305,
        0.050314997372019665,
        0.007400591139059637,
        0.0500326658649633,
        -0.07809125182767325,
        0.051380457639547183,
        -0.07169359288771307,
        0.01992242637342416,
        0.012436003017206682,
        0.0800376292648699,
        0.008962029838447585,
        -24.25469091964203,
        0.0385116126941559,
        0.020112379934217772,
        0.051491145872847977,
        -1.2023650077809904,
        -0.024801248243766685,
        -0.05599478830039009,
        -0.07961838510218003,
        0.03264187375583863,
        0.08945965974651765,
        -0.03942671543363026,
        0.06155188656018834,
        -20.222603185575405,
        0.020996198056477816,
        -0.012927886405426303,
        -0.06850340579393857,
        -0.08851528220765169,
        -0.029055586384937868,
        -0.02915599374213583,
        0.04988088207391356,
        -0.06238593302466025,
        -0.027893351234073063,
        0.0913461374164237,
        -24.00009279592976,
        -0.04717925737584783,
        0.014361280383830485,
        0.05674974024809906,
        0.03103533423583854,
        -0.041773435905445,
        0.08168199353965941,
        -0.08132750588002802,
        0.04113813471807565,
        0.07408297634472377,
        0.08401503937791197,
        0.025593148953624967,
        0.0005259307596033186,
        -0.0693259158517007,
        0.04240421073949069,
        0.060388015894046715,
        -0.08363442495718716,
        -13.666194425231726,
        -24.913249237857894,
        -0.008294005751638828,
        0.04376894424117411,
        -2.227713987834857,
        -0.00986880542829112,
        -0.054441575386952046,
        0.09968553355103746,
        -4.683030536074039,
        -0.00578047462521987,
        0.09053197276823358,
        0.02583878723920785,
        0.07013063198327515,
        -0.01963765269472803,
        -0.07102332076220277,
        -0.7586612956620868,
        -21.799768975014867,
        -0.03170896032315476,
        0.01543922727676636,
        0.006132815612427442,
        0.018143156114084527,
        0.04437958395756522,
        -0.034224975498635055,
        -0.06627078492666638,
        -0.07315214881845918,
        -0.015305268549728843,
        -0.09453235988955383,
        0.09431934813887174,
        -0.01838983540384906,
        -0.057002926088953965,
        0.008889490409021455,
        0.08222955148025243,
        -9.982643152965121,
        -0.035040374821456374,
        -0.08250401123649419,
        0.080215791659636,
        -0.07100459625676142,
        -0.09875503464893742,
        0.060112666374601414,
        -0.023416963270446803,
        -0.0810485865638885,
        0.014694019002576303,
        -0.018184987057232455,
        -0.09442466226125301,
        -0.0737902029652426,
        0.024203454984754333,
        -0.032349764682025134,
        0.013525033921227655,
        0.029704510659197908,
        0.0988918420813151,
        0.09564673201980489,
        -18.463420838639156,
        0.07026269426683895,
        -0.09220915130802454,
        0.007858509852665924,
        0.013289737761972772,
        -0.02637581857104472,
        0.05046609289047485,
        -0.08643976939417711,
        -0.05080380548055113,
        19.635516436051034,
        -23.649638350524206,
        0.004783808647437035,
        0.022635653745350037,
        -0.013019268444750182,
        0.0075567247453287995
    ],
    "Biases": [
        0.09602765150313544,
        -12.268320248326049,
        0.018210032924647596,
        0.060798070256310816,
        -0.07813161820143742,
        -0.06777794780739704,
        0.03948088679553713,
        0.006904125192275012,
        0.019502785411274107,
        -0.08821787135894028,
        -0.07429559098519554,
        -0.030250110074094436,
        0.08216702807823034,
        14.67844436878736,
        0.0225695662096959,
        0.8276039361365548,
        -0.08589555174937345,
        0.08877036977673472,
        0.046951917306960966,
        -0.004532066341468563,
        -0.07424562153078994,
        -0.06321426476776884,
        -0.022031307740903824,
        0.02944730457122663,
        -0.03203897444544572,
        -0.0993891067427323,
        -0.06534008292103302,
        0.04390566360651013,
        -0.04924174373725925,
        -0.0713690089963214,
        17.21548952052926,
        -0.026311189646185132,
        0.057834946881735017,
        0.07636392467724465
    ]
}